-0.012284 -0.012517 -0.0184 -0.016517 -0.020185 -0.034635 0.015457 -0.012006 -0.0050215 0.002205 0.001015 -0.018783 -0.0097821 0.004123 0.02334 0.047339 0.02885 0.0071662 0.013787 0.0029407 8.6584e-05 -0.0020993 0.020267 0.037957 0.033311 0.032523 0.025955 0.029642 0.031136 0.026563 0.032188 0.00048177 0.010037 -0.01899 -0.019689 -0.026561 -0.019598 -0.00044514 0.0064731 -0.0042736 0.00029243 -0.011595 -0.030877 -0.0070475 0.011926 0.032438 0.039233 0.028307 0.034184 0.0111 0.022299 0.016497 0.026517 0.020542 0.034611 0.029048 0.043427 0.040586 0.040384 0.044521 0.03247 0.015844 0.024097 -0.012904 -0.02662 -0.010588 -0.0009162 0.0040957 0.01623 -0.0094225 -0.011197 -0.018736 -0.016004 -0.024026 -0.020019 0.0071838 0.026729 0.031625 0.037017 0.041701 0.033187 0.025906 0.028008 0.031147 0.037236 0.033008 0.048526 0.052774 0.045843 0.036459 0.019909 -0.0094829 -0.015985 -0.035539 -0.030713 -0.021957 0.00055918 -0.0028875 -0.011439 -0.013296 -0.022764 -0.029379 -0.01081 -0.033842 -0.0062877 0.0098553 0.025721 0.037244 0.028468 0.045269 0.053653 0.035715 0.034944 0.0211 0.028121 0.033966 0.043544 0.051541 0.051325 0.039996 0.022115 -0.0097495 -0.019343 -0.073597 -0.036814 -0.013539 0.0079595 -0.02335 -0.022265 -0.010443 0.0025639 -0.0085314 -0.0028375 -0.017891 -0.026373 0.0062234 0.015465 0.0106 0.029764 0.032602 0.02143 0.022716 0.035412 0.035503 0.038716 0.039227 0.051648 0.059088 0.055581 0.031508 0.023739 -0.0066226 -0.025074 -0.061371 -0.042416 -0.026305 0.0029902 -0.025826 -0.02699 -0.013887 0.00032344 0.024598 0.0073524 0.006205 -0.012879 0.0099011 -0.0092979 0.01819 0.0013129 0.015112 0.011124 0.029721 0.031101 0.045589 0.036917 0.057224 0.044812 0.054764 0.032415 0.03202 0.014199 -0.017962 -0.018083 -0.049023 -0.023748 0.0075396 0.02073 -0.020359 -0.012088 0.0048729 0.038508 0.018169 0.016667 -0.0036221 0.0042635 -0.022213 -0.016049 0.00073717 0.0045458 0.010745 0.018924 0.017456 0.033744 0.038784 0.035653 0.030751 0.044561 0.050825 0.030524 0.023164 0.0050098 -0.01208 -0.03178 -0.065072 -0.014003 -0.00099668 0.010672 -0.018406 -0.0030246 0.015563 0.04172 0.00090713 -0.001266 -0.0039599 -0.016843 -0.019314 -0.0063678 0.011105 0.0027335 -0.0019131 0.0058434 0.020994 0.04221 0.051869 0.049505 0.051053 0.045953 0.053696 0.037222 0.02392 0.0043818 -0.033255 -0.034319 -0.036088 -0.0027646 -0.0060829 -0.013335 -0.013711 -0.014866 0.010725 0.024847 -0.0019417 -0.0069309 -0.0050171 -0.0059941 -0.024648 -0.008527 0.020106 0.00093248 0.01007 0.028143 0.039505 0.062306 0.054662 0.054931 0.058589 0.057798 0.071718 0.04487 0.027506 0.0096378 -0.035494 -0.036701 -0.041719 -0.013186 -0.011382 -0.013915 -0.0027874 0.0036446 0.034919 0.031002 -0.0019502 0.019054 -0.008474 -0.00061153 -0.012011 -0.0096155 0.012659 0.0088749 0.013113 0.038429 0.047968 0.073988 0.064785 0.054578 0.056244 0.059713 0.059433 0.037904 0.028151 0.0039434 -0.042181 -0.022212 -0.016191 0.0049705 0.0038129 -0.0030613 0.021145 0.012295 0.050212 0.04132 0.011381 -0.0066383 0.0024741 -0.013094 -0.011964 0.016473 -0.0022468 0.011378 0.018706 0.019243 0.030323 0.052595 0.048908 0.054698 0.049052 0.030868 0.035181 0.035833 0.021677 0.014716 -0.016362 -0.0084602 -0.028316 -0.0062206 -0.026621 0.0088464 0.01216 0.031705 0.034313 0.045573 0.0074473 0.0033251 -0.022457 -0.017933 0.008836 -0.00028449 -0.02022 -0.0322 0.016292 0.026175 0.022835 0.038417 0.046223 0.041086 0.041612 0.020986 0.014888 0.013142 0.01288 0.013371 -0.0097678 -0.029885 -0.028607 -0.023166 -0.023623 -0.015062 0.02182 0.021758 0.02419 0.022272 0.020432 0.0088689 0.023782 -0.0033209 0.033882 0.015685 0.0086401 -8.3896e-05 0.023962 0.022445 0.026651 0.044723 0.04268 0.026377 0.020012 0.018011 0.013575 0.019608 0.0024673 0.012717 -0.0074052 -0.046484 -0.039008 -0.037984 -0.014276 0.003618 0.020092 0.027139 0.014143 0.046121 0.039439 0.024375 0.028313 0.018179 0.017212 0.0051185 0.022836 0.0092875 0.037148 0.018862 0.016963 0.02908 0.014301 0.00012009 0.0015397 -0.0037284 0.0038861 0.016016 0.0056607 0.013782 -0.024445 -0.025727 -0.038271 -0.039639 -0.028554 -0.00091772 0.020873 0.0097175 0.016436 0.041163 0.014525 0.0079811 0.0097739 0.0093728 0.014121 0.012074 0.023492 0.014924 0.028002 0.016505 0.00074261 0.0075718 0.0079461 0.0012907 0.0024873 -0.010427 0.0056494 0.013995 0.0071234 0.0066421 -0.030182 -0.031953 -0.035963 -0.044444 -0.0094846 0.028009 0.022151 0.01834 -0.00028897 0.017213 0.0025976 0.015796 0.020164 0.006082 0.039811 0.01687 0.01461 0.012023 0.03031 0.023456 0.0069942 0.013879 0.0098042 0.01137 0.025906 0.0038227 0.020652 0.037926 0.022522 0.012144 -0.02767 -0.02731 -0.026398 -0.045284 -0.039998 0.005785 0.00104 -0.00019627 0.019017 0.024112 0.014071 0.0084733 0.027189 0.039613 0.032539 0.022928 0.019061 0.027155 0.01827 0.018873 0.01305 0.010629 0.016579 0.033512 0.018142 0.010796 0.024513 0.031813 0.022725 0.019372 -0.038677 -0.02551 -0.041791 -0.020303 -0.027097 0.028977 0.022161 0.023839 0.045332 0.027334 0.026471 0.012159 0.028817 0.024919 0.011146 0.0039503 0.017846 0.017295 0.016601 0.028468 0.0046982 0.020686 0.020049 0.01605 0.017177 0.0023831 0.019769 0.013487 0.018917 0.0079505 -0.031573 -0.023255 -0.023694 -0.00064939 0.0033657 0.045618 0.045103 0.046608 0.06718 0.032541 0.023498 0.015105 0.029223 0.0058961 -0.0025797 -0.0080698 0.031674 0.0061605 0.010131 -0.010444 -0.010034 0.003813 0.013882 0.017116 0.0033149 -0.012088 0.010994 0.016706 -0.0078632 0.007937 -0.047639 -0.022794 -0.023361 -0.00084392 0.021866 0.062031 0.044472 0.063306 0.07018 0.053153 0.029803 0.044722 0.038967 0.021306 -0.0048052 -0.013628 -0.0097364 -0.0016894 -0.012369 -0.017902 -0.0098611 0.0092551 0.00040589 -0.01636 0.0046208 0.0068398 0.0029052 0.013747 -0.0024374 -0.011701 -0.039546 -0.039657 0.0049448 0.01384 0.035955 0.045884 0.052204 0.053715 0.068776 0.069168 0.044218 0.056723 0.046299 0.0013627 -0.0024367 0.00080837 -0.024006 -0.022429 -0.020172 -0.01733 -0.0084594 -0.018907 7.3682e-05 -0.010395 -0.0085173 0.0079349 0.0089372 0.008609 0.003558 -0.020671 -0.0424 -0.034002 0.0021305 0.024853 0.040692 0.067422 0.057457 0.051168 0.049108 0.049391 0.036724 0.030295 0.038192 -0.0013632 -0.010246 -0.019693 -0.023166 -0.0024464 -0.0124 -0.02244 -0.016059 -0.004086 0.0026315 0.012866 -0.0012807 -0.017776 0.0089375 0.016832 -0.0053696 -0.032736 -0.058815 -0.029012 0.013586 0.025627 0.040727 0.06968 0.060339 0.062465 0.053695 0.023302 -0.0039364 0.0052714 0.012576 -0.027935 -0.0048601 0.003638 0.0085859 0.00097536 6.503e-05 -0.0069067 -0.010519 -0.024182 -0.0052078 0.0031531 0.0034863 -0.010657 -0.01815 0.0084465 -0.021227 -0.018492 -0.05873 -0.033385 0.0083916 0.057028 0.066274 0.058152 0.061822 0.051063 0.035672 0.013691 -0.005099 0.0072339 0.010845 -0.023449 -0.011915 -0.0091427 0.010292 0.024838 -0.012691 -0.014416 -0.0047161 -0.0091423 0.0068093 -0.030424 2.1368e-05 -0.033524 -0.012919 -0.014635 -0.025781 -0.029876 -0.041624 -0.020061 0.0069645 0.045382 0.072223 0.064396 0.036566 0.057809 0.046725 0.0055548 -0.0054267 0.011424 0.015801 0.0065296 -0.011012 -0.017887 -0.011217 -0.0094836 -0.011153 -0.0010009 0.0046629 -0.0030245 -0.010248 -0.0090365 -0.019657 -0.026942 -0.028169 -0.015137 -0.051465 -0.037278 -0.031215 -0.027308 0.003131 0.02915 0.07121 0.043684 0.03683 0.016471 0.013133 0.016734 0.02519 0.015633 0.012747 -0.0082922 -0.025491 -0.0021596 0.011548 -0.0026887 0.0040982 -0.014269 0.021617 0.012101 -0.016661 -0.021697 0.0048187 -0.023028 -0.014785 -0.030499 -0.032888 -0.026571 -0.010248 -0.020211 0.0055546 0.01253 0.031046 0.0048533 0.0069761 -0.0033606 -0.0089544 -0.0052302 0.032889 0.011336 0.00094512 0.0066925 0.0087925 -0.0081503 0.0015759 0.031122 0.0091474 0.0049328 -0.0080893 -0.016297 -0.014553 -0.0026362 -0.010465 -0.0014167 0.0015442 -0.023599 -0.019736 -0.050056 0.026279 0.019824 0.031306 0.020827 0.042054 0.0028376 0.0033585 0.0048054 0.0099865 0.02571 0.027667 0.024733 0.014978 0.0062727 0.022819 -0.012036 -0.012762 -0.011085 -0.0089569 0.0055348 0.017246 0.012792 0.018196 0.026445 0.0093392 -0.023964 -0.025697 -0.030415 -0.02582 -0.033399 0.039715 0.031166 0.02371 0.021551 0.021743 0.011572 0.0061406 0.014227 0.044222 0.026921 0.026819 0.033781 0.039562 0.0043026 0.0015835 -0.0050196 -0.004108 -0.033057 -0.014603 0.0083084 0.030232 0.011773 0.0091716 0.0097609 -0.018153 -0.037933 -0.036245 -0.040617 -0.020085 -0.010025 0.026456 0.033049 0.0338 0.025867 0.022776 0.029768 0.010228 0.019391 -0.001871 0.0022714 0.0021098 0.0077802 0.024404 0.017371 0.013517 0.0085744 -0.017958 -0.025363 -0.012314 -0.024994 -0.0095006 0.012039 0.015601 0.0073641 -0.003994 -0.036861 -0.042244 -0.035524 -0.017749 0.041582
1.1661 -0.34981 -0.13659 0.15414 0.29874 0.15389 0.046528 0.0063065 0.10542 0.17438 -0.16202 0.03668 -0.035124 -0.25935 -0.1955 -0.027718 0.065682 0.42502 -0.14317 -0.10036 0.0035848 0.0092885 -0.16266 -0.064417 0.021337 -0.22299 -0.3223 0.0088865 0.057757 0.17066 -0.21222 -0.21703 -0.24783 -0.10415 0.14997 -0.2062 -0.10936 -0.18784 -0.053226 -0.08582 0.2215 -0.18974 0.085262 -0.088696 -0.12735 -0.1777 -0.22327 0.14917 -0.04048 -0.26153 -0.12933 0.22114 0.132 0.12392 -0.067252 -0.12488 -0.005038 -0.031055 -0.12934 0.26629 0.16657 0.092705 0.035349 0.096393 0.012828 -0.071813 0.041142 -0.11084 -0.082884 -0.12496 0.14495 -0.11422 0.12672 0.295 0.18888 -0.0043824 -0.096841 0.29195 -0.04064 -0.17611 0.075677 0.30786 0.060248 0.0057522 -0.077867 0.14017 0.33182 -0.019732 -0.12933 -0.065147 -0.1707 -0.12929 0.026945 -0.097585 -0.07939 -0.42338 -0.0081854 -0.1177 -0.069317 -0.012903 -0.24562 -0.026939 0.06776 0.090774 -0.076749 -0.027039 -0.11302 0.10726 -0.057857 0.038035 -0.033258 0.20211 0.088029 -0.15542 -0.33787 -0.2369 0.20765 0.051968 0.081655 0.24987 -0.44516 -0.3141 0.087515 0.067635 0.029317 0.11204 -0.0064429 0.11741 -0.040323 -0.27925 0.17926 -0.26845 0.028313 0.008303 -0.013816 0.12776 0.076627 0.17803 -0.024181 0.045795 0.21305 -0.072223 -0.067409 -0.040226 -0.34709 0.1331 0.017661 -0.26153 -0.053345 -0.23875 -0.063559 -0.13519 0.10357 -0.1963 0.0077908 0.26906 0.25688 -0.11455 -0.24329 0.0072221 0.18578 -0.12614 -0.14411 -0.15239 -0.048272 -0.016988 -0.10907 -0.065564 0.051412 0.044283 -0.17952 -0.12361 -0.18759 -0.058602 0.059261 -0.10111 -0.09398 0.025399 0.025129 0.049473 -0.16273 0.061849 0.1758 0.0017603 -0.17985 -0.019682 -0.1487 -0.093895 -0.058648 0.30007 -0.10734 -0.076394 -0.060142 -0.080737 -0.15874 -0.00026589 0.059942 -0.07019 0.0093414 -0.25936 -0.40612 -0.23218 -0.14491 0.10514 0.079281 0.053129 0.13674 -0.13489 -0.32564 0.081028 -0.21356 -0.047057 0.26646 0.3185 0.042478 0.059818 -0.09901 -0.034401 -0.16446 0.20897 -0.1787 0.063397 -0.17743 -0.070818 -0.15226 -0.15007 -0.12058 -0.27494 0.2249 -0.19131 -0.075943 0.15778 -0.33057 -0.068823 -0.093552 0.064135 0.17134 0.082181 0.097286 0.17178 -0.075256 -0.10179 0.043305 0.0047474 -0.081427 -0.070066 -0.051947 0.078376 -0.28306 0.022449 -0.084171 -0.30746 -0.30053 -0.20026 -0.27591 -0.12293 -0.063302 0.0062536 -0.013548 -0.028155 -0.0094111 0.0079581 -0.1352 -0.18672 -0.13559 0.031203 0.0017218 0.24637 0.13185 0.22693 0.10252 -0.055061 0.021974 -0.034603 -0.12438 0.095583 -0.039776 -0.15179 0.0012636 -0.15869 0.04004 -0.23018 -0.42241 -0.13542 -0.30241 -0.11838 -0.10249 -0.27306 0.033169 0.0081772 0.094061 -0.070151 0.026359 -0.014853 0.085002 0.20537 0.11627 0.071399 0.046422 0.035111 0.07934 0.03307 -0.14894 0.19212 -0.031124 0.16257 -0.091697 0.062041 0.056916 0.22762 0.0038835 -0.25955 -0.19172 -0.13411 -0.090733 -0.1954 -0.00026367 0.10109 -0.10202 -0.26598 -0.26414 0.034056 -0.033815 0.12841 0.036976 -0.12169 0.18398 -0.10556 -0.036681 0.14329 0.032731 -0.22612 -0.0743 0.063327 0.096732 -0.009848 -0.33351 -0.46082 -0.062253 -0.27389 -0.10961 -0.099403 0.13757 0.059956 -0.022888 0.040682 0.07454 -0.037572 0.096402 0.042334 -0.033397 -0.11538 -0.044019 0.26366 -0.21193 -0.020388 -0.0084232 -0.033526 -0.13045 0.16315 -0.11468 -0.16593 0.0032931 0.087732 0.19795 -0.040612 -0.23548 -0.29791 -0.19024 -0.29005 0.11685 -0.18773 0.052949 -0.25408 -0.14305 -0.27607 -0.012729 -0.16495 -0.061061 0.23038 0.021742 0.0035208 0.080027 0.22486 0.0043372 0.2479 0.057822 -0.039066 0.22145 -0.28546 -0.19484 -0.0037535 0.020169 -0.0062295 0.18845 -0.053673 -0.099533 0.16265 0.082418 -0.070785 0.15867 0.10402 -0.20445 -0.1712 -0.24594 -0.26132 -0.088702 -0.23081 -0.26184 0.23363 -0.1737 -0.21086 0.13381 -0.18963 -0.23968 0.18764 -0.044628 0.089331 0.15446 0.060348 -0.092789 0.14575 -0.0797 0.15047 0.37921 0.08201 -0.080985 0.12133 -0.10785 0.35369 -0.13679 0.33136 -0.21053 0.10259 -0.039063 -0.35704 -0.0061069 0.2081 -0.01015 0.15275 0.17589 0.00011193 0.06702 0.18139 0.039425 0.024933 -0.069449 0.13338 0.085401 -0.018592 -0.12221 0.088011 0.057841 0.084411 0.15165 0.069698 0.22207 -0.066616 -0.16632 0.060325 -0.1369 0.10693 -0.026839 -0.10284 0.043798 0.061248 -0.28659 -0.38234 -0.051196 0.18878 -0.23765 -0.11136 -0.1787 -0.022783 0.12861 -0.065215 -0.16238 0.15623 -0.034365 -0.070523 0.070271 -0.10122 0.045727 -0.046172 0.35388 0.14402 0.1311 0.34026 0.25401 0.24763 0.048732 0.072928 0.048161 0.03298 0.034214 -0.050169 -0.22055 -0.20111 0.13465 -0.13177 -0.053503 -0.16345 0.059347 0.040559 0.069301 0.049957 -0.068672 -0.042477 -0.030875 -0.14385 -0.17682 -0.032476 0.1584 0.23561 0.13664 0.36532 0.21752 0.09192 0.3174 0.34938 0.047346 -0.077227 0.24629 -0.10644 -0.023364 -0.11802 -0.0068873 -0.14947 0.034841 0.1897 0.093641 0.33942 0.33908 0.41003 0.20272 -0.038238 0.11716 -0.27973 -0.033704 -0.027168 -0.083242 -0.074887 0.42457 0.07983 -0.083784 -0.004704 0.15022 0.21509 0.17127 0.10066 0.072656 0.075809 0.35068 -0.2482 0.021293 -0.055983 -0.12481 -0.10432 0.030415 -0.025976 0.010535 0.18918 0.07817 0.19144 0.095142 0.076429 0.045639 -0.18259 -0.030294 0.0074468 0.25602 0.17786 0.25065 -0.17579 -0.25172 -0.085993 0.093566 0.061405 -0.017832 0.2416 -0.058884 0.02171 0.18731 -0.04362 0.22081 0.071458 -0.041143 -0.010361 -0.12047 0.17902 0.090138 0.093031 -0.10198 -0.037208 -0.040674 -0.027032 0.097944 -0.0019632 0.064497 -0.14419 -0.27465 0.15952 0.10068 -0.24314 -0.079255 0.00099437 0.3477 -0.12167 0.1605 -0.12279 -0.052245 0.088666 0.23008 -0.070773 0.21237 -0.22532 0.16786 -0.18014 -0.31259 -0.20952 0.023598 0.012379 0.08003 -0.19541 0.0086212 -0.034885 0.21324 0.26901 -0.073279 -0.13334 -0.17905 0.064379 -0.05305 -0.030909 0.27067 0.18459 0.034577 -0.25254 -0.098161 -0.03549 0.23651 0.016345 0.039559 0.1203 0.063805 -0.22061 0.16742 -0.035882 0.1409 0.068922 -0.074138 0.088526 0.065 0.1652 -0.051845 0.12995 0.086193 0.048525 -0.019254 -0.24502 -0.142 -0.16657 0.16745 0.37246 0.057468 0.09 0.055003 0.10903 -0.35466 0.012649 0.28764 -0.1346 -0.097704 -0.21766 0.24026 -0.19406 -0.0054604 0.076695 0.097306 -0.049503 0.10036 0.20951 0.25147 0.1577 -0.14262 -0.1609 0.012504 -0.11288 -0.027188 0.013013 -0.35625 -0.18484 0.15115 0.26609 0.05074 -0.12034 0.2022 0.19193 -0.28643 0.059029 0.18446 0.26888 -0.12851 0.17597 0.1873 -0.075748 -0.17244 -0.11244 0.067376 -0.065459 0.1972 0.068016 0.054109 -0.040713 -0.0047106 -0.1218 -0.063962 0.083101 0.082479 0.15358 -0.19721 -0.13991 -0.0095955 -0.11884 -0.10932 -0.19169 0.17756 0.014435 -0.041615 -0.14275 0.17741 -0.18147 -0.29745 0.093064 -0.10754 -0.31036 -0.23465 0.23439 0.47733 -0.068297 0.23886 0.28224 0.15534 0.056015 0.15025 -0.023281 0.034354 0.18383 0.11129 0.08822 -0.20577 -0.052485 -0.012458 -0.00062854 0.03726 0.12102 0.042083 0.1215 -0.073139 0.16236 0.081835 -0.12189 0.0027135 -0.037132 -0.12071 -0.19913 0.15289 0.1591 0.16836 -0.088635 0.11814 0.014432 -0.11325 0.089102 0.039563 0.060415 0.0056172 0.022502 0.010924 0.16913 0.018614 -0.29362 0.11514 0.034485 0.00053919 -0.047134 0.11922 0.1381 -0.15931 0.14388 -0.095686 0.067289 0.0056549 0.332 0.026067 0.19707 -0.19258 0.018135 0.15356 -0.12831 0.21768 0.1038 0.19016 -0.12224 -0.068337 0.088981 -0.082852 -0.11054 0.36526 0.084209 0.18895 -0.17602 -0.12762 -0.37916 0.13538 -0.019486 0.0064757 0.051779 0.28719 -0.048726 -0.048561 0.1502 -0.086044 -0.1428 0.14448 -0.16317 -0.17498 0.036357 -0.03803 0.25067 0.12829 -0.10409 -0.068602 -0.020361 -0.17876 -0.11425 0.056776 0.066403 0.21597 0.02065 -0.13447 -0.31038 -0.29358 -0.20385 0.062988 -0.099574 0.30071 -0.12597 0.002052 0.089865 -0.11954 -0.43135 -0.044589 -0.19387 0.16507 0.16042 0.29437 0.12595 0.17702 0.38465 0.22176 0.15238 0.21958 0.1223 0.14984 -0.032368 -0.098272 -0.13609 -0.17544 -0.15765 -0.30833 0.086558 -0.0047589 0.11621 0.030472 -0.075391 0.33906 0.057191 -0.021291 -0.13466 -0.33302 -0.40003 -0.12857 0.19056 -0.15123 -0.024825 -0.17534 0.0037411 0.27711 0.18561 0.03386 0.20654 0.017374 -0.18486 0.030931 0.12905 -0.18915 -0.11697 0.29525 0.30202 0.078804
0.30999 0.0035346 0.00048565 0.0091353 0.0098606 0.0036032 0.0006504 -0.012391 -0.0060821 -0.0033591 -0.00075532 0.0012225 0.0038334 0.0084361 0.0083769 0.013102 0.0071498 0.0013735 0.0018785 0.0019083 0.0043315 0.0022462 0.0086655 0.011135 0.011529 0.013828 0.018451 0.018914 0.016845 0.0086554 0.005646 0.0029087 0.0038471 0.0068917 0.0067769 0.0064481 0.0022572 0.00029908 -0.00032278 -0.0046686 0.0051774 0.0022633 0.0027705 0.0055946 0.0076804 0.016099 0.013908 0.015104 0.01374 0.0078749 0.014562 0.0096535 0.0089912 0.012926 0.018956 0.017001 0.021188 0.020546 0.020578 0.014881 0.0079602 0.0068998 0.0080961 0.010326 0.019554 0.014838 0.012 0.0060802 0.0090266 0.0020478 0.0069387 0.0038966 0.0065905 0.0048099 0.0086114 0.011571 0.014433 0.014404 0.016358 0.014648 0.017391 0.018963 0.017957 0.017568 0.023535 0.024091 0.02134 0.019338 0.014259 0.0072679 0.0013244 0.0023521 0.0067496 0.015892 0.015678 0.01618 0.013277 0.0073819 0.0039724 0.0043486 0.0097719 0.0078793 0.010692 0.005883 0.01019 0.014159 0.018955 0.016977 0.017675 0.01727 0.021495 0.019252 0.012886 0.017197 0.024064 0.020321 0.020178 0.021105 0.0084556 0.01165 0.003648 -0.0022924 0.0022958 0.010367 0.018122 0.015354 0.013464 0.00040551 0.0078521 0.0088149 0.012058 0.01318 0.014305 0.01342 0.0082492 0.014006 0.016005 0.013553 0.017094 0.017931 0.015691 0.010084 0.016695 0.022482 0.021287 0.017348 0.023767 0.013757 0.013652 0.0053359 0.00089731 0.0027951 0.0020031 0.0101 0.011233 0.011061 0.0084461 0.0038443 0.0070999 0.006925 0.011143 0.015719 0.016843 0.021345 0.010401 0.015722 0.013441 0.016097 0.012073 0.011549 0.010137 0.013097 0.014857 0.019276 0.013471 0.015291 0.008183 0.020351 0.0078713 0.0081994 0.00079232 0.003643 0.0034846 0.0090937 0.011197 0.0084477 0.0067097 0.0021308 0.0068859 0.011637 0.017794 0.014839 0.017322 0.019984 0.022286 0.013221 0.011963 0.01049 0.015791 0.013859 0.0076763 0.011962 0.022119 0.010907 0.0060634 0.007416 0.01318 0.019214 0.01104 0.012059 -4.0245e-05 0.0020828 0.0034188 0.0044011 0.011591 0.0076864 0.0062219 0.0019818 0.0057819 0.0090351 0.01248 0.014503 0.012656 0.018995 0.023759 0.020839 0.015149 0.012207 0.0085397 0.0080487 0.0083404 0.013538 0.015377 0.014499 0.010767 0.0098679 0.015527 0.017919 0.013991 0.01154 0.00011288 0.0028682 0.0035348 0.01024 0.013613 0.010896 0.0049107 0.005458 0.0084413 0.010092 0.020431 0.017077 0.016124 0.019281 0.027565 0.018636 0.01015 0.011325 0.0046514 0.01134 0.01316 0.016852 0.023642 0.016604 0.015555 0.014138 0.01791 0.027995 0.01851 0.011107 0.0045873 0.0037355 0.011609 0.011534 0.01287 0.013942 0.0063832 0.0093509 0.012443 0.017189 0.013173 0.017682 0.021364 0.022206 0.020275 0.013522 0.0081301 0.012201 0.0078126 0.0077179 0.017302 0.018555 0.021257 0.017118 0.013818 0.018144 0.023569 0.018985 0.017221 0.012998 0.0063762 0.0057509 0.018228 0.021681 0.015913 0.015932 0.013218 0.012129 0.01446 0.019858 0.015524 0.017264 0.021884 0.019263 0.013278 0.0087042 0.013844 0.015245 0.012233 0.014418 0.016332 0.018689 0.014424 0.015745 0.0169 0.018048 0.020026 0.018304 0.01529 0.0082113 0.010892 0.0066085 0.018641 0.016428 0.013518 0.005944 0.014321 0.010119 0.014846 0.015431 0.015148 0.014227 0.015528 0.01244 0.0097256 0.010835 0.014683 0.013884 0.01107 0.023094 0.016144 0.011603 0.0091684 0.015398 0.016707 0.015361 0.016074 0.016389 0.01626 0.013693 0.0088715 0.0080681 0.01547 0.016897 0.010515 0.0092577 0.011271 0.016594 0.011197 0.011564 0.014073 0.012852 0.012226 0.012264 0.012537 0.015651 0.019332 0.017698 0.019728 0.018709 0.011238 0.0088274 0.010843 0.0087275 0.011974 0.014373 0.014451 0.013083 0.016224 0.0088747 0.0063038 0.0048551 0.0068468 0.010048 0.012625 0.0088439 0.013531 0.01444 0.018466 0.0096042 0.017418 0.017067 0.016544 0.012308 0.019147 0.018455 0.019749 0.023146 0.01924 0.019101 0.011459 0.010291 0.011766 0.0074907 0.0064205 0.0063945 0.010695 0.014017 0.015228 0.0093367 0.0040964 0.0056318 0.013824 0.010058 0.010921 0.0067531 0.010357 0.01014 0.01041 0.0074771 0.012169 0.010989 0.012575 0.0096452 0.013409 0.013838 0.01763 0.018082 0.018696 0.017621 0.014493 0.011076 0.011492 0.0057911 0.0063759 0.0079176 0.0099057 0.01423 0.017282 0.0086442 0.0039788 0.0038289 0.0094468 0.0083835 0.0065577 0.0083045 0.010821 0.010197 0.00789 0.0081185 0.011778 0.015433 0.01421 0.013557 0.013392 0.021757 0.014209 0.014112 0.021146 0.015605 0.014239 0.013675 0.015238 0.013091 0.0086344 0.01324 0.013193 0.016388 0.019604 0.008976 0.0029115 -0.0010659 0.0062975 0.010309 0.0075816 0.0044562 0.0080804 0.0066239 0.0064967 0.010426 0.013346 0.011821 0.011164 0.011956 0.017006 0.018674 0.014465 0.01482 0.020636 0.018615 0.014217 0.011734 0.011025 0.011265 0.012895 0.013333 0.015045 0.014325 0.01651 0.010328 0.0080256 0.00011099 0.0047583 0.0046101 0.0086423 0.0042296 0.010512 0.011095 0.013292 0.01807 0.0062661 0.012023 0.01176 0.014834 0.010995 0.017138 0.018458 0.019588 0.012815 0.018725 0.015113 0.010446 0.011903 0.013264 0.0084651 0.010555 0.010414 0.015186 0.013896 0.014045 0.006818 0.0013044 0.004047 0.0093655 0.010299 0.0090088 0.015803 0.01357 0.015134 0.015986 0.013552 0.015859 0.019367 0.020681 0.012881 0.015848 0.015924 0.018071 0.0092911 0.013956 0.010698 0.011092 0.0083223 0.0074134 0.006445 0.0073382 0.0077425 0.011799 0.014231 0.0066492 0.0071366 0.0021959 0.0092075 0.014394 0.010866 0.0089219 0.013784 0.012036 0.0099318 0.015389 0.013778 0.018552 0.027781 0.021495 0.019684 0.013187 0.01308 0.0080183 0.007244 0.0071126 0.0098907 0.011167 0.0064992 0.0080469 0.0028943 0.009991 0.0070901 0.010267 0.013375 0.010406 0.0066291 0.0034564 0.0073855 0.020082 0.010735 0.011007 0.0099311 0.011073 0.0082996 0.008278 0.020993 0.022272 0.029501 0.023637 0.014249 0.0084374 0.014643 0.0097246 0.0016694 0.0047972 0.010358 0.0088902 0.0070023 0.0074263 0.0066835 0.0037743 0.0074872 0.0086797 0.01433 0.013951 0.0067931 0.00088094 0.0045786 0.01472 0.011482 0.010543 0.0098304 0.0080129 0.0072156 0.0099147 0.016948 0.019081 0.01767 0.020087 0.019475 0.011689 0.01044 0.010364 0.0094563 0.0094909 0.0096542 0.0067749 0.010714 0.0096982 0.0069705 0.0062622 0.003347 0.0092719 0.016823 0.014667 0.0060924 -0.0017328 0.0046617 0.014934 0.012373 0.013241 0.008746 0.0091403 0.01255 0.0166 0.016462 0.010713 0.01523 0.014339 0.0077423 0.012399 0.016912 0.014195 0.015716 0.010487 0.0076169 0.0061857 0.0057374 0.0092539 0.0053914 0.0094882 0.0061585 0.0075167 0.015928 0.012054 0.0066829 0.0018193 0.010854 0.018128 0.021711 0.022125 0.011318 0.015889 0.015049 0.013349 0.014146 0.012249 0.012454 0.012821 0.012394 0.014163 0.011884 0.0090626 0.0077203 0.0080168 0.0096552 0.010002 0.0084084 0.011742 0.0056873 0.0088855 0.0027321 0.0081056 0.011411 0.0084321 0.0041806 0.0068081 0.010391 0.013656 0.019865 0.024069 0.021562 0.011966 0.012014 0.016355 0.01261 0.014635 0.013345 0.015188 0.017894 0.017137 0.0062753 0.006784 0.0047579 0.0035235 0.0059411 0.006699 0.0089179 0.011274 0.011889 0.0097221 0.00482 0.0062069 0.011306 0.0044406 0.0039543 0.011648 0.011568 0.011582 0.020674 0.026566 0.022213 0.017773 0.016524 0.012217 0.016443 0.016557 0.017431 0.015427 0.014173 0.011695 0.01314 0.0083763 0.0062401 0.0042413 0.010456 0.01018 0.011906 0.0070918 0.0039932 0.01455 0.01025 0.0075046 0.01022 0.0044237 0.003205 0.0078907 0.013557 0.013271 0.012255 0.016623 0.015211 0.016476 0.01414 0.016341 0.01361 0.014279 0.014076 0.011438 0.014905 0.012422 0.012188 0.0081142 0.010122 0.0064861 0.012478 0.014083 0.0060372 0.0072123 0.013502 0.010648 0.012223 0.016424 0.012304 0.0096376 0.0074831 0.0071131 0.017798 0.017122 0.015893 0.019983 0.012554 0.015936 0.017278 0.017094 0.021139 0.016604 0.015599 0.008444 0.010219 0.016133 0.018842 0.017292 0.013416 0.006942 0.0097311 0.011888 0.014503 0.011435 0.017755 0.018496 0.01288 0.011861 0.0076024 0.0075266 0.0093395 0.004327 0.0096595 0.015098 0.01228 0.012961 0.017075 0.012558 0.011627 0.014899 0.0094198 0.012082 0.015388 0.013584 0.014172 0.015313 0.019539 0.02043 0.01343 0.0089741 0.01297 0.01299 0.011471 0.015707 0.016677 0.015853 0.01453 0.0059429 0.0042676 0.0044343 0.002681 0.0036982 0.0088816 0.010172 0.0092821 0.014651 0.012146 0.0094446 0.012167 0.0028689 0.0025566 0.0068294 0.0079993 0.014163 0.012377 0.01305 0.017924 0.013857 0.011995 0.010488 0.0061649 0.0056659 0.008034 0.0068841 0.011879 0.012958 0.0056105 0.006137 0.0039874 0.0017716 0.007288
1.9109 -0.10248 -0.11582 0.0024071 -0.12423 -0.094634 0.024729 -0.10345 0.20673 -0.038298 -0.11101 0.062092 -0.076637 0.088607 -0.089047 -0.1211 -0.00096424 -0.258 -0.11366 0.086034 0.040463 -0.24822 -0.20357 -0.058158 -0.099039 0.025071 0.040162 -0.11361 -0.1134 -0.2181 -0.23528 0.01008 -0.055524 -0.15844 -0.18908 -0.036376 0.01656 0.036461 0.19876 0.15073 -0.19501 -0.028408 0.022206 0.25921 -0.032176 0.40381 0.19963 0.19841 0.21825 0.11529 0.14378 0.054755 0.21162 0.16221 0.18703 0.091478 -0.046743 0.014608 0.12639 0.0082124 0.15734 0.15791 -0.11866 -0.16323 -0.049814 -0.1131 0.3011 0.065959 0.081809 0.062162 -0.048716 0.045948 0.16906 0.058738 -0.080518 -0.15671 -0.062082 -0.019904 0.12827 0.14507 0.013252 0.13196 -0.042808 -0.032362 0.08615 0.09533 -0.11209 -0.11783 -0.16914 0.097722 0.074385 -0.16609 -0.23829 -0.062642 -0.059768 -0.11627 0.2985 0.037281 0.071031 0.21691 0.086114 -0.055049 -0.034039 -0.073712 -0.045418 0.00033151 -0.14777 0.21746 -0.022442 0.022018 0.054183 0.24109 -0.11955 -0.090301 0.066924 0.02865 0.027053 -0.013896 -0.04562 0.25554 -0.045078 -0.19247 -0.045867 0.079706 -0.073788 0.0043756 0.05088 -0.28499 0.11027 -0.19737 -0.071947 -0.15628 -0.24684 -0.24245 0.025104 -0.022694 -0.18504 -0.19437 -0.023252 0.07101 0.03855 0.35388 0.071683 0.29736 0.14929 -0.079472 -0.032134 -0.095549 0.017446 0.017396 -0.1767 0.10558 0.035795 -0.12185 -0.11673 0.017622 0.13621 -0.025728 0.17699 -0.022714 0.1311 0.092562 -0.17078 0.00041041 -0.033631 0.09015 -0.017506 -0.081707 0.0091424 0.061569 0.11465 0.36681 0.046362 0.15493 -0.1071 -0.09834 -0.10203 0.053958 -0.1701 -0.24161 0.14541 0.19738 0.090791 0.055174 -0.018448 0.06333 -0.064421 -0.12781 -0.057701 0.037661 -0.30219 -0.044859 0.0062264 0.19251 0.098512 -0.23184 -0.073982 -0.011068 -0.017051 0.018758 -0.062365 -0.099718 0.091227 -0.18908 0.026684 0.3252 -0.0832 -0.037628 -0.21552 0.017969 0.23616 0.025999 -0.30483 -0.12275 -0.21356 -0.093475 -0.045893 -0.088619 -0.011352 0.066516 0.0639 0.10601 0.16805 0.19668 -0.12735 0.11239 -0.098653 0.069979 0.038221 0.072827 -0.087968 0.12066 -0.0043551 -0.18633 0.0066324 0.11755 -0.072748 0.03971 -0.10258 0.0072996 0.091952 0.028619 -0.059799 -0.087916 0.074285 -0.017137 -0.027466 0.13898 0.019181 0.016074 0.1466 0.055188 -0.065435 0.076899 -0.017001 -0.20821 0.026589 0.084629 0.043808 0.0034013 0.14509 0.27118 0.25439 0.18394 0.12576 -0.077774 -0.044658 0.037044 0.04942 -0.14713 0.0093241 -0.051059 0.046628 0.079962 0.17476 0.13709 0.053407 -0.069413 -0.090932 -0.16223 -0.10639 -0.27936 0.14329 0.12647 0.016847 -0.089209 -0.022116 -0.11099 -0.017201 0.11536 0.14754 0.12524 -0.0065594 -0.033913 -0.15272 0.015937 0.15906 0.042569 0.15883 -0.27992 0.17874 -0.086773 0.17448 0.027475 0.16284 0.074073 -0.051862 -0.020438 -0.086749 -0.010115 -0.29024 -0.06513 0.044261 0.34601 -0.077456 0.03811 -0.083025 -0.068845 0.0030686 -0.064553 -0.0055493 0.037784 -0.033298 0.19052 -0.083522 0.20775 0.29528 0.082582 0.065182 0.025867 0.14008 0.069812 0.19338 0.0024422 0.036692 0.023916 0.13062 0.0055449 -0.24807 0.01873 0.015266 -0.1383 0.10972 0.22081 -0.21072 0.060758 0.05056 -0.045131 0.026838 0.030695 0.070406 -0.13914 -0.38456 -0.17478 -0.020122 0.22606 -0.051123 0.054341 -0.1038 -0.10493 0.15786 0.16145 0.11239 0.052696 -0.11977 0.11433 0.019492 0.098014 -0.15197 0.038966 0.38169 -0.097511 0.15618 -0.15253 0.019645 -0.14729 -0.058473 0.073687 0.056147 -0.16162 -0.29179 -0.14908 0.31646 0.27178 -0.032685 0.09509 -0.067007 -0.087693 -0.11079 -0.15768 0.094907 0.16066 -0.076819 0.028302 -0.3023 0.12838 0.093554 -0.0091037 0.077311 0.049512 -0.075218 0.032836 0.11467 -0.051345 0.063038 0.23498 -0.26802 -0.17561 -0.12672 0.10774 -0.19292 -0.12531 0.014027 0.078613 -0.1184 0.1885 0.25124 0.1719 0.20615 -0.062406 0.16892 -0.011826 0.16121 -0.02898 -0.10452 -0.035594 -0.091668 0.17106 0.061851 -0.038392 -0.16251 0.073104 0.095821 -0.29048 -0.035312 0.014088 -0.10041 0.045971 -0.25045 0.10193 -0.12764 -0.1964 0.16652 -0.11179 -0.17533 -0.097678 0.087533 0.065864 0.083967 -0.099787 0.020648 0.16952 0.20432 -0.10642 -0.030201 0.24122 -0.099521 0.13521 0.107 -0.12778 0.043413 -0.054782 -0.069396 -0.16495 -0.049285 0.24611 0.078016 0.088666 -0.056218 0.18917 -0.086644 -0.055948 0.18024 -0.026252 -0.15152 -0.048754 0.088701 0.074057 -0.052663 -0.22254 -0.02176 0.10794 0.2098 -0.026774 -0.063089 0.37958 0.091257 0.16532 -0.11211 -0.0053528 -0.027234 -0.13493 0.26445 -0.12642 0.0099707 -0.14792 0.11453 0.099388 -0.1961 -0.011399 -0.24214 -0.16727 -0.23225 -0.002622 -0.18659 0.040829 -0.047946 -0.25966 -0.32487 -0.26854 -0.17625 -0.30814 -0.020351 0.065715 -0.18729 0.2176 0.19606 0.051945 -0.0044594 -0.17054 -0.19637 -0.27654 0.082476 0.16751 0.17757 -0.096067 -0.25454 -0.088245 0.010628 0.024727 -0.0033905 0.066396 -0.098235 0.016754 0.12895 -0.040568 -0.013985 0.059383 0.11297 0.035423 0.13328 -0.02816 -0.072724 0.059482 -0.13414 -0.011297 0.17647 -0.056704 -0.085174 0.17349 0.011756 -0.23278 0.16506 0.096674 0.029564 -0.21018 -0.027607 -0.30188 -0.17589 -0.016261 -0.010709 -0.026619 -0.051467 -0.11914 -0.15696 0.097447 -0.048507 -0.15902 -0.20466 -0.24178 -0.26731 -0.030656 -0.20175 0.15103 -0.15384 -0.27674 0.018622 -0.36414 0.10291 0.2235 0.12201 -0.0057634 -0.064338 0.082581 -0.0839 -0.2276 -0.21961 0.0022338 -0.22803 0.037406 -0.073853 0.034892 -0.11418 -0.16307 0.0038613 0.019165 0.023112 -0.29839 0.027185 0.033465 -0.15952 -0.14438 -0.079781 0.048738 0.083024 -0.039815 -0.32917 -0.33743 -0.0048271 -0.09685 -0.29374 -0.050768 0.10608 -0.10478 0.17011 0.091767 -0.25923 0.08584 0.063446 0.0028738 -0.063318 -0.27138 -0.1369 0.022947 0.11245 -0.16451 0.0034003 -0.019548 0.09333 -0.23419 -0.24543 -0.28655 -0.24281 -0.078993 -0.091451 -0.29109 -0.36135 0.014613 -0.1761 -0.21818 -0.10203 -0.029737 0.048879 0.029053 -0.24799 -0.11107 0.072361 0.029434 -0.18379 -0.032511 0.22346 0.16996 0.022258 0.155 -0.20696 -0.094063 0.010775 0.11024 0.091603 -0.067212 -0.15548 -0.20118 -0.11746 -0.064982 -0.1459 -0.13689 -0.28226 -0.071307 -0.1026 -0.079712 -0.12475 -0.23208 -0.10437 -0.27994 0.13342 -0.034595 0.1328 -0.13778 -0.1284 0.0091367 0.13423 -0.15856 0.021739 -0.023831 -0.031527 0.025483 -0.020545 -0.010877 0.15438 0.15756 -0.026282 -0.19023 -0.11242 -0.072176 0.094883 -0.141 -0.21796 0.0028494 -0.022984 0.064681 0.17528 -0.14151 -0.33715 -0.20466 0.13251 -0.14717 -0.37947 -0.20194 -0.15527 -0.23233 0.012842 0.12683 -0.086051 0.0087448 0.21773 -0.072548 0.051296 0.024205 -0.047563 0.12089 0.23057 0.013589 -0.10483 -0.1486 0.17169 0.18433 -0.14848 0.091963 0.1562 0.073246 0.0029494 0.02076 -0.0079931 -0.10954 0.015537 0.12692 -0.13504 0.1487 0.021993 -0.2363 0.027787 -0.12486 -0.17986 0.085428 -0.17266 0.24069 0.11332 0.10224 0.097691 0.28252 0.2625 0.13611 0.12964 0.051953 0.10483 0.11929 0.018694 -0.074407 -0.26839 0.16136 0.24582 0.17698 -0.12272 -0.36968 -0.028986 0.12942 0.19353 0.10676 0.034066 -0.045617 0.17443 -0.020738 0.054726 -0.013061 0.17496 -0.00074114 -0.13013 0.1758 0.055883 -0.10718 0.27988 0.085953 0.026791 -0.019494 -0.18636 -0.21738 0.004929 0.22086 0.026678 -0.28237 0.1564 0.034856 -0.0054307 -0.15013 0.13098 -0.1707 0.15971 -0.024228 -0.11064 -0.26423 0.035349 0.032048 0.017266 0.07764 0.042787 -0.096677 -0.021947 0.086975 -0.041663 -0.095849 0.33253 0.30446 0.29838 0.060769 0.31728 -0.092163 0.055225 0.068706 -0.051515 0.14281 -0.012487 -0.14467 0.24066 0.12469 0.10046 -0.056316 0.23953 0.020668 -0.020688 -0.058337 0.20537 0.010894 -0.09895 0.24069 0.032878 0.20377 0.10368 0.025784 -0.11915 0.23571 0.2773 -0.0044971 0.42475 0.11289 0.036764 0.13586 0.24331 0.090459 0.24503 0.23999 0.14571 0.13277 0.046639 -0.0028234 0.085648 0.0087181 0.23728 0.14227 -0.038382 -0.29216 0.061659 0.014363 -0.077738 0.14837 -0.065103 0.17208 0.084416 -0.23212 0.28971 0.41076 0.30328 0.005898 0.070903 -0.015916 0.012762 0.03645 0.14319 0.14161 0.052525 0.21034 -0.060118 0.24514 -0.024033 0.012829 0.27701 0.062605 -0.074313 0.057786 0.018002 -0.12067 -0.23718 0.080551 -0.077682 0.036775 0.324 0.10705 0.20046 0.19362 0.10694 0.12502 0.28101
-0.55691 -0.054485 0.011359 0.047185 -0.15988 0.015026 0.1252 0.18665 -0.025017 0.053105 0.034065 -0.027114 0.20145 -0.097654 0.020141 0.18313 0.27098 -0.02595 0.27154 0.20825 0.19812 0.074007 0.10473 -0.10858 -0.089769 -0.069777 -0.031912 0.094977 -0.19433 -0.059628 0.22476 0.006669 -0.077226 -0.07291 -0.15691 0.074438 -0.23403 -0.18393 -0.11555 0.10259 -0.094198 -0.092327 -0.11631 -0.22148 -0.076304 -0.013009 -0.030761 -0.090539 0.027995 0.027865 -0.1862 -0.24446 -0.036376 0.031696 -0.28918 0.07933 -0.090584 0.12009 0.059059 -0.054517 0.046384 -0.020508 -0.21331 -0.1744 -0.070425 0.25859 0.036267 -0.019358 -0.0060743 0.20173 -0.27374 -0.32493 -0.059845 -0.14799 0.14147 0.19437 0.12628 -0.11289 -0.039048 0.065602 0.18989 0.027797 -0.15338 0.15571 0.18025 0.0024439 -0.041627 0.20364 -0.043429 -0.093839 0.38749 0.29705 0.023374 -0.17442 0.015182 0.19591 0.070263 0.051289 0.0080065 -0.15992 0.017588 -0.25965 0.18617 -0.11246 0.01544 -0.10111 0.070403 0.081509 0.056461 0.043583 0.1068 -0.14929 0.023414 0.32506 0.5651 0.21881 -0.1134 -0.18246 -0.19187 -0.027969 0.14746 0.2513 -0.01662 -0.036833 0.026829 -0.0036317 0.19382 0.37123 0.23167 0.00082561 0.097849 0.15927 -0.19291 -0.060758 0.10678 -0.04732 -0.22209 -0.004884 -0.093516 0.11547 -0.013332 0.12406 0.046163 0.057118 0.096351 -0.06549 0.10859 -0.0084189 0.022406 0.017082 0.32982 -0.025278 0.16311 0.031764 0.12447 0.23774 -0.060465 -0.078813 0.045762 -0.17427 -0.080628 -0.18474 -0.16265 -0.033133 -0.0084894 -0.21353 -0.27998 -0.14929 -0.10903 0.073686 0.047157 -0.10631 -0.23699 0.05465 0.021434 0.085516 0.10787 0.25724 -0.033819 0.059588 -0.037459 -0.10426 -0.064129 -0.32005 -0.29462 -0.098395 -0.079458 -0.27036 0.075262 -0.013021 0.25902 -0.016559 -0.11873 0.054446 -0.22482 -0.13856 -0.13209 0.0015103 -0.032122 0.010903 -0.14949 0.14661 -0.18424 0.022524 0.071931 -0.012971 0.3711 0.3587 0.13152 0.12079 -0.091137 -0.014523 0.065339 -0.11541 -0.21628 -0.11119 -0.084067 0.20494 0.089308 -0.032013 0.0073376 -0.090163 -0.133 -0.060216 0.015435 -0.22993 -0.06406 0.052652 -0.082145 -0.15892 -0.091937 0.010659 -0.39569 0.062662 0.18209 -0.20691 0.012035 0.27001 0.20243 0.085181 0.20626 0.069743 -0.083613 0.1721 0.024117 -0.11454 -0.40052 -0.063626 0.27672 -0.034283 0.040617 -0.018961 -0.13144 -0.030735 0.042423 -0.053423 0.15932 -0.13516 -0.019391 -0.20924 -0.12649 -0.20807 -0.29549 -0.1842 0.074098 -0.032065 -0.017862 0.1624 0.19237 0.10273 0.23176 0.3642 -0.37603 0.1302 0.30338 -0.17362 -0.095996 0.074463 -0.014005 0.26208 -0.040518 0.060419 -0.0055342 0.0096304 0.17615 -0.10894 0.084245 -0.1073 -0.24642 -0.26684 -0.12525 -0.21302 -0.28809 -0.30864 0.039941 0.23823 0.10588 0.040636 0.13407 0.041978 -0.30297 0.17445 0.065092 -0.0042138 0.1978 -0.14001 -0.0077443 -0.10666 -0.07634 0.13491 -0.016688 0.022797 -0.071768 -0.057144 -0.15634 -0.028301 0.053581 -0.11969 0.21167 -0.22864 -0.047487 -0.22362 -0.24001 0.096157 0.42257 0.055777 0.09751 0.074218 0.12611 -0.49725 -0.26515 0.17783 -0.0087001 0.13129 0.1708 -0.026185 0.23798 0.1568 0.13803 0.17737 0.1641 0.099226 0.10171 -0.23781 -0.19115 -0.20118 0.031657 0.19358 -0.24759 -0.083046 0.0010657 -0.1065 -0.1421 -0.091445 0.12499 -0.15856 0.23923 -0.16228 -0.30642 -0.34056 -0.2599 0.080454 -0.074974 0.0093893 -0.011952 0.17161 0.24613 -0.063525 -0.068609 -0.19022 -0.047534 -0.014764 -0.22441 -0.025165 -0.060955 -0.15736 0.069888 0.19286 0.09915 -0.23676 -0.13473 0.14586 0.13791 -0.083582 0.060447 0.10844 0.1713 0.063871 0.19013 0.045224 0.14498 -0.050573 -0.064404 -0.10586 0.19682 0.09856 0.06062 -0.22117 -0.07929 -0.20161 -0.14766 0.013871 0.087402 -0.047895 -0.0097767 -0.0057633 0.12066 0.24682 0.084609 0.041722 -0.05832 0.27029 0.12651 0.062654 0.03581 0.039858 -0.19417 0.065616 0.063566 0.052152 0.085703 0.020632 -0.17547 0.065378 0.092 -0.00668 0.084709 0.1589 0.1092 -0.063914 0.10758 -0.21012 -0.025776 -0.091774 0.19593 0.14163 1.9181e-05 0.045923 0.17882 -0.11601 -0.0032111 -0.0024275 -0.15696 -0.001819 0.29383 0.12626 0.25072 0.19595 0.066789 -0.0075339 0.0098406 0.21762 0.029478 0.20664 0.15338 -0.2641 -0.16253 0.028088 0.055123 0.30932 0.17228 -0.066209 -0.032038 0.045835 -0.031455 0.056854 -0.21543 -0.14281 0.18873 0.14794 0.21207 0.13087 0.17026 -0.20127 0.044339 0.069944 -0.018235 -0.020996 0.031063 0.043727 0.085328 0.1227 0.0041663 -0.06552 0.084501 0.0021383 0.11924 -0.026744 0.033855 0.0038641 -0.19106 -0.20859 -0.1304 0.18127 -0.058245 0.2428 0.15178 0.09248 -0.05412 0.30788 0.16221 0.36298 0.38009 0.068566 0.27565 -0.29999 -0.042556 0.017742 0.18164 0.050619 0.10804 0.033455 -0.28371 -0.051321 0.11596 -0.17227 0.18483 0.039793 -0.1066 0.13796 -0.2708 0.085 -0.22275 0.047327 -0.087806 0.13081 0.1252 0.30698 0.33689 0.11996 0.03514 0.030816 0.18913 -0.066811 -0.2564 0.20605 -0.40927 0.025491 -0.048564 0.015313 -0.15162 0.16031 0.18057 0.16637 0.097408 -0.088741 0.067239 -0.030295 -0.19094 -0.31525 -0.063159 0.013469 -0.028315 -0.016155 -0.08836 0.36584 0.083061 0.085171 -0.011789 0.23942 0.38042 -0.14254 -0.27861 -0.02911 0.14797 -0.020028 -0.072906 0.085606 -0.036313 0.086309 0.092246 0.089253 0.12335 0.055655 -0.10889 0.018761 -0.056375 -0.088484 -0.17002 -0.068752 0.029723 -0.19651 -0.18413 0.19293 0.073525 0.063002 0.22516 0.33851 0.16852 0.13079 -0.10917 -0.15883 0.076616 -0.056641 0.077927 -0.0069522 -0.019053 0.35023 -0.030897 0.013703 -0.023207 0.27704 -0.0030786 0.096297 -0.24735 0.18769 0.015504 -0.1169 -0.1181 -0.01 -0.055868 -0.1791 -0.32451 0.025415 -0.10244 -0.024491 0.063129 0.18659 0.3 0.091146 -0.18257 -0.11771 -0.12889 0.00204 0.16332 0.18411 0.40746 0.13683 -0.045289 0.20448 0.024822 0.038967 -0.035394 0.011605 -0.31041 -0.38964 -0.085514 -0.11963 0.18106 -0.07546 -0.041127 -0.059656 -0.058318 -0.015195 -0.063624 0.076776 -0.098982 0.060031 -0.0072858 -0.099222 -0.0095227 -0.046662 0.018559 0.33609 0.057342 0.007716 0.0012532 -0.17495 0.1601 0.072361 -0.17099 0.30949 -0.042324 0.065343 -0.039715 -0.44225 -0.12736 0.087106 -0.067511 -0.17728 0.074915 0.14826 -0.050166 0.013365 -0.27945 0.061704 -0.17168 -0.22387 -0.11427 -0.075756 0.0087364 -0.010476 0.025041 0.18447 -0.1395 -0.058134 -0.048369 -0.33581 -0.044496 -0.23635 0.0078037 0.45292 0.31505 -0.049139 0.0567 -0.0073869 -0.055821 -0.25166 -0.085009 -0.20039 -0.2069 0.040523 0.29087 0.26691 -0.16552 -0.076046 -0.08982 -0.34241 0.0313 -0.032993 0.067597 0.14478 -0.14706 0.16069 0.12411 0.07272 -0.046194 0.22289 0.19741 -0.1248 0.065679 -0.021602 0.26866 -0.2008 0.080942 -0.14606 -0.2503 -0.13613 -0.05689 -0.0066822 0.2144 0.0712 0.23848 0.13151 0.17308 0.22475 0.098181 -0.14808 0.081181 0.19457 0.086558 -0.27609 0.014618 -0.18233 -0.31717 0.060572 0.033258 0.29555 0.18588 0.10881 0.091421 -0.13877 0.009917 -0.22777 0.007783 -0.14862 -0.21331 -0.0090515 0.093441 -0.16774 0.06789 -0.020308 -0.040459 0.21775 0.18428 -0.050461 -0.16558 0.16831 0.30712 0.069275 0.12503 -0.0090222 -0.014023 -0.10142 -0.19367 -0.18346 0.22764 -0.051019 0.077172 -0.11498 -0.17199 -0.28498 -0.26805 -0.06595 0.059348 0.079005 -0.048238 0.44805 0.12344 -0.16251 -0.070615 -0.086707 0.20564 -0.006762 -0.045713 -0.086955 0.099625 0.1925 -0.24666 -0.21786 -0.48296 -0.038887 -0.40468 0.12585 -0.17825 0.00074189 -0.23519 -0.19005 -0.21984 -0.028643 0.040989 -0.23838 -0.21656 -0.19119 -0.066655 0.14967 -0.061541 0.030155 0.059286 0.018653 -0.10052 0.039737 0.14801 0.15457 -0.12577 0.05477 0.18445 -0.12828 -0.15224 -0.090781 0.0094385 0.0042307 0.14317 0.12957 0.28437 0.10488 0.052701 -0.086841 -0.017463 -0.0076163 -0.012317 0.20074 0.078764 -0.067443 0.24123 0.056712 0.24908 0.1938 -0.11439 -0.28107 -0.2294 0.3127 0.23985 0.016398 0.071561 -0.043618 0.078975 -0.27551 -0.06241 -0.051828 -0.13671 0.057691 -0.0081654 0.087832 -0.056156 -0.012152 0.29217 -0.060578 -0.068862 -0.093201 0.028929 -0.19913 -0.087319 -0.084465 0.021592 -0.042913 0.022031 0.10374 0.20497 0.031242 0.16059 0.37911 -0.013983 -0.061784 0.01527 0.33918 -0.051056 -0.16447 -0.11835 -0.13294 -0.17389 -0.1742 -0.32173 0.067946 0.17945 -0.041212 0.021451 -0.08678 -0.17856 -0.18677 0.052166
0.35116 -0.14661 -0.048544 0.045209 0.051184 0.017985 0.0013787 0.4027 0.14159 0.21891 -0.054418 -0.15736 -0.05994 0.13006 -0.027463 0.098794 0.040544 0.080375 0.079165 0.046507 -0.16312 0.010083 -0.10318 -0.0097707 -0.082903 -0.057486 -0.033205 -0.13512 0.10437 0.16129 0.065018 -0.21698 -0.039884 -0.057633 -0.027663 -0.072194 0.060652 0.14127 -0.041896 -0.015523 0.023938 -0.033169 0.044981 0.06215 -0.12343 0.19379 0.036588 0.088567 0.14025 -0.058253 0.10007 0.20944 0.045437 0.094356 0.13963 0.090138 0.13115 -0.016571 0.28393 0.26392 0.24949 -0.054737 -0.079341 -0.17012 0.11831 0.16305 0.025311 -0.10634 0.015122 0.10765 -0.037944 -0.12811 -0.16762 0.0065133 0.071069 0.079531 -0.0082232 0.084648 0.29435 -0.11135 0.0042739 0.19843 0.05598 0.020655 0.12554 0.036026 0.10085 -0.1406 3.5342e-05 0.13297 0.024937 -0.028782 -0.029591 -0.10627 0.15777 0.15059 0.069633 0.092308 -0.091065 0.14785 -0.0075942 0.080782 -0.079676 0.12811 0.11843 -0.10575 -0.15917 -0.081228 0.11843 0.062246 0.12895 -0.02335 0.069314 0.034146 0.076483 -0.0063483 -0.03274 0.069862 0.0015212 0.072907 -0.15999 0.16525 0.29289 0.090226 0.064308 -0.018386 0.043449 -0.012122 -0.11311 0.0022708 0.22763 0.17826 0.17575 -0.082517 -0.068042 -0.19334 -0.024885 0.089263 -0.19555 0.14548 -0.1366 -0.12759 0.11488 -0.15647 -0.10935 -0.10961 -0.20388 -0.30452 -0.17692 -0.01463 -0.049633 0.22657 0.27843 0.182 0.086524 0.022605 0.022557 0.20936 0.12135 -0.039258 0.087146 0.15595 0.081858 0.15508 -0.048204 -0.029735 -0.066811 0.20384 -0.063492 -0.029263 -0.13667 -0.19889 0.014738 -0.15735 -0.22736 -0.12969 -0.047621 0.095097 0.048784 0.10502 -0.10127 0.084762 0.023981 -0.11022 0.083819 -0.1089 0.06423 -0.010041 0.043253 -0.10391 -0.14863 0.064501 0.012145 0.037907 0.04445 -0.049195 0.1082 -0.13924 0.027914 -0.15184 -0.069663 -0.038283 0.042172 0.23049 -0.07785 -0.030145 -0.0091126 0.049066 0.091288 0.066443 -0.23014 0.15048 0.0056444 -0.096342 0.26061 0.083524 -0.01234 -0.032596 -0.15634 -0.28375 -0.032424 -0.10181 -0.21634 -0.10967 -0.12164 0.056327 -0.25247 -0.071786 -0.12551 0.16254 -0.189 -0.35196 -0.21625 -0.11761 0.18688 -0.033248 0.064862 0.015154 -0.032147 -0.082918 -0.00051383 0.073853 0.13597 0.13256 0.0023876 0.020265 -0.056673 -0.13749 0.086841 -0.17229 0.11164 -0.31375 -0.10397 -0.097205 -0.026506 -0.29331 -0.16752 -0.028683 0.092095 0.22173 -0.2177 -0.15238 -0.02684 0.0044423 -0.10286 -0.063127 -0.029223 0.32613 0.023654 -0.12751 0.068612 0.038644 0.13341 0.08344 -0.014957 -0.060405 0.068264 0.11883 0.073439 0.0022605 -0.08148 -0.1472 -0.19963 -0.020916 -0.1684 -0.21276 0.16687 0.072396 0.069425 0.045518 -0.10676 0.24728 0.041022 0.049455 0.1795 0.28131 -0.054011 0.15472 0.0076211 -0.086211 0.0569 -0.18884 -0.052354 -0.0934 -0.082425 -0.18785 -0.041109 -0.046512 -0.036617 -0.16025 -0.18219 -0.074731 -0.050602 -0.066683 -0.031549 -0.014596 0.10179 0.1207 0.20117 -0.025523 0.099161 0.082899 -0.036163 0.017718 0.16939 0.030098 -0.24015 -0.062084 -0.0079393 -0.17069 0.22151 -0.044129 0.062768 0.19658 0.17436 0.033251 0.14341 0.041946 0.039816 -0.03848 -0.084663 -0.09925 -0.0073638 0.0053673 0.094555 -0.19708 -0.062541 0.27517 -0.0093468 0.089927 -0.037878 0.070059 0.017519 0.25306 0.15847 -0.0096645 -0.18533 -0.083727 0.050506 0.0654 0.16562 0.046435 0.08977 0.079621 0.099868 -0.052097 -0.033768 -0.014423 0.27706 -0.13302 0.037091 0.17062 0.051508 0.036642 -0.063295 -0.27008 -0.12358 0.031618 -0.11923 -0.16831 -0.035201 0.17304 0.10686 0.19594 0.088044 -0.0037416 -0.16824 0.08121 0.19232 0.1619 0.093694 0.071448 0.084293 -0.036502 0.031675 0.055457 -0.13668 0.22984 0.3177 0.12005 0.03327 0.089776 0.055736 -0.051473 0.11115 0.077234 0.027273 0.13328 0.10603 -0.061978 0.040786 0.46587 0.13896 -0.052428 0.048429 -0.21613 0.025508 0.10322 0.27931 0.16319 0.1506 0.10561 0.074881 -0.046575 0.053637 0.16174 0.0437 0.29758 0.15427 0.16726 0.2258 0.13592 0.03636 -0.12624 -0.01582 -0.14588 0.24752 -0.089504 -0.18634 0.0063429 0.086884 0.26309 0.089627 0.016808 0.04315 -0.14752 -0.223 0.00028587 0.068418 -0.0076235 0.038237 -0.036582 -0.12458 -0.14373 0.09485 0.12348 0.09744 -0.060058 -0.096745 0.18787 0.17778 -0.0031605 0.064828 -0.065536 0.045982 0.11506 0.17667 0.021601 -0.040782 0.069831 0.085382 -0.048075 -0.14678 0.17379 0.1295 0.19434 0.16564 -0.0091453 -0.083483 -0.00013564 0.050768 -0.096514 -0.0084205 0.25194 0.21303 0.068918 -0.048968 -0.18825 -0.17407 0.1078 0.15363 0.06933 0.22063 -0.12962 0.026474 0.03163 0.061321 0.15448 -0.012318 0.18449 -0.014406 -0.065232 0.018721 0.28088 0.30024 0.23323 0.17657 0.25331 0.054991 0.061604 -0.017462 0.042361 -0.017738 -0.056128 0.037024 0.081069 -0.0088392 -0.11857 0.1266 -0.092119 0.10008 0.22056 0.13983 0.23352 -0.0011637 0.10244 0.17261 0.17632 -0.030496 0.044481 0.057572 -0.12046 0.023393 0.16053 -0.14689 -0.01196 0.095817 0.064221 -0.22282 -0.02447 -0.054415 -0.036966 -0.089583 -0.27343 0.16457 0.15643 0.048752 0.094399 0.24965 -0.041132 0.023877 0.14292 -0.0046314 0.091859 -0.018384 0.080576 0.14762 0.10026 -0.11072 -0.062154 -0.037269 -0.088041 -0.12498 0.016738 -0.20728 -0.045724 -0.0024207 -0.1054 -0.12932 0.030868 -0.059938 -0.20873 -0.25124 -0.27046 0.03898 -0.24396 -0.039767 0.21063 0.047141 0.13832 0.11727 0.034064 0.05113 0.084521 0.13449 -0.083054 -0.0019266 0.069413 0.00083959 -0.039794 0.068046 -0.21158 -0.019517 -0.044494 -0.0448 -0.23019 -0.30916 -0.29576 -0.36442 -0.15186 -0.17009 -0.1566 -0.15719 0.011528 0.031361 -0.24972 -0.10007 0.0096931 0.10764 0.1461 0.054586 0.13553 -0.0059026 0.16782 0.17563 -0.050841 0.058277 0.29039 0.028096 -0.099405 -0.070673 -0.092205 -0.026232 -0.20282 0.014554 -0.32772 -0.10996 -0.25522 -0.056497 -0.027952 -0.059279 -0.12387 -0.18285 -0.21971 -0.1927 -0.026849 0.19227 -0.043038 -0.096379 0.29732 -0.10224 -0.14884 0.038599 0.16547 0.098214 0.093459 -0.031923 -0.044537 0.14753 -0.19544 -0.20405 -0.10943 -0.076466 -0.18888 -0.0011963 -0.040357 -0.080883 -0.10315 0.0046333 0.00053842 0.11813 0.085138 -0.13444 -0.18826 -0.095827 0.10908 -0.045871 -0.17078 -0.020909 0.0073979 -0.077946 0.29922 -0.075892 -0.05561 -0.093979 -0.037656 -0.054136 -0.034062 -0.1429 -0.20624 0.27014 0.0032503 -0.10489 -0.10186 0.041776 -0.026146 0.024969 -0.023869 -0.15099 -0.14643 -0.18483 -0.3707 -0.54728 -0.22615 -0.19453 -0.016576 -0.17351 0.18307 -0.075482 -0.11371 -0.093417 -0.23256 -0.043543 -0.065345 0.0020917 -0.092913 -0.0064801 0.066076 -0.024679 -0.10496 0.078814 -0.10071 -0.13979 -0.13174 -0.096945 -0.019217 -0.050158 0.013313 -0.0062989 -0.15842 -0.13077 -0.0029599 -0.15003 -0.033789 -0.13597 -0.076429 -0.25449 -0.082809 -0.1484 -0.11716 -0.18446 -0.098489 0.01017 0.024978 -0.066356 -0.069299 -0.021789 -0.14973 -0.089394 0.0371 0.086774 -0.049056 -0.24365 -0.0049078 -0.074268 -0.11793 0.014437 -0.070295 -0.10923 -0.14016 -0.050908 0.098675 0.084662 0.0050844 -0.14022 -0.14367 -0.35049 -0.091318 -0.079952 -0.1597 -0.1691 -0.11638 -0.46639 -0.082134 0.097938 -0.12087 -0.045483 0.084232 -0.020438 -0.091417 0.2918 0.15666 -0.093378 -0.10307 -0.11515 -0.15314 -0.0043957 -0.30022 -0.01551 -0.081341 -0.026111 -0.21236 -0.10177 -0.17999 -0.083408 -0.084492 -0.078532 0.038731 -0.17324 -0.20092 -0.26344 -0.077464 -0.057866 -0.064505 0.049681 0.18263 -0.06982 0.00065887 -0.052373 -0.060174 0.21897 0.090999 -0.056853 0.094915 0.15007 0.092264 0.056169 -0.064221 -0.15765 -0.11879 -0.19755 -0.31185 0.079469 -0.13068 0.23696 0.34175 0.18599 0.054588 0.00042267 -0.018913 0.0087074 -0.14278 -0.093004 -0.18987 -0.15284 -0.15525 -0.087743 -0.085068 -0.029455 0.15513 0.089354 0.20292 0.055525 -0.030701 0.053685 -0.044431 -0.14006 -0.012627 -0.10717 -0.15504 -0.2943 -0.0088731 0.17608 0.1025 -0.12262 -0.10598 0.033087 0.083013 0.11023 0.10022 0.05745 -0.087299 0.0048196 -0.095935 -0.27941 -0.30641 -0.15643 -0.085127 -0.042212 0.013948 -0.028519 -0.1931 -0.21844 0.085751 0.05217 0.10212 -0.0064299 -0.0040765 -0.12908 -0.15038 -0.12761 -0.11231 0.03626 0.023107 0.16381 -0.0054848 0.2328 0.2333 0.27831 0.30594 0.21142 -0.062801 0.056798 -0.015791 -0.026014 -0.16047 -0.16877 -0.10952 -0.23096 -0.018546 -0.12829 -0.097317 -0.13824 -0.085573 0.0059181 -0.15349 0.046706 0.032973 -0.026482 0.047006 -0.084797
0.10137 0.002295 -0.048036 -0.030265 -0.014979 -0.052554 -0.023003 1.6833e-05 0.0079846 0.0057965 0.011538 -0.014338 -0.022433 -0.014649 0.014839 0.025313 0.0043085 -0.0025734 0.034442 0.034509 0.027734 0.0076074 0.0090315 0.0037916 0.02727 0.017885 -0.012039 -0.018399 -0.017722 -0.027234 -0.012891 -0.014326 -0.021704 -0.010236 -0.010417 -0.020693 -0.036787 -0.010288 0.048492 0.036869 0.015174 0.011352 -0.010828 0.015943 0.041397 0.050322 0.040959 0.060595 0.017973 -0.0042537 0.0040694 -0.0028798 -0.042895 0.0037332 0.018744 0.0024331 -0.0022682 -0.033826 -0.0073498 0.0025677 -0.010787 -0.045502 -0.040495 -0.012256 0.0015807 0.0089756 0.0047577 -0.013435 0.024506 0.0057048 0.0028775 -0.015531 -0.0019745 0.0097505 0.039903 0.074922 0.065201 0.0085587 0.0082213 0.040829 0.013552 -0.046974 -0.061031 -0.023785 -0.0057493 0.0019925 -0.020286 -0.0032353 0.022815 0.022236 0.01589 -0.07833 -0.086706 -0.068894 -0.053647 -0.0536 -0.028311 -0.01723 -0.013026 0.039783 0.015476 -0.0050005 0.010626 -0.028706 -0.009077 0.031443 0.041713 0.021314 0.024603 0.023744 0.02634 0.025341 -0.0062559 -0.0052339 0.014849 0.0056312 0.0072855 0.013432 -0.0089509 -0.0089538 -0.0028019 -0.073275 -0.055275 -0.072575 -0.05624 -0.047968 -0.054302 -0.023339 0.0059912 -0.0091221 0.023787 -0.017041 0.011929 -0.023397 -0.03518 0.01323 -0.011824 -0.039797 -0.052072 -0.00099511 -0.0063154 -0.016908 -0.0043464 0.079074 0.061392 0.06756 0.049939 0.073073 0.030404 0.01178 -0.0066614 0.0014323 -0.025167 -0.022973 -0.038808 -0.029951 -0.039593 -0.036869 -0.023974 -0.023964 0.01739 0.025836 0.00070826 0.0044572 0.0075901 -0.0039742 -0.042449 -0.048251 -0.057165 0.011751 -0.031265 0.019042 -0.0036308 0.048492 0.054808 0.085086 0.058262 0.028922 -0.040848 -0.019525 -0.012927 -0.0196 0.00079619 -0.0040302 -0.042479 0.03091 -0.0090918 0.0038563 -0.017798 0.024556 0.050097 0.046745 0.015578 -0.013334 0.024591 -0.037022 -0.027982 -0.025354 -0.013109 -0.045716 -0.02593 0.0018166 0.019845 0.075829 0.052087 0.027016 0.074259 0.03384 -0.026669 -0.033925 -0.020458 -0.01889 -0.010739 -0.014611 -0.0028889 0.030902 0.017236 0.0298 0.020544 0.032699 0.066243 0.068194 0.040061 0.018773 0.038777 0.028924 -0.0041643 0.006219 -0.028771 -0.00843 -0.055846 0.001473 0.039589 0.10058 0.059103 0.039967 0.06384 0.074399 0.016144 -0.018279 -0.0061444 -0.026685 -0.024444 0.035663 0.030739 0.031714 0.033265 0.047208 0.051636 0.018071 0.034178 0.043407 0.048437 0.064433 0.011183 0.032385 0.0084447 0.0014616 0.008451 -0.0071818 -0.037233 -0.015236 0.062055 0.052265 0.063135 0.06451 0.059964 0.061087 -0.017835 -0.03268 -0.0089215 -0.025661 -0.0061395 0.01958 -0.0071508 0.038082 0.024775 -0.0035254 0.010453 0.011908 0.05414 0.045972 0.076682 0.035674 0.0092371 0.0083489 -0.0031136 0.028622 0.05227 -0.0043302 -0.0019982 -0.0046381 0.022384 0.0984 0.051192 0.061794 0.037743 0.050714 -0.017977 -0.051735 -0.022982 -0.0093182 -0.017735 0.043222 0.02284 0.045233 0.0081078 0.043929 0.036722 0.041926 0.030422 0.016836 -0.014839 -0.011873 -0.0065357 -0.064365 -0.012369 -0.0080338 0.031844 0.054459 0.028393 0.0036594 0.029361 0.027864 0.0525 0.049168 0.022752 -0.023887 -0.023231 -0.069405 -0.0082235 0.026921 0.032323 0.036434 0.016894 0.030337 0.034502 0.062547 0.029221 0.038379 0.010561 0.015582 -0.014372 -0.033149 -0.046798 -0.017377 0.019051 -0.0035319 -0.01312 0.0186 0.014885 -0.0069498 0.018538 0.03706 0.061237 0.059967 -0.014734 -0.053455 -0.072799 -0.08221 -0.021798 0.020913 0.014017 0.025104 0.0076243 0.020795 0.025374 0.080311 0.017158 0.02163 0.028945 0.015988 -0.0059436 0.021897 -0.0082101 -0.012961 0.065726 0.05788 0.042967 0.056776 0.056043 0.0078525 0.0045429 -0.0076384 0.042226 0.043664 0.023564 -0.06559 -0.051969 -0.072077 -0.018972 0.026361 0.024875 0.015115 0.0014873 0.028992 0.019577 0.023496 0.017069 0.024588 0.048967 0.027132 0.0018338 0.020359 0.012393 0.0010241 0.057302 0.089762 0.056385 0.071786 0.036939 0.024886 0.034043 -0.015538 0.020066 0.03462 0.026542 0.0062386 -0.032661 -0.10496 -0.042697 0.034534 0.026571 0.035018 -0.00096833 0.0053687 -0.0015922 -0.0056981 -0.011059 -0.010179 -0.0016779 -0.016659 -0.017985 0.014791 0.018407 0.023082 0.072166 0.091599 0.075541 0.05876 0.042037 0.0019597 -0.0053415 0.0058522 0.0083504 0.055603 0.032271 -0.029192 -0.052519 -0.091211 -0.06109 0.055195 0.049846 0.03952 0.0024147 0.055662 0.017678 0.038528 0.0082638 -0.016398 -0.0015512 0.01979 0.033002 0.025305 0.028065 0.11088 0.094139 0.077795 0.075964 0.088689 0.016167 -0.0016822 0.022482 0.0037045 -0.0074265 0.076539 0.014371 -0.004871 -0.0051914 -0.055085 -0.056679 0.087436 0.059407 0.057196 0.0098391 0.030395 0.00026839 -0.038669 -0.042599 0.0017645 0.015505 0.03663 0.052443 0.10232 0.1109 0.093153 0.11161 0.10546 0.071672 0.0011296 0.017919 0.0075408 0.013413 -0.016017 0.019548 0.034116 -0.0046144 0.004532 0.015515 -0.024604 -0.01918 0.083197 0.089552 0.061023 0.063695 0.068922 0.040715 0.0058196 0.026365 0.030738 0.036341 0.049828 0.043519 0.07135 0.046997 0.038664 0.057785 0.058959 0.010519 0.017777 0.01855 0.021969 -0.011656 -0.020092 -0.038848 0.020226 -0.024157 0.036659 0.012038 -0.014011 -0.025066 0.077881 0.087647 0.084755 0.068734 0.044399 0.015241 0.018682 0.022519 0.059721 0.049581 0.05349 0.043258 0.048856 0.018162 0.021511 0.034335 0.034545 -0.025697 -0.032108 -0.037951 0.0074322 -0.063347 -0.0093293 -0.059901 -0.03565 -0.045246 -0.036748 -0.0067709 -0.017841 -0.038605 0.049533 0.069431 0.030131 -0.031256 -0.016168 0.015723 0.0021501 0.042205 0.051739 0.066641 0.023941 0.051682 0.056705 0.085378 0.031643 -0.012999 -0.012815 -0.02689 -0.016739 -0.018679 -0.011072 -0.060745 -0.04298 -0.055585 -0.053124 -0.045382 -0.019001 -0.025683 -0.029154 -0.048877 0.027662 0.022842 0.050939 0.021187 -0.021504 -0.022467 0.015679 0.024471 0.067041 0.075838 0.052783 0.063437 0.071214 0.080187 0.056164 0.0082332 -0.014393 -0.02031 -0.010901 -0.041072 -0.02375 -0.076134 -0.016048 -0.085848 -0.068094 -0.028098 -0.018073 -0.044058 -0.011125 -0.065205 0.017121 0.035062 0.013471 0.039765 -0.004943 -0.034836 0.032593 0.028641 0.0126 0.047151 0.027393 0.031316 0.043969 0.061648 0.028863 0.03663 -0.0090121 -0.00065395 0.013668 -0.046175 -0.033319 -0.062632 -0.01543 -0.045782 -0.048994 -0.060216 -0.011985 -0.042266 -0.06941 -0.093792 0.0046943 0.048694 0.052564 0.013209 0.0039301 0.0056072 0.028777 0.0070098 0.034735 0.014384 -0.030363 -0.020123 0.0070072 -0.0039662 0.04384 0.046631 -0.0036332 0.0088085 0.034995 -0.025962 -0.041346 -0.039808 -0.0082631 -0.059772 -0.019702 -0.031969 -0.063041 -0.057803 -0.086926 -0.057211 0.053146 0.03496 0.084109 0.047164 0.040832 0.044421 0.03476 0.013575 -0.0091955 0.020124 0.0037515 -0.011443 0.033718 0.013209 0.033247 0.030257 0.012752 -0.0022504 -0.030298 -0.013648 -0.047536 -0.035909 -0.0055128 -0.078676 -0.014801 -0.058307 -0.043807 -0.082573 -0.071767 -0.038082 0.061386 0.13095 0.1092 0.060941 0.035612 0.050817 0.039741 0.051503 0.0062186 0.0018223 -0.00091136 0.0058672 0.034913 0.022375 0.031629 0.011175 -0.026339 -0.031863 -0.065067 -0.037655 -0.050439 -0.017976 -0.0076186 -0.038186 -0.017713 -0.024033 -0.04758 -0.034101 -0.1012 -0.057132 0.050214 0.10221 0.14159 0.10533 0.14487 0.10298 0.047943 0.040291 0.025673 0.050809 0.011877 -0.039413 -0.010816 -0.016762 -0.0057271 -0.026806 -0.0052696 -0.0037819 -0.021138 -0.05408 -0.054097 -0.039312 -0.037818 -0.045486 -0.011523 -0.0052207 0.0076156 -0.038608 -0.087865 -0.016303 0.074661 0.099153 0.12226 0.11737 0.12484 0.090614 0.087738 0.065126 0.010291 0.004488 0.0061066 -0.022943 -0.01711 -0.031391 -0.097129 -0.066054 -0.05052 -0.045854 -0.067038 -0.091477 -0.099077 -0.081611 -0.065919 -0.045059 -0.052563 0.033688 0.01964 -0.044113 -0.091206 -0.098667 0.1075 0.10623 0.10236 0.1013 0.1335 0.094751 0.091119 0.11645 0.060352 0.043382 0.038226 -0.0033911 -0.055888 -0.039013 -0.010158 -0.094299 -0.11576 -0.12496 -0.13352 -0.11746 -0.11221 -0.1267 -0.061325 -0.044851 0.00075989 -0.0024166 -0.018294 -0.043425 -0.043509 -0.0021149 0.059175 0.041979 0.049944 0.047343 0.049253 0.051322 0.043179 0.024623 0.053124 0.040777 -0.029936 -0.029888 -0.037036 -0.050441 -0.052378 -0.078001 -0.088957 -0.09405 -0.09013 -0.085967 -0.085244 -0.02716 -0.071263 -0.053672 -0.053191 -0.054578 -0.049709 -0.0096901 0.0034933 -0.018037 0.055666 0.064464 0.02429 0.032726 0.015346 0.043885 0.054384 0.045523 0.014944 0.012186 -0.021303 -0.036388 -0.044433 -0.090155 -0.060755 -0.061439 -0.10353 -0.066637 -0.075586 -0.067622 -0.068533 -0.01808 -0.013411 -0.076006 -0.079596 -0.050699 -0.0054416 0.024508 0.016594 0.05614
0.020974 -0.10162 -0.071424 -0.02992 -0.036884 0.010732 -0.058764 -0.012241 -0.0062601 -0.00097101 -0.06448 -0.1075 -0.067644 -0.071826 0.053961 0.12176 0.14255 0.079122 0.078186 0.037079 0.0038752 -0.0061657 0.031521 0.04141 0.030701 -0.04165 -0.071111 -0.013566 0.017721 0.057867 0.082704 -0.093038 -0.076888 0.0024143 -0.0020882 -0.033373 -0.045441 -0.0235 -0.015333 -0.027718 -0.0089152 0.00069382 0.056763 0.074112 0.031229 0.10336 0.12034 0.11179 0.09875 0.0875 0.082315 0.022467 0.0077348 0.021582 0.041835 0.019927 0.086862 0.0074508 0.014446 0.089261 0.073372 -0.1432 -0.1207 -0.0015756 0.0074565 -0.014478 -0.027694 -0.056109 -0.030031 -0.027155 -0.020838 0.013598 0.01447 0.039663 0.0089087 -0.041658 -0.00036588 0.076486 0.011877 -0.0052567 0.050116 -0.0034619 -0.011547 0.019913 -0.012472 0.052465 0.099361 0.06732 0.022085 0.077113 0.021398 -0.076628 -0.071697 -0.012164 -0.039847 -0.12365 -0.08058 -0.037678 -0.03911 -0.053906 -0.032064 0.024768 0.020501 0.022516 0.0084508 -0.043812 -0.024962 0.023768 0.029794 0.0077727 0.060591 0.030984 -0.072765 -0.025825 0.0032268 -0.0046343 0.0037728 0.087694 0.064409 0.046086 -0.00048376 -0.12958 -0.081189 -0.049237 -0.059107 -0.047262 -0.09444 -0.063832 -0.031594 -0.029757 -0.019923 -0.020941 0.032829 0.048568 0.04513 0.024782 -0.011675 0.064341 0.11591 0.061939 0.036312 0.033338 -0.02798 -0.087057 -0.010892 0.051376 -0.011272 0.051457 0.038608 0.058398 0.04857 -0.085827 -0.031487 -0.1042 -0.095877 -0.080788 -0.14455 -0.07966 0.011773 -0.0057025 -0.056719 -0.022057 0.031767 0.046932 0.046333 0.0055567 -0.013454 0.031003 0.07205 0.1005 0.024302 0.03154 -0.017492 -0.059894 -0.045803 0.0025991 0.015363 0.065717 0.02438 0.085649 0.038617 -0.075001 -0.073389 -0.11329 -0.11645 -0.10686 -0.11473 -0.11584 -0.01119 0.025148 -0.017036 -0.028486 0.0042324 0.043698 -0.033635 -0.030854 -0.016738 -0.012917 0.055595 0.14717 0.056848 0.024338 -0.034797 -0.055918 -0.019808 0.0042917 0.024541 0.059868 0.043201 0.087585 0.029512 0.0067402 -0.12797 -0.19806 -0.10003 -0.097902 -0.11951 -0.096015 -0.078502 -0.023695 -0.039312 -0.066425 -0.081152 0.0038895 -0.050635 -0.019837 0.009653 -0.023932 0.096531 0.035218 0.009505 -0.050368 -0.013414 0.020049 0.01663 0.067331 0.034218 0.06215 0.074684 -0.0031914 -0.023203 -0.074134 -0.088066 -0.13936 -0.04837 -0.057984 -0.096628 -0.13347 -0.065861 -0.0076898 -0.0019824 -0.043294 -0.042927 0.01653 0.031144 0.027493 0.024609 0.026144 0.051554 0.071933 0.018974 0.011698 0.01055 0.077694 0.053229 0.079166 0.08792 0.062826 0.069282 0.053282 -0.040742 -0.095159 -0.049062 -0.079886 -0.040094 -0.043875 -0.12819 -0.096008 -0.093463 0.01257 -0.052525 -0.01397 -0.023501 0.11363 0.091674 0.03344 -0.0053082 0.024712 0.027836 0.040035 0.0039529 -0.028287 0.051684 0.062721 0.022029 0.053218 0.037663 0.040751 0.074641 0.057695 0.025332 -0.094626 -0.059084 -0.10593 -0.04022 -0.092729 -0.13876 -0.11133 -0.033547 -0.019679 -0.026076 0.083653 0.050663 0.072392 0.047001 0.011238 0.031262 0.074857 0.053662 0.030164 -0.028166 -0.056402 -0.027493 -0.045939 -0.068677 -0.036082 -0.020477 0.024774 0.096323 0.027409 0.033266 -0.044619 -0.032756 -0.051099 -0.06007 -0.059656 -0.071419 -0.085667 -0.019231 -0.030845 -0.062853 0.00027715 0.069808 -0.024459 0.0039793 -0.024534 0.033682 0.046325 0.044069 0.077705 0.018527 0.052392 0.051154 0.010625 -0.010419 -0.036941 0.020646 0.052075 0.076338 0.0257 0.033386 -0.04937 -0.026696 -0.041946 -0.083695 -0.047752 -0.10047 -0.026935 -0.055051 -0.019563 0.0077643 -0.02142 0.057345 -0.033805 -0.057964 0.0057933 0.056907 0.030162 0.04787 0.070071 -0.0066961 0.027153 0.036418 0.073609 -0.021012 0.032788 0.021224 0.036886 0.036679 -0.021699 0.055696 -0.006639 -0.044262 -0.032789 -0.027995 -0.089637 -0.12287 -0.032343 -0.07268 -0.016352 0.02982 0.037833 0.098859 0.013591 0.025057 0.031782 0.070657 0.047509 -0.0051165 0.086372 0.076799 0.061912 0.058323 0.074388 -0.0079881 0.027567 0.015553 0.010285 0.02281 0.011042 0.037398 0.0068424 0.0058296 -0.026875 -0.025515 -0.10927 -0.13795 -0.11135 -0.084784 0.010941 0.059953 0.053466 0.029577 -0.034875 0.069291 0.055475 0.10804 0.054447 0.018214 0.041039 0.060453 0.021466 0.069123 0.068854 0.059726 0.070188 0.042621 0.042223 0.033714 -0.0060304 0.017297 0.0022193 0.00083307 -0.051856 -0.056712 -0.14494 -0.11288 -0.026061 -0.13511 -0.022607 0.031211 0.052301 -0.014123 -0.0060899 0.043611 0.091007 0.098895 0.040284 0.02802 0.085998 0.050942 0.098904 0.064469 0.084322 0.077065 0.058534 0.078836 0.05016 -0.023196 -0.071263 -0.0040238 0.00078941 0.0082962 0.0059065 -0.00903 -0.18905 -0.17997 -0.057128 -0.030626 -0.044995 -0.0065652 0.028023 0.011994 -0.044193 -0.0048721 0.01072 0.027673 0.019496 0.0569 0.062763 0.042239 0.069854 0.043529 0.029009 0.067626 0.067189 0.051153 0.071418 -0.0048736 -0.042065 -0.00030927 -0.0015527 -0.029463 -0.035877 -0.047223 -0.18192 -0.052622 -0.0019348 -0.012852 -0.044405 -0.0047751 -0.026627 -0.024534 -0.020491 0.013509 -0.013406 0.014491 0.003633 0.016547 0.060881 0.059606 0.086728 0.032228 0.071458 0.079822 0.080613 0.038072 0.045838 0.0049798 -0.033315 -0.034147 -0.06124 -0.02061 -0.045528 -0.074554 -0.064192 -0.051131 0.01079 0.013171 0.038967 0.005029 -0.098344 -0.042892 -0.0094601 -0.063937 -0.031377 -0.0070791 -0.0017737 0.039751 0.040592 0.074651 0.050443 0.033462 0.03524 0.045663 0.047885 0.0324 0.051677 0.025583 -0.028924 -0.035657 -0.059389 -0.044553 -0.023561 -0.10382 -0.026647 -0.035388 0.016559 0.045529 0.085788 0.036818 -0.041835 -0.056927 -0.027667 -0.040701 -0.038506 -0.015936 -0.0241 -0.02952 0.051996 0.024637 0.006609 0.058282 -0.026598 -0.048636 0.052045 0.051266 0.053658 0.040551 -0.010038 -0.015921 -0.04499 -0.034779 -0.041923 -0.035444 -0.021271 -0.051056 0.004705 0.048976 0.049105 0.057011 -0.024233 -0.035131 -0.045761 0.061854 -0.00067943 0.024808 0.056994 -0.044279 0.027809 0.046066 0.038473 0.026007 -0.022868 -0.034334 -0.0058014 0.014671 0.036618 0.043444 -0.011534 -2.0823e-07 -0.059504 0.014289 -0.036814 -0.04423 0.02483 0.0044833 0.0009025 0.013732 0.080103 0.061499 -0.024164 -0.03424 0.035192 0.040213 0.079246 0.051515 0.037926 -0.042013 -0.027082 0.074349 0.045483 0.028579 -0.0039142 0.00071983 0.0070151 0.025476 0.026834 0.02431 0.023421 -0.01865 -0.04081 -0.0035707 -0.047047 -0.050155 0.0014691 0.025554 0.00020433 0.038956 0.015075 -0.0088812 0.0069096 0.020224 0.065329 0.10105 0.096536 0.059752 0.0049079 -0.019743 0.026258 0.075569 0.073134 0.02544 -0.00057216 0.0031236 0.028256 0.016792 0.060561 -0.033724 -0.017745 -0.065426 -0.053613 -0.041867 -0.042823 -0.019888 0.011215 0.041036 0.037518 0.069737 0.064249 0.035439 -0.045047 0.035887 0.08347 0.061572 0.086776 0.067759 0.066986 0.0033688 0.05367 0.067733 0.088342 0.093456 0.062544 0.059251 0.082409 0.019587 0.010983 -0.054713 -0.035098 -0.041486 -0.049258 -0.024022 -0.0075047 0.055418 0.024843 0.071003 0.013859 0.067288 0.10752 0.040992 0.04003 0.037226 0.023997 0.043308 0.056052 0.057525 0.022669 0.057964 0.080939 0.13046 0.12473 0.093969 0.09027 0.058395 0.080668 0.041117 0.042454 -0.0067194 -0.036701 -0.081447 -0.072331 -0.046842 -0.020148 0.053394 0.084519 0.097321 0.045658 0.058086 0.098796 0.090389 -0.0012815 0.038364 0.0042836 0.013425 -0.0095482 0.070348 -0.016377 0.042537 0.13648 0.14627 0.13847 0.12465 0.097553 0.080553 0.088639 0.05079 -0.01058 -0.0047047 -0.086049 -0.099082 -0.12911 -0.04394 -0.029533 -0.0052534 0.020797 0.027007 0.04821 0.080016 0.017669 0.03494 0.12843 0.094425 0.050488 0.0072854 0.0030875 0.0010568 -0.0078446 0.075799 0.13927 0.13933 0.11547 0.064127 0.09949 0.1037 0.057146 0.06307 0.080893 0.063858 0.0029934 -0.036463 -0.099251 -0.032196 -0.028615 -0.0023766 0.032432 0.048471 0.034781 0.020431 0.088675 0.044775 0.10162 0.078447 0.10499 0.023595 0.0029164 0.079744 0.0095548 0.023134 0.075096 0.11706 0.1002 0.10499 0.10802 0.089402 0.097471 0.11357 0.068754 -0.060124 -0.05221 -0.053641 -0.058856 0.048296 0.016634 0.064675 0.057239 0.049584 0.026372 0.014828 0.049481 0.044071 0.11364 0.031052 0.045291 0.038317 0.027293 0.039996 0.037197 0.046367 0.10021 0.086506 0.086761 0.058564 0.050102 0.1006 0.044006 -0.0092968 -0.03906 -0.074658 -0.068281 -0.026525 -0.071365 0.01223 0.010801 0.030414 0.087688 0.020094 -0.049356 -0.036423 -0.027778 -0.02811 -0.05219 -0.012456 0.024479 0.070706 0.041384 0.038435 0.029545 -0.00096656 0.028912 0.048872 0.06414 0.058988 0.058778 0.031054 0.012894 -0.019023 -0.071192 -0.059975 0.011297 -0.051799
0.97295 0.36342 0.47324 0.3816 0.18791 0.10697 0.12265 0.030335 0.17097 0.072473 -0.29689 0.12463 0.34744 -0.097935 0.072116 0.0092447 0.015636 0.16704 0.22568 -0.030443 -0.047427 -0.14482 0.1317 0.12545 0.058334 -0.15565 -0.3153 -0.070665 0.10115 0.072191 0.044916 0.30157 0.22627 0.20666 0.14364 0.10496 -0.22627 -0.065599 -0.037749 0.17342 -0.19005 -0.04063 -0.16814 -0.25945 -0.089464 -0.22201 -0.24536 -0.11483 -0.07975 -0.20444 -0.24078 -0.12324 -0.011727 -0.13067 -0.394 -0.010643 -0.041568 -0.17633 -0.084704 -0.0078555 -0.059257 0.083993 0.060327 0.18989 -0.080282 -0.018652 -0.040652 -0.071676 0.20233 0.20898 -0.28283 -0.17122 -0.17707 -0.03375 0.2021 -0.15972 -0.30423 -0.10241 -0.084527 -0.11643 -0.13849 -0.17635 -0.1944 0.0013294 -0.21502 -0.038996 0.14713 -0.017752 0.022399 0.24083 0.35219 0.22694 0.30025 0.11561 0.065248 0.20796 0.22349 -0.094985 0.1363 0.059374 0.1967 0.1341 0.12825 -0.05633 -0.079369 0.049301 -0.1356 -0.1677 -0.089153 -0.048368 -0.020584 -0.27387 0.091204 -0.031958 0.068211 0.23371 -0.085887 -0.057302 0.046017 -0.24337 0.11243 -0.047926 0.1014 -0.052267 0.040382 0.13413 0.35521 0.056395 -0.010753 -0.022475 -0.077522 -0.056116 -0.014939 0.0033154 -0.008041 0.031128 -0.095213 -0.0035425 0.038077 0.13349 -0.076617 -0.012559 -0.18343 -0.22011 0.021932 0.13225 -0.093911 -0.14727 -0.24951 -0.13777 0.073664 -0.17373 0.00061771 0.074084 0.25118 0.23044 0.14856 0.10519 -0.19711 0.095719 0.10282 0.059726 0.080755 0.12727 0.13232 0.20382 0.11632 -0.088352 0.22695 0.175 0.037421 -0.087429 -0.11458 0.046313 -0.054381 0.16238 0.085082 0.041281 -0.12085 0.045931 0.12216 -0.095803 -0.12202 0.052822 0.07453 0.10222 0.013343 0.27889 0.079386 0.21488 0.19022 -0.12926 0.048408 0.15102 0.25265 0.19389 0.15953 -0.1074 0.058937 0.033002 -0.14066 0.081828 -0.091836 -0.26135 -0.13739 0.080625 -0.033246 -0.081889 -0.16887 0.10004 0.0178 0.04631 0.12892 0.16422 -0.14958 0.10409 -0.091318 0.41244 -0.082998 0.078177 0.012341 -0.12775 -0.01039 0.18184 -0.083443 0.10309 0.049565 -0.1875 0.0093203 -0.29517 -0.23215 -0.065501 -0.11974 -0.088027 -0.010873 0.072198 -0.02914 -0.10803 0.24606 0.1308 0.19695 0.014536 0.037574 0.042861 0.032841 -0.14089 0.055423 0.17846 -0.13913 0.079028 0.10063 0.085229 0.055832 -0.047935 -0.091712 -0.03646 -0.11649 -0.082976 0.070076 -0.018011 -0.10768 -0.038243 -0.047459 -0.004661 -0.058669 0.0305 0.017663 0.0058024 -0.036137 0.038574 -0.074069 0.11981 -0.2291 0.036348 0.12588 0.044439 0.29844 0.33707 -0.14349 0.26339 0.056574 0.11572 0.14151 0.14427 0.082603 -0.017282 -0.1877 0.11381 -0.14393 -0.17719 -0.034575 -0.10741 0.047649 -0.13623 -0.21691 0.015967 -0.019605 0.092401 -0.3023 0.23803 -0.048809 0.023153 0.058536 -0.051233 0.079204 0.0063232 -0.15042 0.12862 0.13959 0.16428 0.066076 0.12332 0.066726 -0.11473 0.068919 -0.036263 -0.27134 -0.16734 -0.089898 0.11571 0.040981 0.21395 0.11453 -0.11162 0.19001 0.067401 0.048618 0.0068163 -0.18688 -0.0099833 -0.083941 -0.002519 0.18973 -0.033858 0.020121 -0.1347 0.083439 0.058268 0.00095291 -0.048997 0.11678 0.047899 0.10435 -0.11862 0.038394 0.034894 -0.060589 0.029536 -0.13417 0.17567 -0.0074355 0.18554 -0.26119 -0.2515 0.1936 -0.012428 -0.024906 -0.11499 -0.18676 -0.0091173 -0.28519 -0.239 -0.052629 -0.046511 -0.078139 0.16887 -0.096676 -0.10185 0.14545 0.093084 0.17203 0.0242 -0.17494 -0.15503 0.029338 0.17298 -0.019231 -0.05032 -0.11994 -0.21807 -0.14124 0.12283 -0.091306 -0.031605 -0.0039287 0.039249 0.031447 0.060791 0.13271 0.1956 0.12615 -0.15919 -0.099962 -0.062673 -0.021183 0.092805 0.12228 0.23597 0.04876 -0.089665 0.0053465 -0.139 0.10583 0.059607 -0.12166 -0.065258 -0.25382 -0.068069 -0.059598 -0.38032 -0.013866 0.085478 -0.16445 -0.24871 0.048238 0.18338 -0.013692 -0.022798 0.075249 0.12708 0.018578 0.070794 -0.11133 -0.10762 -0.032717 0.11007 -0.028957 0.17052 -0.037551 0.024557 0.1506 0.13372 0.018529 0.10086 0.0090284 -0.15951 -0.19258 -0.072209 0.11205 -0.13638 -0.031949 -0.14382 -0.19629 -0.11636 0.12759 0.1294 -0.045315 0.005803 -0.065585 -0.063903 -0.053012 0.2679 0.11477 -0.056892 -0.010481 -0.01792 -0.058832 -0.0059609 -0.0032236 -0.17442 0.066763 -0.075775 -0.05939 -0.10714 -0.0095548 -0.16518 -0.060034 0.095391 -0.033828 0.092827 -0.0082711 0.057125 -0.057814 0.085886 0.074809 -0.027231 -0.036434 -0.013367 -0.042635 -0.047391 -0.02288 0.03469 0.12793 0.024252 -0.068172 0.042818 0.10124 -0.0065263 -0.1075 -0.019679 -0.026611 -0.13756 -0.057982 -0.10369 -0.075742 0.082776 -0.028148 -0.068112 -0.17521 -0.045069 0.09569 0.066421 -0.054846 -0.059466 0.084945 0.033772 0.33141 0.23812 0.10795 -0.13519 0.12991 0.0097636 0.11073 -0.034568 0.0057485 0.072777 -0.0070871 -0.037259 0.025654 0.18976 -0.27758 -0.088121 -0.086309 -0.16468 -0.12277 -0.19754 -0.21583 -0.24001 -0.11174 -0.09133 0.062406 0.2287 0.14228 0.023452 0.1268 0.023769 0.029544 0.014868 0.013546 0.070623 -0.023178 0.08619 0.23489 0.19787 0.15365 -0.015413 -0.13855 0.062617 -0.079061 0.072957 -0.10465 -0.11669 0.022908 -0.07216 -0.063246 -0.027128 0.020332 -0.031845 0.013748 0.0089734 0.16591 0.095846 0.24924 -0.020976 0.17915 -0.080812 -0.068357 -0.010565 0.068372 -0.0036177 -0.071035 0.059908 0.3742 -0.0068635 0.049808 -0.084555 -0.086186 0.045183 0.10451 0.1608 -0.13461 0.13183 0.14476 0.18465 0.019999 -0.21953 0.073585 -0.080844 -0.072544 -0.15903 0.21894 0.0084699 -0.077793 -0.077751 0.043792 0.013785 0.039011 -0.11708 0.2385 0.032252 -0.00092633 -0.040407 0.13134 0.047449 -0.042657 0.070065 -0.01025 -0.10916 -0.2248 -0.30046 -0.0054623 0.093285 -0.13001 -0.19556 -0.033939 0.21241 -0.11474 -0.19609 0.095731 -0.062401 -0.14973 -0.033328 0.11006 0.023096 -0.034029 -0.072184 0.17223 -0.014868 0.024275 0.060925 0.11065 0.083937 0.18976 -0.0095783 0.0024171 -0.091131 0.14853 0.052059 -0.065876 -0.13083 -0.055238 0.027737 0.019127 0.15919 0.11321 0.10081 0.0076361 0.20251 0.019997 0.069016 0.0153 0.12421 -0.077351 -0.097063 0.00069106 0.007654 0.059327 0.032393 -0.065237 0.089765 -0.098745 0.075072 -0.0019101 -0.014159 0.050379 0.065455 -0.078571 0.11368 0.084547 0.06812 0.18128 0.011087 0.081664 -0.12818 0.09091 0.18477 0.23438 0.065767 -0.030905 -0.041558 -0.049167 -0.022412 0.11736 -0.042527 0.019791 -0.063551 0.071083 -0.11038 0.016788 0.10003 -0.10979 -0.064462 -0.095148 -0.13447 -0.021269 -0.0051367 0.092296 0.15538 0.098557 0.12959 -0.057935 0.020697 -0.11765 -0.057739 0.20526 0.090516 0.081484 0.23855 -0.046692 -0.14055 0.04502 0.067949 -0.02657 0.055199 0.10155 -0.056489 -0.090362 -0.10432 0.023509 0.091434 -0.1971 -0.042106 -0.034427 0.19851 0.02548 -0.15564 0.13739 -0.091352 0.036263 0.15621 -0.051692 -0.17653 0.11079 0.17865 0.12619 0.0074589 -0.10106 0.098797 0.20995 0.074823 0.045069 0.025096 -0.082395 -0.030518 0.10447 -0.17694 -0.082337 0.25323 -0.0014022 0.10448 -0.070028 -0.069046 0.019478 0.15306 0.0024354 -0.1366 0.12634 0.0088822 0.063192 -0.17057 0.015855 -0.095467 0.1489 0.21426 -0.078343 -0.23522 0.088638 0.16557 0.00065247 -0.11693 0.1256 0.066407 0.012665 -0.022811 0.031304 0.17604 0.070166 0.044533 -0.15629 0.2141 -0.025478 -0.09438 0.1045 -0.093217 -0.039419 0.15989 0.032297 0.44689 -0.021302 0.1393 -0.018662 0.026627 0.19568 0.1207 -0.17441 0.25441 -0.15271 -0.27911 0.066106 -0.075529 -0.078512 -0.0091686 -0.0055803 -0.14567 -0.15587 0.029039 -0.17537 -0.13354 -0.023312 -0.020953 0.19479 0.022779 -0.077927 0.00074771 0.030794 -0.063206 -0.11441 0.049448 0.16937 -0.39154 -0.020988 0.076377 -0.14091 -0.12988 -0.1683 0.023197 0.058322 -0.12229 -0.15314 -0.10772 -0.039017 -0.014492 -0.14713 0.0074158 0.01637 0.066005 0.0006486 -0.27791 -0.076694 -0.11077 0.10402 0.21876 0.20853 0.16779 0.098682 0.035171 0.18009 0.052599 0.13802 0.0076017 -0.15831 0.098033 -0.15246 -0.13527 0.071824 0.15686 0.16301 -0.11406 -0.24231 0.025109 0.035867 0.0057315 -0.065945 -0.038839 -0.066832 -0.012972 -0.30543 -0.035036 -0.22786 -0.1369 -0.0045344 0.10736 0.039085 -0.10448 -0.10253 -0.044883 -0.076845 0.27551 -0.099404 -0.22873 -0.36664 -0.20075 -0.29528 -0.19025 -0.17414 -0.00066374 0.05194 -0.1582 -0.13761 0.024533 0.087065 0.016835 -0.032539 -0.14221 -0.2269 0.01389 -0.060616 -0.12367 -0.11548 0.019422 0.056446
0.69079 0.032271 0.12052 0.15594 0.052748 -0.083616 -0.078632 -0.050357 -0.098655 -0.053447 -0.049883 -0.080064 -0.11747 -0.12816 -0.16605 -0.13188 -0.18314 -0.11263 -0.027182 0.011747 0.0099012 0.074843 0.13529 0.063804 0.092628 0.16905 0.090019 0.063477 0.11557 0.049462 -0.002525 0.13864 0.09287 0.068677 0.025975 -0.10665 -0.12226 -0.093857 0.019335 0.020033 -0.099703 -0.13636 -0.10408 -0.09321 -0.11914 -0.1364 -0.10026 -0.026856 -0.019123 -0.063662 -0.062659 -0.025977 -0.050106 0.02145 0.12373 0.12954 0.1442 0.078737 0.0028763 0.045637 0.037246 -0.023614 0.050376 0.11652 -0.089161 -0.16008 -0.035416 -0.074159 -0.014488 -0.078823 -0.10644 -0.089932 -0.075844 -0.11878 -0.11504 -0.10583 -0.05206 -0.12155 -0.039348 -0.012389 -0.028605 -0.031768 -0.08368 -0.050738 0.14192 0.061299 0.10833 -0.030624 0.0011578 -0.019392 -0.060447 0.002666 0.04541 0.032551 -0.015804 -0.13964 0.02188 -0.038858 0.032087 0.016534 -0.09682 -0.12695 -0.118 -0.15264 -0.12971 -0.085034 -0.075825 -0.06877 -0.046484 0.036732 0.028951 0.055879 0.10485 0.014388 0.0012513 0.05119 0.13942 0.033721 -0.037525 -0.018542 -0.14245 0.0065157 0.14313 -0.042738 -0.055313 -0.0095902 -0.028122 -0.032729 0.011326 0.019977 -0.035141 -0.11799 -0.19038 -0.14485 -0.12509 0.028879 -0.015131 -0.12236 -0.12977 -0.073165 0.023917 0.082796 0.089999 0.059681 0.066852 0.041556 0.096675 -0.067464 -0.042116 -0.039037 -0.16749 0.036315 0.018718 -0.099364 0.10337 0.033667 0.02142 0.038908 -0.045725 -0.054072 0.019715 -0.15625 -0.19426 -0.1384 -0.083288 -0.052378 0.034871 -0.068798 0.033855 0.10281 0.057942 0.047616 0.12424 0.068842 0.071427 0.051941 0.11757 -0.032564 0.034399 0.028016 0.0059977 -0.014863 0.0045181 0.037168 0.03197 -0.012398 -0.028844 0.018119 -0.11105 -0.13783 -0.073832 -0.10501 -0.085517 -0.1479 -0.030721 5.2855e-05 0.07837 0.08952 0.10779 0.057336 -0.023206 -0.040367 0.067461 -0.018029 -0.0046243 0.13429 0.0089124 -0.076584 0.064817 -0.10126 0.010623 -0.026246 0.0048136 -0.026242 0.0022077 0.079065 -0.07992 -0.13233 -0.085428 0.048051 -0.048309 -0.0038562 -0.020224 -0.010618 0.0014606 0.067406 0.12269 0.10107 0.11871 0.051798 0.0065075 -0.065978 0.010427 0.095799 0.032998 0.076235 0.017542 0.0078065 0.062756 -0.015877 0.1156 -0.090319 -0.11936 0.011083 -0.062213 -0.038441 0.040914 -0.071971 0.024223 0.02252 -0.030598 0.0091339 -0.074899 0.051373 0.021821 0.074052 0.13718 0.14779 0.096947 0.10115 -0.0015419 -0.051651 -0.014076 0.048444 0.11119 0.037895 0.037191 -0.033347 -0.014526 0.01716 0.047672 -0.23132 -0.096725 -0.0034286 -0.10635 -0.01904 -0.069084 0.020635 -0.025795 -0.0015251 -0.06028 0.025301 0.059051 0.065449 0.017303 0.035375 0.095213 0.075957 0.067483 0.099903 0.054486 0.0072594 -0.031389 0.010843 0.0048901 -0.074945 -0.01116 -0.0021374 0.031002 0.083571 0.042533 -0.09625 -0.10477 0.058966 -0.10387 0.025867 -0.14068 -0.027741 0.036951 0.053343 -0.057407 0.057426 0.083996 0.067927 0.006951 0.0026316 0.043316 -0.01562 0.011235 0.11829 0.04324 -0.0083549 -0.050348 0.0031903 -0.0041849 0.022503 0.097319 0.1809 0.080473 0.15533 0.050887 -0.093736 -0.056128 -0.079875 -0.10891 -0.012316 -0.056071 0.078814 0.037303 0.049696 0.10089 0.084532 0.042974 0.0094363 0.045459 0.13494 0.061664 -0.029936 0.060396 0.09148 -0.020016 -0.036191 -0.098043 -0.094104 -0.0061288 -0.10169 0.0064099 0.026369 0.081945 0.03657 -0.054763 -0.01463 -0.088689 -0.14363 -0.019982 -0.052202 -0.045735 0.070509 0.050219 0.0051017 0.11675 0.10496 -0.040102 0.06724 -0.030184 0.050517 0.12075 0.061278 0.073729 0.18433 -0.0057152 -0.074571 0.0062179 0.015603 -0.051618 -0.063533 0.023237 0.0062196 -0.026892 -0.022767 -0.042338 0.076836 0.0052833 -0.028394 0.058296 0.066292 0.057983 0.021688 -0.048529 0.0070822 0.10549 0.022565 0.0060234 0.091155 -0.01691 0.064202 0.0511 0.061184 0.050671 0.19826 0.1131 0.039286 0.014186 0.0051613 0.0026238 -0.038148 -0.04528 -0.0070431 -0.078911 -0.11106 -0.04187 0.14263 0.045175 0.10647 0.027137 0.10305 0.11756 0.08319 -0.066632 0.051591 0.0033753 0.08271 0.028631 0.046098 0.06727 -0.036823 -0.012134 0.034379 0.074649 0.10498 0.028893 -0.044427 -0.079363 -0.00065219 -0.03182 -0.10622 -0.03816 -0.069089 -0.042376 -0.14259 -0.032481 0.0049339 -0.029637 0.084285 0.0012948 0.13113 0.06224 0.050596 0.068148 0.027336 0.0057999 0.074013 -0.0034214 0.0024487 -0.014928 0.063471 0.090154 0.078726 0.04039 0.014016 -0.039725 -0.17968 -0.045747 -0.036233 -0.067619 -0.028201 0.040749 0.050737 -0.0094323 -0.075869 0.036205 -0.01395 0.028452 -0.010376 -0.023212 0.068325 0.028709 0.0067061 -0.0086795 -0.047327 -0.022476 0.084208 0.0096147 0.074021 0.096841 0.034817 0.13745 0.058102 0.065938 -0.0096389 -0.076282 -0.17556 -0.10093 0.055352 0.014013 -0.030073 0.07625 0.022346 0.018569 -0.043013 0.083008 0.027952 0.054483 0.043979 -0.041617 0.205 0.13681 0.019952 0.048324 -0.029432 -0.037957 -0.034739 0.02157 -0.010572 0.060561 -0.0088142 0.043327 0.032326 0.020367 0.0049877 -0.03006 -0.095292 0.0095057 0.081846 -0.0043424 0.022685 0.052339 -0.061458 -0.020917 -0.010813 0.058893 0.064889 0.08987 0.14606 0.051331 0.18763 0.12232 0.081964 0.10491 0.1288 -0.031811 -0.015902 -0.052404 -0.033231 -0.021391 -0.020078 -0.052379 0.0032372 0.0092357 -0.051681 -0.11293 -0.089736 -0.01979 -0.013263 0.055866 0.02011 0.053418 -0.087521 -0.055643 -0.11617 -0.051812 0.027764 0.088327 0.1211 0.10204 0.19465 0.15655 0.054041 0.19506 0.12643 -0.021597 -0.033101 -0.038144 -0.050969 -0.12929 -0.017414 0.081298 -0.041859 -0.11516 0.05401 -0.064261 -0.15659 -0.14062 -0.0064793 -0.01725 -0.019969 -0.035236 -0.11939 -0.0054985 -0.11916 0.008179 0.087495 0.087951 0.073422 0.12125 0.13938 0.020874 -0.022817 0.014286 0.010232 0.024504 -0.013991 0.071791 -0.024715 -0.033723 0.026292 0.068366 -0.033106 -0.0389 0.092478 -0.089983 -0.034951 0.012469 -0.073454 -0.049888 -0.099289 -0.10975 -0.13692 -0.12152 -0.13374 -0.081731 0.037402 0.1003 0.10404 0.15956 0.15453 -0.062631 -0.041728 0.005175 0.11154 0.08409 0.021573 0.018778 0.089185 0.093129 -0.0023101 0.0027371 -0.023137 -0.00053088 -0.047089 -0.061152 -0.089632 -0.055834 -0.075021 -0.033175 -0.062375 0.028264 -0.002124 -0.043655 -0.11385 -0.032013 -0.0042763 0.047737 0.086069 0.13512 0.13437 0.11873 0.045747 0.076359 0.066363 0.074647 0.073409 0.030642 0.070679 0.049577 0.017096 -0.023215 -0.10322 -0.087516 -0.05634 -0.10678 -0.13825 -0.034123 -0.12934 -0.037273 0.0052031 0.061125 -0.0056042 -0.0065735 -0.037203 -0.029142 -0.032189 0.015623 0.11546 0.07141 0.15394 0.059438 0.082662 0.047126 0.11576 0.094212 0.083851 -0.041046 0.071003 0.060214 -0.085535 -0.19745 -0.11035 -0.10919 -0.053946 -0.062911 -0.054453 -0.061718 -0.15515 -0.072324 -0.022389 -0.032164 0.030889 -0.081708 -0.059282 -0.084628 0.13287 0.14424 0.15901 0.099773 0.12429 0.031743 -0.064176 -0.0060088 0.092603 0.031167 -0.011449 -0.040923 0.033053 0.011566 -0.098893 -0.099281 -0.049236 0.0012674 0.027273 0.012129 -0.039018 -0.051524 -0.085168 0.10479 0.015916 -0.022075 0.057021 0.042697 -0.042638 -0.01639 0.22702 0.078922 0.23645 0.089005 0.11859 0.037028 0.034856 0.042161 -0.041352 -0.036347 0.076959 0.12023 -0.038514 0.014003 0.0104 -0.10351 -0.06886 -0.065649 0.095108 -0.033522 -0.088813 -0.14077 -0.045043 -0.017715 0.067119 0.059972 0.020979 0.05948 0.023318 0.0087001 0.19628 0.14448 0.12753 0.022669 0.014266 0.080405 0.11446 0.088402 0.14367 -0.052582 0.074144 -0.041256 -0.043059 -0.062454 -0.065072 0.031341 -0.080332 0.054089 -0.15345 -0.065516 -0.037795 -0.071124 -0.10337 -0.075241 -0.0098918 0.082744 0.11546 -0.037453 -0.045837 -0.0069959 0.12294 0.18073 0.13265 -0.035341 -0.10577 -0.025143 -0.015701 0.063262 0.02911 0.044251 0.035811 0.038259 -0.081556 -0.035766 -0.041775 -0.15864 -0.21252 -0.12293 -0.10325 -0.027531 -0.053637 -0.1095 -0.11679 -0.061772 0.069565 0.070173 -0.025599 0.049174 0.031624 -0.0062894 0.11353 0.14936 0.14772 0.11827 -0.0095553 0.087922 -0.054025 0.14115 0.18664 0.12397 0.080337 -0.038241 -4.7515e-05 -0.070976 -0.094392 -0.020079 -0.056416 -0.075621 -0.032172 0.077339 0.11008 0.10353 0.025127 0.0067616 0.042652 0.00036517 -0.073321 -0.081362 -0.066707 -0.051053 0.15246 0.19584 0.1429 0.12542 0.050139 0.059401 0.13848 0.060348 0.076035 0.010897 -0.0065181 0.022059 -0.077034 -0.084779 -0.18071 0.022207 -0.032265 -0.045095 -0.017581 0.070906 0.03455 -0.042306 -0.0097321 -0.09169 -0.0258 -0.096636 -0.133 -0.080329 0.026965 -0.042533
0.13739 0.0041301 0.0039221 0.015267 0.015566 0.0076941 0.0025985 -0.018904 -0.0091731 -0.0059652 -0.00012819 0.0038693 0.0078113 0.011948 0.013348 0.014741 0.011533 0.0047186 0.0029591 0.0023798 0.0080095 0.0027024 0.0094613 0.01001 0.012899 0.016223 0.019887 0.016097 0.009452 -0.0053784 -0.0076963 0.0070098 0.011116 0.015943 0.013736 0.012585 0.0051208 -0.0060668 -0.0055021 -0.0097483 0.0081787 0.0051366 0.0028263 0.0082184 0.010533 0.016732 0.014995 0.01589 0.01362 0.0082051 0.017849 0.014399 0.013169 0.017341 0.021249 0.023264 0.023179 0.02038 0.013768 0.0023343 -0.0071373 0.010471 0.011998 0.016055 0.026108 0.021923 0.012767 0.0044886 0.0061671 -0.00048622 0.0083912 0.0072971 0.0082236 0.0062012 0.010574 0.0089668 0.014591 0.012804 0.015132 0.014073 0.02047 0.023432 0.022773 0.019168 0.032253 0.027558 0.022568 0.017506 0.0043786 -0.0099222 -0.017469 0.0088329 0.014167 0.023539 0.023887 0.022451 0.017381 0.0088282 0.0028343 0.001152 0.0091279 0.0094063 0.010338 0.01003 0.0094788 0.010964 0.017197 0.012717 0.017703 0.017192 0.02447 0.023029 0.013089 0.021893 0.030914 0.022279 0.018104 0.018848 -0.0073353 -0.0019529 -0.0072309 0.00382 0.0069758 0.017967 0.027127 0.024498 0.018164 0.0043487 0.010362 0.0087233 0.010068 0.016793 0.015337 0.015551 0.0061031 0.012442 0.011833 0.011759 0.017864 0.016063 0.016749 0.0090284 0.017043 0.029726 0.025224 0.018745 0.02105 0.001874 -0.0033308 -0.0085603 -0.011261 0.0091269 0.010936 0.017789 0.018456 0.017534 0.014611 0.0067847 0.0080158 0.0069161 0.011012 0.012545 0.017814 0.02326 0.0084822 0.015484 0.011463 0.013893 0.012693 0.0095384 0.009561 0.011461 0.018275 0.023241 0.011453 0.0087046 -0.0085861 0.0069995 -0.0089455 -0.0031425 -0.0093872 0.0081632 0.010781 0.01815 0.017719 0.013243 0.0085816 0.00121 0.0049918 0.014076 0.016116 0.014068 0.018955 0.024786 0.024937 0.015496 0.014853 0.0074813 0.016233 0.013312 0.0061752 0.014201 0.025757 0.0091477 -0.0039531 -0.0056257 -0.00080713 0.010248 -0.0017961 0.0042992 -0.007477 0.0076919 0.012193 0.015742 0.017705 0.013992 0.0084093 0.0050081 0.0071833 0.0079279 0.010991 0.011934 0.012806 0.024237 0.03113 0.023849 0.016472 0.010278 0.0040457 0.0068218 0.0079238 0.014926 0.014899 0.0099556 -0.0011223 -0.0053608 0.0019806 0.010461 0.007273 0.0046174 -0.0081684 0.0099909 0.01423 0.022567 0.022739 0.019641 0.007909 0.0063165 0.009921 0.0095949 0.021637 0.018103 0.0164 0.023272 0.035624 0.024387 0.010221 0.0060439 0.00062378 0.0087976 0.013724 0.015283 0.022296 0.010601 0.0032916 0.0012283 0.01047 0.028811 0.014401 0.0060603 0.00088232 0.011481 0.021818 0.021883 0.022428 0.023079 0.0097486 0.0086347 0.010492 0.018047 0.014034 0.01811 0.02377 0.025808 0.023955 0.012294 0.00070264 0.0078837 0.0034602 0.0038186 0.015313 0.014725 0.014414 0.0061264 0.0016483 0.011972 0.019012 0.012627 0.011952 0.010151 0.0025566 0.01399 0.028476 0.032956 0.025241 0.023045 0.018967 0.014258 0.012825 0.01835 0.016885 0.020486 0.023798 0.021815 0.01037 0.003698 0.010745 0.012019 0.01288 0.014728 0.013952 0.016393 0.0072146 0.0075215 0.013665 0.014657 0.017179 0.012997 0.013296 0.004944 0.015525 0.013168 0.0276 0.024465 0.022446 0.012873 0.019512 0.0089313 0.013367 0.011928 0.016134 0.014273 0.017211 0.0062131 0.003878 0.0051892 0.015653 0.017437 0.012714 0.021809 0.0096942 0.0026167 -0.00059166 0.0089645 0.015392 0.013754 0.013677 0.012661 0.015008 0.01864 0.011086 0.012787 0.023985 0.025908 0.018096 0.01573 0.016493 0.019291 0.0085934 0.0078715 0.013943 0.0099041 0.0091879 0.004954 0.0059875 0.0084988 0.020849 0.016134 0.015558 0.014811 0.0030876 0.0014685 0.0018669 0.0017956 0.010411 0.013819 0.014263 0.010028 0.018453 0.012466 0.007482 0.0097077 0.015119 0.018411 0.021668 0.014223 0.017628 0.014168 0.017018 0.0044855 0.017077 0.015552 0.015029 0.0072465 0.013822 0.014323 0.018378 0.016352 0.016754 0.014811 0.0064342 0.0027824 0.0093998 0.00047034 0.0014244 0.0034804 0.010585 0.013458 0.019771 0.010773 0.0054508 0.010555 0.021328 0.017206 0.01796 0.0074377 0.0090509 0.0093585 0.010575 0.0039888 0.0084057 0.0041744 0.0046991 0.0063907 0.0095175 0.0031674 0.0085497 0.013959 0.014227 0.013931 0.013777 0.0085351 0.0058833 -0.00052695 0.0025849 0.0023508 0.0062917 0.02022 0.020877 0.011974 0.0047373 0.0091057 0.014745 0.015014 0.0095426 0.0082143 0.0076092 0.0061792 0.0051131 0.0073926 0.0071538 0.0093307 0.0102 0.0092193 0.0060183 0.010057 0.006231 0.0075783 0.02056 0.013775 0.0084533 0.012751 0.01286 0.0085665 0.0019515 0.012684 0.014433 0.019184 0.025098 0.011288 0.0050578 0.0030563 0.011365 0.016465 0.011463 0.0055877 0.0072668 0.0045973 0.0082592 0.008466 0.01203 0.011126 0.0073446 0.0010379 0.0092317 0.0094755 0.0039952 0.008941 0.023551 0.016806 0.015218 0.010946 0.0087238 0.0037403 0.0097937 0.012475 0.01579 0.015578 0.018321 0.013949 0.012212 0.0022214 0.0055269 0.0065248 0.010091 0.0042537 0.0090161 0.012063 0.011431 0.017053 0.0072343 0.012562 0.0037522 0.0074584 -0.00019866 0.010676 0.020361 0.014892 0.0088778 0.018635 0.015347 0.01056 0.010878 0.013437 0.0042476 0.010014 0.010722 0.019445 0.015046 0.018555 0.011553 0.0015545 0.0032741 0.0090722 0.010295 0.00956 0.016171 0.01538 0.014508 0.013601 0.011455 0.015674 0.013572 0.017327 0.0060923 0.014287 0.014173 0.012618 0.0051349 0.014434 0.011112 0.016497 0.0085338 0.0064163 0.0035454 0.0056593 0.0070516 0.01517 0.015365 0.010274 0.0091099 0.0051977 0.0091171 0.013122 0.011377 0.0086049 0.011394 0.0094631 0.0040919 0.010977 0.011712 0.018613 0.028503 0.017791 0.021726 0.0096303 0.0072475 0.0042367 0.004425 0.0019515 0.007607 0.01539 0.0069887 0.0072464 0.0016814 0.009241 0.0098031 0.014474 0.015627 0.01334 0.0088444 0.0038024 0.0063747 0.019016 0.009772 0.0073318 0.0040027 0.0023188 0.00017637 0.0014092 0.018988 0.020846 0.027463 0.025043 0.0092255 0.0021031 0.012767 0.0068277 -0.0034479 0.0030886 0.011474 0.0089802 0.0051451 0.0059198 0.008812 0.0036221 0.0084058 0.0088379 0.015979 0.016662 0.0092903 0.0014 0.0023892 0.015029 0.0094866 0.0079525 0.00060575 -0.00055227 -0.0024325 0.0039265 0.015339 0.018505 0.014991 0.021625 0.019864 0.0082671 0.0091172 0.0068402 0.0085042 0.010021 0.0072266 0.0051519 0.013477 0.00868 0.010537 0.007487 0.0045883 0.011179 0.019534 0.017854 0.0087711 -0.0014971 0.0040009 0.013435 0.0050143 0.010535 -0.00080254 -0.0013584 0.0043363 0.013661 0.013173 0.007232 0.017426 0.015317 0.0066835 0.015895 0.02051 0.018392 0.01945 0.0093104 0.0052757 0.0054111 0.0078814 0.010807 0.0070535 0.01399 0.0093884 0.0082931 0.015719 0.014829 0.0079807 0.0047062 0.012231 0.016562 0.017123 0.016756 0.0020017 0.0082423 0.0057849 0.0009138 0.0076651 0.0092875 0.011432 0.01367 0.016753 0.019881 0.017398 0.012383 0.0093466 0.0094814 0.0093905 0.011129 0.0097367 0.013921 0.0086354 0.012406 0.0032287 0.012227 0.013877 0.011899 0.0080476 0.0079473 0.010489 0.012743 0.01295 0.018412 0.015197 0.0017026 -0.0018506 0.0071172 0.0082279 0.01256 0.014182 0.020306 0.024931 0.020423 0.0085032 0.010534 0.0057456 0.0064494 0.007081 0.0092462 0.013072 0.013874 0.01552 0.014257 0.0078611 0.01004 0.013664 0.010035 0.0076638 0.011239 0.010704 0.005803 0.017804 0.018375 0.010918 0.0061597 0.0086538 0.0066487 0.013372 0.019387 0.021142 0.020265 0.017543 0.014101 0.01467 0.007288 0.0077443 0.0045331 0.016228 0.015675 0.018081 0.013158 0.0075724 0.019212 0.01518 0.012167 0.011295 0.0072506 0.0069917 0.0028432 0.010703 0.0074623 0.0038305 0.010612 0.010695 0.011501 0.01471 0.018419 0.01841 0.015954 0.016014 0.014473 0.015415 0.010629 0.016399 0.010426 0.010439 0.007548 0.016289 0.0181 0.011749 0.011479 0.021456 0.01671 0.018634 0.01749 0.014432 0.011642 0.0097948 -0.005986 0.0081421 0.007409 0.0088403 0.014672 0.0087989 0.016996 0.021745 0.019443 0.021188 0.01609 0.015281 0.0031603 0.0078612 0.018033 0.023322 0.017305 0.013264 0.008984 0.012256 0.012731 0.01583 0.014223 0.020165 0.021074 0.017335 0.012857 0.0090531 0.0049758 0.010499 -0.01565 -0.0084614 -0.00010311 -0.00032878 0.0052431 0.022964 0.019702 0.013024 0.0123 0.0076126 0.012505 0.01308 0.011094 0.013587 0.019727 0.026223 0.026086 0.016381 0.014489 0.01585 0.015257 0.013765 0.016439 0.017433 0.02004 0.015718 0.0098573 0.0068793 0.0036128 0.0042052 -0.016424 -0.0062948 -0.0066182 0.0027658 0.01286 0.018093 0.012336 0.015428 0.0016383 0.001353 0.0079888 0.009319 0.015134 0.014487 0.018973 0.023254 0.023093 0.018947 0.015012 0.010193 0.0058572 0.011569 0.0088746 0.013581 0.016302 0.011053 0.010918 0.0062547 0.0022529 0.0052675
-0.24827 -0.23016 -0.13235 0.023098 0.15788 0.17376 0.25541 0.052534 0.016466 -0.32379 0.10379 -0.20622 0.017681 0.23764 0.07625 0.014582 0.054663 0.10256 -0.47885 -0.30716 -0.0085771 0.20055 0.21472 0.063765 0.089648 -0.020388 0.24718 -0.29592 -0.23273 -0.059773 -0.071082 -0.069058 -0.020619 0.099288 0.0067251 0.045379 -0.11622 0.010639 0.0068458 -0.023086 -0.10867 0.12435 0.10197 -0.080007 0.093906 -0.060977 0.052983 -0.25227 -0.027158 -0.10166 -0.1616 -0.059314 0.15616 0.23593 0.08432 -0.36009 -0.087367 -0.096835 -0.15013 -0.13442 0.077431 0.33437 0.34728 0.19935 -0.13178 -0.11976 0.065446 -0.086597 0.17343 0.14733 0.10332 -0.045999 -0.14604 0.43823 -0.013426 0.19889 -0.045528 0.081802 0.095451 -0.087638 -0.28804 0.059281 -0.033294 -0.010639 0.088618 -0.027182 0.067047 -0.00056076 0.0094679 -0.081159 -0.11289 0.016591 0.20354 0.39223 -0.020429 -0.085425 0.055045 -0.16861 -0.058388 0.15992 0.20417 0.043492 0.14448 0.14839 0.13459 0.075068 0.052381 0.0053292 -0.034197 0.32686 -0.24815 0.15694 0.38976 0.03406 -0.17846 -0.071603 0.22871 0.22191 -0.0056185 -0.16178 -0.087904 0.11289 0.11489 0.42077 0.086606 0.25063 0.18104 0.017971 0.27139 -0.02887 -0.068401 0.066833 0.089432 -0.28059 -0.32567 0.051783 0.011702 0.10851 0.097024 -0.25535 0.19523 -0.0021578 0.22602 0.089092 -0.10441 0.1271 0.31234 0.012619 -0.16236 0.19491 -0.059013 -0.010859 0.00075612 0.23438 -0.12493 0.00017277 0.0012593 0.10825 -0.24893 0.16715 0.037583 0.15728 -0.060156 -0.047478 0.017087 -0.071322 0.11842 -0.034128 -0.27978 -0.030194 0.099216 -0.15151 -0.0044761 -0.0082786 -0.37409 -0.0079922 -0.054474 -0.11889 -0.11828 0.092873 -0.13799 0.16088 0.21033 0.25779 0.12239 0.079334 0.10644 0.18957 0.021016 -0.018197 0.29145 0.042661 0.040003 0.14945 -0.04624 0.023462 -0.11006 -0.17089 0.18278 0.002773 0.18051 0.17829 0.096443 -0.010939 0.031227 0.010506 -0.29004 -0.10373 0.03736 -0.12326 0.24402 0.19012 0.06724 0.060477 0.034588 0.34149 0.37537 0.26661 0.13755 -0.11775 0.20276 -0.066338 -0.054086 0.29184 0.18564 0.078065 0.13354 0.050029 0.10163 -0.078934 0.18521 -0.084297 0.11437 0.073433 0.34152 -0.043408 -0.15763 0.055937 0.26078 0.13799 0.31007 -0.32806 -0.37098 -0.19955 0.033756 -0.14956 -0.20093 0.095057 -0.11018 -0.022775 0.10431 0.15472 -0.38203 0.015136 -0.067296 0.13451 -0.17308 0.017734 -0.03351 0.0055007 -0.091832 0.075659 0.065142 0.13308 -0.059775 0.28874 0.2578 -0.1658 -0.043975 0.0055825 -0.17498 -0.22617 -0.06827 -0.052619 -0.18507 -0.062273 0.076772 0.2018 0.024015 -0.038718 -0.046771 -0.20201 0.049498 -0.096074 0.0055817 0.065257 -0.050828 0.17822 -0.019917 -0.048126 -0.021005 -0.10109 -0.053155 -0.28168 0.028914 0.081779 0.097967 0.047507 -0.10703 0.080119 -0.097398 -0.15842 -0.26094 -0.12166 0.13213 -0.014335 -0.03711 0.036008 0.1094 -0.18179 -0.071122 0.10676 -0.15773 0.18592 0.076756 -0.18172 0.12761 -0.011256 -0.22007 -0.16531 -0.030016 0.40087 0.31957 0.17284 -0.074028 0.21907 -0.0020478 -0.058052 -0.1054 0.17289 0.18101 -0.11336 0.13782 0.17162 -0.10931 -0.16459 -0.12095 0.24173 -0.20093 0.23966 -0.14745 0.049821 0.0054751 -0.03775 -0.17016 0.06329 0.1513 -0.080398 -0.44079 0.10144 -0.10511 -0.035458 0.014855 -0.04908 0.21504 0.17022 0.37457 0.10671 -0.10811 0.0022929 -0.14039 -0.10776 -0.16867 0.046669 -0.054184 -0.16509 -0.17345 0.059993 0.055394 0.038181 -0.10951 0.36569 -0.11196 -0.010104 0.054901 -0.0045487 -0.10518 -0.096461 -0.19532 0.10368 0.16691 0.029038 0.0035556 -0.026404 0.054351 0.0063908 0.28873 0.013401 -0.031461 -0.096768 0.22381 -0.11768 -0.3256 -0.079366 -0.093306 0.042771 -0.1998 0.22613 -0.39154 -0.22506 -0.053772 -0.17637 -0.19326 0.24129 0.17987 -0.17754 0.06674 -0.097043 0.20692 0.10675 -0.07069 -0.021989 0.095746 -0.082262 0.25671 -0.071162 0.18775 -0.21579 0.15668 0.080812 0.019306 -0.11229 0.078826 0.021522 -0.20466 -0.073679 -0.047949 0.19226 -0.027137 -0.051218 -0.022791 -0.097659 -0.092423 -0.10684 -0.32357 0.19216 -0.19888 -0.24099 0.23613 -0.13582 -0.27544 0.32311 0.18419 -0.1054 0.19399 0.052624 -0.10687 0.016373 0.1212 -0.05593 -0.21445 -0.10328 0.03859 -0.0252 -0.32156 0.10955 -0.16534 0.055327 0.089245 -0.061356 -0.17056 -0.096804 -0.036595 0.031986 -0.30013 -0.05605 -0.012081 0.49488 0.0035362 0.048717 0.042815 0.012324 0.34183 0.35271 -0.18387 0.1359 0.023707 -0.14703 0.0024495 -0.025487 -0.1818 -0.093425 0.17003 -0.2015 -0.46164 0.15895 0.092001 0.1118 -0.0053788 -0.028731 0.10666 0.073707 -0.073803 -0.14439 -0.24339 -0.11148 0.034721 -0.083074 -0.30454 -0.040299 -0.079023 0.11264 0.11947 0.2106 -0.021732 0.26933 0.30757 0.04404 0.19687 0.10784 0.13031 -0.16419 0.10647 0.041642 0.10064 -0.24819 -0.0096096 0.017536 0.027308 -0.093672 -0.16522 -0.16118 -0.15844 0.04781 0.099203 0.084221 -0.10551 0.086935 -0.1295 -0.21426 -0.0019873 -0.040987 -0.010685 -0.011104 -0.036963 0.0092072 0.23706 -0.021615 -0.0059929 0.43832 0.12953 -0.20092 -0.013102 -0.056092 -0.25314 -0.54548 0.10857 -0.049626 -0.069216 -0.19162 0.068485 -0.15967 0.098595 0.040932 0.16158 0.045402 0.19136 -0.069278 0.31667 -0.088825 -0.053684 0.0038412 0.2591 0.064439 0.014279 0.17182 -0.13026 0.24983 -0.042097 0.53263 0.0036409 -0.13616 -0.1846 -0.24637 0.031572 -0.32117 0.18066 -0.12294 -0.29266 -0.22244 -0.16507 0.050631 0.080244 -0.046416 0.13763 -0.3589 0.0030044 0.15022 -0.0056451 -0.35049 -0.021871 -0.094159 0.10843 0.14439 0.15432 0.24957 0.22622 0.23373 0.24455 0.48719 0.13043 -0.17596 0.018535 -0.25823 -0.31653 -0.23211 -0.033098 -0.063903 0.011925 -0.08195 -0.032182 -0.13546 0.086296 -0.089825 0.043847 0.11878 -0.26122 -0.28731 0.24038 -0.1072 -0.10542 0.029887 -0.0019714 0.0018709 -0.054635 -0.008664 0.1332 -0.11459 0.035252 0.43259 0.15556 -0.26552 -0.075095 -0.0077426 0.11462 0.35889 0.23095 0.28998 0.020894 0.26725 0.17835 0.27302 0.094019 -0.16366 0.096183 0.023694 0.15776 -0.41291 -0.063513 0.023389 -0.093554 -0.016903 -0.10101 -0.23334 -0.16403 -0.087932 -0.11053 0.12337 0.0011457 0.2931 0.057955 -0.28724 0.024328 0.11303 0.27084 -0.012315 0.21731 -0.12157 -0.060966 0.23717 -0.042785 0.051164 0.038655 0.038323 0.26901 0.02387 -0.16278 -0.25824 0.17116 -0.033092 -0.20625 -0.034332 0.25411 0.030932 -0.189 -0.026702 0.10409 -0.23826 -0.073355 0.29566 -0.039016 -0.083471 -0.01279 -0.017323 -0.13748 0.047742 0.43234 -0.1161 0.14439 0.035482 -0.15045 -0.063826 -0.25619 -0.26064 -0.090211 0.27689 0.12029 0.016698 -0.23766 0.088174 -0.11542 -0.34261 0.021033 0.026945 -0.18344 0.10268 0.051466 -0.21493 -0.060822 -0.10716 -0.15758 0.16191 0.34901 0.077829 0.29348 0.1944 -0.10641 -0.012216 -0.35 -0.091527 -0.25786 -0.23195 -0.0076833 -0.33167 -0.33475 -0.16274 0.11633 0.21001 -0.072038 -0.17685 -0.27181 0.088798 0.079134 -0.36322 0.026274 -0.040292 -0.33135 0.15232 0.089933 -0.026181 -0.15806 0.068814 0.1789 0.21846 -0.1013 -0.24776 -0.00022477 -0.11006 -0.11487 -0.38402 -0.34234 0.13994 0.3768 -0.29161 -0.035291 0.37892 0.14946 -0.073146 -0.029638 0.25834 -0.079928 0.20434 0.38147 0.11372 -0.024388 0.073648 -0.093331 0.19675 0.061553 0.17634 0.014373 0.12781 0.2255 0.32055 0.00085927 -0.077767 0.17855 0.13358 -0.22057 -0.13229 -0.12676 0.18856 0.16363 0.047425 -0.12655 -0.049817 -0.15326 -0.28407 -0.22328 -0.20204 -0.33104 -0.33963 -0.37142 -0.19247 -0.36976 0.039792 0.27357 0.12043 0.016159 -0.18763 -0.28273 0.32774 0.13204 -0.12644 -0.15387 -0.17313 0.1223 0.038175 -0.084572 0.12379 -0.010079 0.10002 -0.062323 0.22568 0.13397 -0.0084046 -0.10257 0.084038 0.068171 0.10527 -0.089639 0.1674 -0.064984 -0.04914 -0.16276 -0.30019 -0.035436 -0.11913 -0.22583 -0.037643 -0.24867 -0.25167 0.39559 0.098583 -0.17918 0.29016 -0.26782 -0.15836 0.086109 0.49845 0.38639 0.035013 -0.042824 0.0039252 0.24603 0.044339 0.13292 0.051862 -0.28684 0.074131 0.16461 0.078939 -0.018627 0.22059 -0.082964 0.034736 -0.26931 -0.39185 -0.3352 -0.37001 -0.52932 0.045865 0.26803 0.090407 -0.0076103 0.088113 -0.12218 0.41664 -0.1272 0.15082 -0.20672 -0.35379 -0.02766 -0.24981 -0.015158 0.022404 -0.16341 -0.13988 -0.17761 0.086028 -0.0064729 0.045118 0.023975 -0.27367 -0.11805 0.085651 0.027359 -0.13102 -0.12318 -0.048847 -0.32897
