-1.0496 -0.14703 -0.13557 -0.1909 -0.87187 0.25377 -0.60069 -0.46795 0.51324 0.30332 -1.2833 -0.18481 -1.9123 -1.9341 1.7436 -0.19326 -0.65267 -0.431 -0.19879 1.776 -0.18262 -1.1658 -0.15649 -0.90504 -0.55319 -0.51773 1.9484 -1.188 -1.6801 -0.18794 0.75271 2.6168 0.84178 -0.18078 0.60833 -0.18722 -0.18549 -1.5596 0.81284 -0.18764 -0.18755 -0.086865 -0.1863 -1.4867 -0.020241 -0.051064 -0.12442 -0.1674 -0.1891 -0.18035 1.2059
-1.3308 -0.46168 -0.78035 -0.20747 -1.1135 -1.7823 -0.55565 -0.37329 -0.45464 -0.17374 0.24011 -0.19788 1.626 -1.1086 -0.16421 -0.20055 -0.80141 -1.6817 -0.20431 -1.547 -0.26542 -1.1068 -0.88357 1.2725 0.9018 1.7373 -0.088702 1.6601 0.58932 -0.21772 0.41411 -0.67539 -0.90293 -0.2072 -0.30886 -0.20259 -0.21356 -2.4834 -0.85127 -0.20307 -0.20894 1.3244 -0.44046 0.63074 2.6129 0.71384 0.69674 -1.5213 -0.21279 -0.22847 1.195
-1.867 -0.31927 0.98599 -0.28378 0.41671 -0.50139 -0.98833 0.044409 0.22225 0.52452 0.65697 -0.26224 -0.64813 -0.66801 1.6103 -0.27852 1.6325 0.47868 -0.27873 1.1322 -0.28725 -1.1333 0.57642 -0.31613 0.49589 -0.80774 -1.3717 -1.2634 -1.425 -0.27847 1.2088 -1.9868 -0.95741 -0.27317 1.4835 -0.2791 -0.28121 -1.1489 -1.149 -0.27672 -0.28268 0.38325 -0.16987 -0.8843 1.3932 -0.81168 -0.22102 1.116 -0.28174 -0.29109 -1.5771
-1.4444 -0.13005 1.1841 -0.21926 0.050891 0.81766 -0.26537 -0.032065 0.21784 -1.1258 0.086492 -0.24997 -1.7881 -0.72379 -1.3687 -0.22492 -0.78105 -2.3925 -0.21653 1.2012 -0.20543 -0.5272 0.61115 -1.5823 0.23614 1.3159 1.7885 -0.39719 0.29309 -0.22246 1.6796 -1.4944 0.045431 -0.22397 -1.2549 -0.2214 -0.21861 -1.1745 -0.47709 -0.22412 -0.22272 -1.5247 -0.082209 1.2438 -0.91721 1.0501 0.76136 0.02985 -0.21416 -0.20861 -0.97006
-1.64 -0.35731 0.8648 -0.23511 -0.67753 -0.19805 -1.3442 -0.085938 -0.5678 -1.8559 0.26521 -0.2251 -2.1127 0.76847 -1.4502 -0.23086 1.5679 0.033976 -0.23498 0.67409 -0.23586 1.6738 -1.2697 -0.3054 0.93775 -1.1005 -0.42299 -1.6594 0.47917 -0.23164 2.0218 -1.6599 0.0081391 -0.23301 -1.3446 -0.23228 -0.23397 0.39731 -0.43869 -0.23418 -0.23026 -0.89499 -0.4971 0.11796 1.1659 -0.83207 1.5867 -2.0538 -0.23293 -0.23852 1.7949
-0.8222 -0.049733 -1.2237 -0.19091 -0.0718 -0.26397 1.926 0.083334 0.33535 -1.0854 0.3832 -0.25518 -1.4697 1.2097 1.7722 -0.20491 2.1788 -1.1122 -0.18867 -1.2801 -0.16702 -0.80037 1.3968 -1.915 -1.1124 0.44419 -0.53666 -1.798 -0.022124 -0.18728 -0.95746 -0.45379 0.30189 -0.21825 -0.74638 -0.19279 -0.20383 0.48121 -0.82579 -0.19655 -0.20029 0.85996 -0.44397 1.5985 0.76184 1.4562 -0.72706 -1.1091 -0.18294 -0.17922 -2.4313
-1.5018 -0.16874 0.22299 -0.23225 0.67496 -1.0082 0.465 -0.3377 0.048382 -2.189 -0.75501 -0.21267 1.5345 1.5866 -0.020619 -0.22378 -1.0477 -0.92268 -0.22758 -1.296 -0.22607 -1.9599 1.4861 -0.19332 1.1679 -2.0935 -1.1683 1.6314 0.29576 -0.23001 1.8381 1.4601 1.1257 -0.22643 -0.14981 -0.22987 -0.22866 1.1045 -2.06 -0.2291 -0.22445 -2.3784 -0.20022 -1.9959 -0.43872 0.73618 -2.1016 -0.26009 -0.22554 -0.22268 0.75795
-1.0895 -0.28749 1.4273 -0.20789 0.26023 -0.92173 -1.7524 0.29813 -1.0979 0.057723 0.27734 -0.19544 1.0324 -1.0081 1.4776 -0.20926 -0.81465 0.24869 -0.21138 0.72431 -0.21365 -1.0323 1.7055 0.29902 -0.60674 2.1946 0.24074 0.0013254 -1.6334 -0.21357 -2.3324 -0.9621 -0.57303 -0.19971 -1.6225 -0.20927 -0.20433 2.3087 -1.2877 -0.21036 -0.20501 0.47656 -0.80372 0.95751 -1.8063 1.583 -1.2383 -1.0546 -0.20212 -0.22634 -0.25411
-1.0674 -0.28745 -1.6591 -0.11299 0.073543 1.3847 -1.3719 -0.2318 0.10736 -0.73818 -0.80806 -0.10631 -1.8892 -2.101 -0.29867 -0.10579 0.4739 1.8547 -0.10637 -1.7667 -0.12155 -1.7089 0.11129 -2.2979 1.8092 -1.4142 -1.9051 2.6365 -0.40872 -0.11107 -1.5854 -0.26941 0.20077 -0.11513 -1.1717 -0.11422 -0.10799 0.6167 -0.394 -0.11163 -0.10829 -0.72762 -0.012241 1.8478 0.65528 -0.76585 1.2604 1.2688 -0.12551 -0.093838 -0.2849
-0.46408 -0.19479 -0.61099 -0.1327 0.58312 0.6574 0.89035 -1.0202 0.15369 -1.5281 -0.21692 -0.15698 1.0305 -1.274 -0.70462 -0.1484 -1.6685 1.6368 -0.12791 -0.88074 -0.15878 -1.6643 -0.60539 0.64443 0.0020383 2.7879 -0.80351 -1.9744 0.0089377 -0.13323 0.19155 1.1068 0.32102 -0.16465 1.8606 -0.12342 -0.15082 -1.1082 -0.60284 -0.13115 -0.13993 -1.4486 -0.40265 1.7293 -0.50926 -0.47897 -1.0504 -0.15781 -0.14026 -0.13356 -1.9346
-1.2658 0.0072363 2.086 -0.19432 -1.4927 -0.98258 1.3111 0.16217 -0.6183 0.18326 0.38346 -0.20853 -1.3963 -1.6649 -1.6521 -0.1968 -0.86152 0.52158 -0.19653 -0.27633 -0.17027 0.25989 -1.6612 -0.325 -3.105 -1.8468 0.98543 0.085331 0.74038 -0.19286 -1.3044 -0.41948 0.58726 -0.20014 -0.79301 -0.19762 -0.1959 -0.80933 0.49065 -0.19848 -0.1972 0.85077 -0.30476 0.82691 0.18189 2.2554 -1.5367 1.4505 -0.17967 -0.18423 0.58674
-1.059 -0.2547 -2.521 -0.17493 1.7857 0.67023 0.09177 0.093135 -0.25955 0.47994 -0.68178 -0.23017 -1.3737 -1.843 -0.45958 -0.18377 -1.4132 -1.884 -0.1796 1.4258 -0.18126 0.63492 -0.31682 2.8866 0.85503 -1.5139 -1.1245 -0.71306 -0.5271 -0.18141 -1.0129 2.1385 -0.32009 -0.19255 -3.0544 -0.18051 -0.18812 0.65557 -0.36758 -0.18489 -0.19173 -0.64918 -0.47192 0.16109 0.027087 1.6864 1.0011 1.9474 -0.19144 -0.1896 -1.3588
-1.0148 -0.30919 -2.3376 -0.19798 -0.054358 1.834 -1.6769 0.17201 -1.2265 0.12212 0.52786 -0.18245 0.92192 -1.1347 -1.5362 -0.19425 -0.70455 0.84494 -0.19785 -0.024875 -0.20551 1.3385 1.6744 0.52522 0.84142 -0.81249 0.60011 -1.5631 0.64947 -0.1993 -1.3304 -1.2163 0.44443 -0.18961 -1.2923 -0.19708 -0.19374 -1.1094 1.6158 -0.19581 -0.19384 1.061 0.049978 -1.688 -1.1299 -0.19414 -1.9581 -1.469 -0.1918 -0.19443 0.15104
-1.6265 -0.5182 2.215 -0.30644 -0.79488 -2.2586 -1.7321 0.19255 -0.80459 0.46533 0.40651 -0.292 0.46623 0.89911 -2.0539 -0.30407 -0.43989 1.183 -0.31091 0.8786 -0.30709 -2.5857 1.3184 -0.18366 0.96431 -1.635 -0.20834 -0.43087 -1.3199 -0.30974 -0.74727 0.3963 0.36038 -0.30204 0.15631 -0.31031 -0.3051 1.7835 2.2765 -0.30945 -0.3045 0.62774 -0.53204 -0.11604 -2.0104 -1.9166 0.47296 0.30816 -0.29874 -0.31245 0.48642
-1.2247 -0.16632 0.40276 -0.16955 -1.2819 1.1028 -0.99657 -0.47047 0.063153 1.3166 -1.2107 -0.15362 2.0041 0.95043 -1.2049 -0.16503 -1.5343 0.69999 -0.16597 0.54904 -0.15959 -0.83982 -0.18309 -1.2069 -0.002101 -1.4146 -1.4147 -1.4753 0.63974 -0.16611 0.93518 2.3518 0.098154 -0.16034 -1.4182 -0.1705 -0.16374 -1.459 -1.5973 -0.16802 -0.16452 0.46381 -0.47698 -0.95241 1.0499 -0.99049 1.0753 -1.1722 -0.16839 -0.1651 -0.94996
-1.3355 -0.094886 -0.22039 -0.18704 -0.061055 0.76785 1.5528 0.13946 -0.51018 0.23559 0.5009 -0.19805 1.4765 0.53592 -1.0872 -0.18704 0.30283 -2.6287 -0.18656 -0.48031 -0.17887 0.73005 -0.74566 -0.86423 -2.1008 -0.55263 -1.5427 -0.58181 -0.26782 -0.18742 -1.0728 1.0174 0.33151 -0.18814 -0.0050285 -0.18874 -0.18569 0.50802 1.5294 -0.18938 -0.18235 -0.65427 -0.51913 -0.93738 -1.3986 -1.002 2.1508 -2.1217 -0.17994 -0.18328 0.85699
-1.8593 -0.42315 0.38792 -0.23997 0.45589 -0.08499 1.5098 -0.60432 0.36943 -1.5354 -1.0132 -0.22166 -1.594 0.68781 0.39812 -0.22806 0.80632 0.6407 -0.23292 -1.1986 -0.24178 0.73358 0.53435 0.14373 0.50297 -0.21496 1.2284 -0.085157 0.20983 -0.23955 -0.78953 1.5277 -2.9272 -0.23002 1.0177 -0.23963 -0.2341 0.021625 1.4284 -0.23715 -0.23564 -0.19174 -0.025324 -1.3917 0.37432 -0.72615 -1.0576 -1.8829 -0.24613 -0.22224 0.35785
-1.1021 -0.31766 -0.88103 -0.26103 -0.80775 -1.9634 -0.32363 0.0045463 -1.2685 -1.2091 0.075388 -0.23591 0.84578 1.1326 -0.39931 -0.2839 0.41111 1.8463 -0.29265 -1.6506 -0.26809 1.0994 -1.8131 0.0099259 1.0152 0.98712 -1.272 -1.9802 -0.66176 -0.26446 -2.2148 0.56027 0.49916 -0.25191 5.7217e-05 -0.27093 -0.26245 0.92548 1.492 -0.26386 -0.26204 1.4963 -0.42573 -1.5731 2.7276 -1.1695 0.65138 1.2703 -0.27023 -0.33623 -1.2192
-1.8514 -0.38072 -1.3049 -0.29703 -1.9255 2.3955 -0.69118 -0.70302 -0.41408 -0.77231 -0.73882 -0.27618 0.53388 1.1699 0.42084 -0.2833 1.1342 0.83254 -0.2898 1.313 -0.29918 -1.4869 -1.5577 -0.70186 -0.2785 0.67655 -1.8232 1.7151 0.42963 -0.29097 2.5103 -1.461 -1.0447 -0.28467 -0.25921 -0.29188 -0.29243 0.21451 1.5781 -0.29184 -0.30001 1.8855 -0.82279 -0.94119 -1.3704 2.2433 -0.64545 0.51959 -0.33113 -0.30009 0.69855
0.013354 -0.024804 -1.9381 -0.036668 1.4184 -1.345 -0.58868 0.13082 0.37154 -0.95529 -0.41881 -0.050753 -1.7159 1.4078 -1.1926 -0.036673 -1.4844 0.046924 -0.032125 1.8728 -0.036495 0.4486 0.54549 -0.6654 -3.4008 -0.057374 -0.06046 1.8687 0.19298 -0.033808 -0.28399 -0.754 -0.43401 -0.036031 -0.61638 -0.039679 -0.035634 -1.6637 -1.0806 -0.035143 -0.041451 0.26562 -0.39299 -0.91204 0.98249 -2.1322 -0.58713 0.13274 -0.03478 -0.026854 -0.044629
-1.9711 -0.45095 1.1613 -0.30628 1.2258 -0.72829 -1.7451 -0.34166 0.54806 1.2983 0.50746 -0.28906 0.56476 -1.4052 1.9734 -0.30732 -1.5983 1.2724 -0.30775 -2.6247 -0.32162 0.43923 -1.539 -1.1093 0.28731 0.26927 0.99747 -0.40183 1.3437 -0.30587 1.5198 -1.4451 -0.099418 -0.29874 -1.7619 -0.30842 -0.3012 0.68655 -0.3733 -0.3059 -0.2996 -1.4215 -0.31177 -2.0289 -1.4007 -1.2927 0.78188 1.2753 -0.29279 -0.30086 0.72259
-1.3379 -0.15407 -1.0122 -0.25828 -2.6943 0.40978 1.3252 -0.26568 -0.36481 0.033243 -1.0497 -0.26154 1.3533 1.0568 1.3422 -0.25522 -0.0058934 0.82653 -0.25515 -0.18124 -0.25315 -0.42002 1.2063 0.65554 -1.4666 -0.5825 1.9516 0.69614 0.18395 -0.26162 -1.0303 -1.6157 -0.1529 -0.25891 -0.81024 -0.25852 -0.2571 0.3557 -0.40069 -0.25859 -0.25968 -2.5588 -0.62242 -1.1899 1.4553 -0.93367 1.8877 0.59518 -0.26064 -0.25233 0.093609
-1.4608 -0.14361 1.0081 -0.28297 -2.6973 1.37 0.30723 -0.28332 0.6325 1.224 0.60695 -0.26357 -2.3081 1.1462 -0.19492 -0.27818 0.20658 -0.76191 -0.27919 -1.605 -0.28938 1.5597 0.80204 0.78057 0.77521 1.0655 -2.1944 0.094746 0.17835 -0.28327 -1.1438 0.027273 0.57575 -0.27653 -0.47759 -0.28084 -0.27918 -0.84916 -2.0078 -0.28006 -0.27674 1.4582 -0.18023 -1.3692 -1.4513 -1.2772 -0.91401 0.96016 -0.27613 -0.26976 -0.24415
-1.456 0.079295 -1.8346 -0.27451 -1.4436 -1.757 -1.4726 0.18892 0.067003 -0.68576 0.71933 -0.29827 -0.20564 -1.5915 2.683 -0.27294 -1.6133 -0.46325 -0.27142 -0.46041 -0.24992 1.6393 0.21473 0.045001 -0.1917 0.19497 -0.23622 0.29802 0.40204 -0.27661 -0.95113 0.54061 -0.47136 -0.28944 1.6619 -0.27399 -0.27591 -0.29381 1.9381 -0.27961 -0.27549 0.39788 -0.46194 1.6111 -1.2629 -2.1006 -1.1432 0.56303 -0.26585 -0.26249 0.62808
-1.8699 -0.18775 -0.65508 -0.38466 0.39745 -0.73372 0.064269 -1.0808 0.37063 1.4569 0.61931 -0.41466 1.1342 1.4277 -2.1306 -0.39483 2.5622 -0.94753 -0.38011 0.054731 -0.36835 0.85237 -2.5615 0.81258 0.91953 -0.90425 1.4432 0.71795 0.26389 -0.38488 -0.74104 0.62472 0.12112 -0.3912 0.11638 -0.38628 -0.38455 -0.56311 -0.81922 -0.3903 -0.3878 -2.5997 -0.53166 2.367 -1.2807 -1.322 -1.9899 1.5124 -0.39041 -0.37647 0.70994
-1.8252 -0.25727 -1.4669 -0.35159 -0.74639 -0.95573 1.0052 -0.11013 -0.12261 -0.61651 0.11568 -0.34014 0.98146 -1.5731 -1.3808 -0.34475 -1.6788 0.48573 -0.33925 1.1325 -0.33919 0.85886 -0.8796 -0.85344 0.9277 -1.5953 -0.7595 -0.91039 0.43784 -0.33829 0.52042 -1.3978 -0.05212 -0.35009 2.7882 -0.3443 -0.3517 2.2435 -2.3087 -0.3433 -0.3424 1.3737 0.17707 -0.43116 -1.7465 1.1729 1.0898 0.37146 -0.3458 -0.34084 0.82339
