-0.04309 0.016211 -0.036785 0.088022 -0.19847 0.033417 -0.080699 -0.20286 -0.2652 -0.0079277 0.031697 -0.090423 0.011377 -0.18133 -0.22612 -0.1185 -0.17216 -0.23194 -0.075144 -0.0034261 0.020305 -0.046663 0.18715 -0.16482 -0.047395 -0.14355 -0.14926 0.1502 -0.00928 0.040717 0.06383 -0.14551 -0.070893 -0.14135 -0.14288 -0.067105 -0.043074 0.062174 0.1531 0.030335 0.16868 -0.1998 -0.13094 -0.1036 0.077713 -0.10983 0.23293 0.069104 -0.040192 0.00038421 -0.11896 -0.13786 -0.2432 -0.06679 0.066506 0.19126 -0.065946 0.23261 0.080881 0.065719 -0.25118 0.023314 0.0037348 0.038146 0.019929 0.073627 0.086738 0.083054 0.029085 -0.049588 -0.1398 -0.15116 0.11748 0.16598 -0.083452 0.13019 0.061519 -0.055737 -0.21169 0.083308 -0.023687 -0.15579 -0.11174 -0.11232 -0.03515 0.072071 -0.031161 0.13249 -0.093635 -0.095818 -0.21875 -0.16957 -0.058188 -0.12415 0.11538 -0.016027 0.051009 0.011023 0.12666 0.044594 -0.12513 -0.20446 -0.038169 0.011859 -0.14813 0.1011 0.15626 0.019151 0.025826 -0.023886 -0.13803 -0.11427 -0.040496 -0.080819 -0.0060679 -0.059793 0.15141 0.1501 -0.083536 0.0048211 -0.057528 0.10853 -0.0064789 -0.17472 -0.066284 -0.056827 0.03044 0.089169 0.0559 -0.013082 -0.038642 0.011329 -0.13871 0.019341 0.0096793 -0.046971 -0.026333 -0.092947 -0.11066 -0.079596 -0.062976 -0.032876 -0.12073 -0.10314 0.038824 -0.059767 -0.045998 0.033623 -0.029211 -0.11378 -0.1801 0.03929 0.086435 -0.26008 0.029592 -0.01871 -0.0011227 -0.099951 0.17891 -0.12789 0.06128 0.071201 0.057404 0.12099 -0.091821 -0.17185 -0.082048 -0.27772 -0.24634 -0.0078604 0.015291 -0.17407 -0.17554 0.11956 0.19288 -0.030101 -0.076781 0.12183 0.11247 0.22347 0.012811 0.1494 0.030353 -0.061117 0.11718 -0.15302 -0.17795 0.011917 -0.082292 -0.1159 -0.12386 0.067679 -0.078192 -0.089564 -0.18224 -0.18265 -0.19425 -0.11613 -0.25876 -0.056536 -0.23313 -0.27046 -0.097648 0.0048426 0.023006 -0.0050719 0.26186 -0.11705 -0.15949 0.1311 -0.13994 0.077846 -0.12533 -0.14102 -0.073309 -0.17818 -0.3049 -0.12044 -0.089924 0.19659 0.078659 -0.11486 -0.14434 -0.33495 -0.13942 -0.35241 -0.0034751 -0.049403 -0.037823 -0.26612 -0.25667 -0.015596 -0.16189 -0.16351 -0.095847 -0.094294 -0.14249 0.094692 -0.0078858 0.15204 -0.071751 0.14495 -0.016242 0.19002 0.13585 0.10034 -0.055369 -0.11041 0.10934 0.38365 0.080743 0.11395 -0.035025 0.026446 0.068243 -0.19084 0.075522 -0.024882 0.016746 -0.049382 0.038947 0.04382 -0.13668 -0.036054 0.019413 -0.00028204 0.11335 0.23283 0.28173 0.33062 0.07325 -0.10949 -0.05253 -0.046883 -0.0011818 -0.03563 -0.20113 -0.039476 -0.029662 -0.060468 0.017586 0.25671 0.081983 0.011998 0.095162 0.073519 0.052193 0.04853 -0.098251 0.077172 0.021636 -0.22107 -0.24392 0.099732 0.19395 0.17962 0.025116 0.19963 0.22216 0.27814 -0.0037101 -0.094133 -0.028545 0.098991 0.19098 -0.043201 0.0083523 -0.070044 -0.076957 -0.083152 0.18137 0.11475 0.080313 0.090774 0.038984 0.36484 0.13148 0.023026 0.076767 0.18295 0.10382 -0.1781 -0.26783 0.0083066 0.1175 0.020266 0.073572 0.18078 0.16147 -0.10862 -0.030527 -0.068635 -0.16209 -0.011775 0.29161 0.053537 -0.0045555 -0.13588 -0.014026 0.069113 0.18332 0.030866 0.25228 0.13975 0.16378 0.40202 0.36053 0.16305 0.09758 0.063105 0.014643 -0.15396 -0.13391 -0.016333 0.16081 -0.035213 0.046122 -0.17975 0.10124 0.05125 -0.089205 0.041302 -0.022405 0.073389 0.1001 0.021852 0.084071 -0.025118 -0.20485 -0.042438 0.11195 -0.14324 0.020546 0.15966 0.21267 0.11618 0.09752 0.15597 0.1576 0.060574 -0.1303 -0.18898 -0.049492 -0.0024006 0.03912 0.11963 -0.037207 -0.10237 -0.035733 0.014883 -0.084726 0.070211 0.12378 0.1047 0.010842 0.10376 0.15329 -0.076612 0.02684 -0.0052108 -0.05689 -0.12782 0.075713 0.05981 0.1405 0.31561 0.16678 0.2152 0.11599 0.12989 0.14411 -0.013307 -0.18689 0.042134 -0.10092 0.15417 -0.25801 -0.15822 -0.11099 -0.037824 -0.2544 0.091065 -0.11428 0.16627 0.12499 0.015452 -0.010386 0.14743 0.29825 0.24945 0.1775 0.017842 0.19552 0.23409 0.3554 0.27742 0.17229 0.41593 0.32025 0.10895 0.15429 -0.049993 -0.17326 0.28724 0.060217 -0.020558 0.13099 0.12816 0.033848 -0.0033975 -0.096339 -0.06605 -0.094214 0.30851 0.19446 0.11778 0.045274 0.22572 0.15743 0.18161 0.27303 0.18994 0.082083 0.17874 0.30068 0.12488 0.10173 -0.010102 0.22287 -0.10672 -0.047958 -0.22506 -0.18648 -0.196 0.041501 -0.06765 0.08516 0.033349 0.23015 0.031743 -0.15278 -0.14286 0.14042 0.16593 -0.054609 -0.11113 0.089106 -0.045576 0.27208 0.095472 0.14878 0.1913 0.055415 0.33183 0.27783 0.11627 0.23525 0.14226 0.23088 0.12617 -0.050232 -0.15442 -0.059742 -0.12798 0.043742 -0.23317 -0.26522 -0.062982 0.092449 -0.0091365 -0.13851 0.033288 -0.043175 0.022284 0.00067406 -0.0067503 0.14353 0.25445 0.44751 0.08889 0.013445 0.0073935 0.016914 0.086112 0.10192 0.068413 0.19054 0.18382 0.13286 0.1809 0.03567 0.11454 0.13599 0.041893 -0.012296 0.17833 -0.040884 -0.022783 0.025338 -0.1499 -0.053271 0.065783 0.091369 0.11274 0.24953 0.10078 0.070844 0.28055 0.39996 0.11748 -0.099407 -0.038062 -0.034595 -0.085199 -0.068836 0.069903 -0.0091238 0.083218 0.12524 0.17131 -0.13397 -0.14707 0.048897 0.017747 0.081023 -0.17858 -0.13901 -0.022677 0.13107 0.01429 -0.097329 -0.14653 -0.089763 -0.047146 -0.10236 0.11121 -0.015948 0.090244 -0.14021 -0.10348 0.075321 -0.14272 -0.25031 -0.15449 -0.11174 0.21158 -0.14197 0.062683 0.079165 0.11178 0.049579 -0.14289 0.18135 0.057276 0.065999 -0.0905 -0.058429 -0.080006 -0.092685 -0.090302 -0.1523 -0.03407 0.073375 0.027978 0.11451 0.22413 0.1082 -0.077289 -0.24737 -0.2816 -0.21984 -0.32992 -0.095376 -0.15019 0.063268 -0.24276 -0.24498 -0.011173 -0.033255 0.10358 -0.16571 -0.092278 0.07205 -0.030198 0.12444 0.14125 0.15903 -0.058005 -0.0057173 0.096276 -0.095802 -0.013154 0.1012 0.074032 -0.052228 0.0593 -0.027877 -0.26005 -0.25327 -0.35708 -0.43819 -0.33374 -0.20949 0.10267 0.031535 -0.022692 -0.11832 0.27846 0.046074 0.092653 0.059289 0.047503 0.069324 -0.1439 -0.10262 0.16302 0.14983 0.14465 0.049097 -0.07343 -0.10508 -0.08446 -0.11986 -0.13932 -0.22271 -0.029642 0.074986 -0.11181 -0.36953 -0.53169 -0.15047 -0.24797 -0.13142 0.012084 -0.25775 -0.30808 -0.24402 0.13249 -0.026366 0.10867 -0.17582 -0.16362 -0.017041 0.090737 -0.26038 0.036327 -0.17975 -0.10581 -0.14461 0.0031091 0.034856 0.043696 -0.069109 -0.11589 -0.15051 -0.054322 -0.051104 -0.19155 -0.18463 -0.32343 -0.24922 -0.16144 0.016246 0.0019306 -0.16613 -0.20546 -0.21771 0.005414 0.10192 0.23314 0.017467 -0.043899 0.072523 0.1158 -0.039775 0.095272 -0.046378 0.11631 0.027569 -0.067048 0.22102 -0.093204 0.10561 -0.13695 -0.26465 -0.127 -0.24771 -0.21964 0.047132 0.062601 -0.099464 -0.092746 0.071704 -0.024883 -0.073075 -0.2469 -0.1149 -0.0030586 0.10184 0.077269 0.065706 -0.12515 -0.041 0.038034 0.098833 0.19032 0.20485 -0.0481 -0.060721 -0.041727 -0.1267 0.042962 0.28562 0.037311 0.04116 0.16288 -0.18703 -0.050763 0.11124 -0.007048 0.18541 0.021018 0.028783 0.059916 -0.11129 -0.096713 -0.088061 -0.059933 0.1912 0.090526 -0.13744 -0.18117 -0.12008 -0.14339 -0.058355 0.028602 0.069767 -0.057741 -0.0068579 0.043061 0.027541 -0.018252 0.030196 -0.023918 -0.15193 -0.020644 -0.26081 0.14389 0.077161 0.12342 -0.099178 -0.11955 0.0094723 0.018227 0.068427 0.084408 -0.0029468 0.10039 0.2428 -0.096904 -0.14628 -0.11076 0.093335 0.061883 0.099007 0.072852 0.041134 -0.24827 -0.076619 0.077864 -0.027349 -0.16448 -0.16721 -0.18555 -0.071397 -0.029064 -0.093291 -0.10657 -0.14944 0.096368 0.090712 -0.03829 0.070417 0.046569 0.030532 0.12215 0.029711 -0.12925 -0.14749 -0.1398 -0.048867 -0.24655 0.01856 0.087798 0.031676 -0.071058 0.023975 0.028426 0.16855 0.20534 -0.05713 -0.23216 -0.24951 -0.21706 -0.24903 -0.27383 0.15888 0.07779 0.048765 -0.078671 -0.056957 0.078514 0.18088 0.11428 0.2299 -0.0025672 -0.042145 0.077662 0.16424 -0.13611 -0.0040244 0.05551 -0.045398 0.16735 0.14666 0.093431 0.18934 -0.054635 0.026069 0.1875 -0.089193 -0.091776 0.052566 -0.05087 0.094396 -0.0027028 -0.15295 -0.03091 0.10391 -0.16629 -0.10463 0.043248 -0.00058446 -0.15688 -0.10461 0.10411 0.012844 0.098724 0.15186 0.36519 -0.0080004 -0.089127 -0.083562 0.25298 0.26298 0.00077685 0.0026388 -0.14249 -0.061537 0.11397 -0.069748
-0.17498 -0.26793 -0.35692 -0.28436 -0.12441 -0.089011 -0.23716 -0.12096 -0.26565 -0.20079 -0.12198 -0.041553 -0.064137 -0.071319 -0.077596 0.21723 0.24005 0.03032 -0.12169 0.082425 -0.041812 0.0089487 -0.098971 -0.34374 -0.048413 0.14071 0.0010532 -0.10377 -0.02721 0.073084 -0.21086 -0.0084583 -0.050751 -0.12607 -0.1112 -0.21433 0.1607 0.040061 0.36925 0.2736 0.23445 0.22666 0.057865 0.20529 0.39775 0.44854 0.50035 0.18033 0.28696 0.19475 0.11537 0.0060143 -0.018326 0.23308 0.23562 0.22522 0.10346 -0.16432 0.14721 -0.18512 -0.012831 0.16905 0.16548 -0.11914 0.026662 -0.031171 0.16418 0.018655 0.2347 -0.00083392 0.027085 -0.011921 0.21887 0.15399 -0.011728 0.024012 0.16723 0.10052 0.29805 0.30159 0.16142 0.16731 -0.024707 0.12805 0.087921 0.025744 -0.0016154 -0.079079 -0.049479 -0.12716 -0.086012 -0.095586 0.0052981 -0.019097 0.17277 0.18926 0.10799 0.14472 -0.14008 0.038309 0.084216 0.063386 0.022442 -0.024458 0.16126 -0.080254 0.071651 0.16934 0.17328 -0.0056651 -0.10915 0.20661 0.080405 0.066375 -0.017366 0.021739 0.0057311 0.15864 -0.074985 0.087541 -0.16644 -0.1018 0.0010206 0.12763 0.30093 0.21518 0.026547 -0.023323 0.0074736 -0.11151 0.067585 0.045813 0.02248 0.069726 0.063732 -0.16499 0.035663 0.099178 0.13099 0.087461 0.013339 0.067808 0.096832 0.13345 0.17963 -0.17635 0.049209 -0.028938 0.061148 0.10208 -0.22869 0.072613 -0.015927 -0.14133 0.080366 -0.036969 -0.048505 -0.0034204 0.1327 -0.064363 0.14339 0.21136 0.22004 0.042737 0.10409 -0.16713 0.084299 0.1694 0.14501 0.11443 0.19348 -0.010792 0.088889 -0.022064 0.0022886 -0.16816 -0.032901 0.20097 0.16947 0.27226 0.15391 -0.045625 0.24632 -0.19691 0.079584 -0.090462 0.0024257 -0.030235 0.0096233 -0.18004 0.15634 0.22019 0.15536 0.072709 0.057598 -0.12508 -0.19138 0.26299 0.3551 0.035271 0.0013204 0.004224 0.054245 0.062972 0.25488 0.27967 0.22318 0.20938 0.017268 0.24329 0.085602 -0.21644 0.082383 0.076913 -0.24017 -0.003552 -0.09104 0.0021927 -0.12789 -0.024216 0.057684 0.10257 -0.11439 0.15392 -0.15351 -0.044103 -0.23184 0.035018 0.004489 0.0055288 -0.032578 -0.21993 0.19128 -0.026995 0.12943 0.25891 0.10584 0.35949 0.11853 0.075418 0.33141 -0.048969 0.058898 0.11386 -0.14919 -0.16185 -0.21879 0.05305 0.19585 0.010479 0.21096 -0.0471 -0.20293 -0.080693 -0.021957 -0.28005 -0.010823 -0.13339 -0.0029558 -0.061167 -0.001611 0.10664 0.079927 -0.083885 -0.011822 0.076877 0.17034 0.18228 0.056707 -0.068261 0.0087027 -0.053329 0.010324 0.028462 -0.10452 0.059453 0.024307 0.013673 0.14476 0.020361 -0.083841 -0.1512 -0.044057 -0.17195 -0.047435 -0.031194 -0.036073 -0.23308 0.1157 0.32279 0.019925 -0.036352 -0.020326 0.07359 0.091715 0.18748 0.37032 0.43978 0.10584 0.10407 0.16269 -0.054996 0.072388 0.015721 0.060372 -0.0018383 0.14191 0.034039 0.14928 -0.17105 -0.21683 -0.25796 -0.047306 0.13303 -0.27965 -0.15859 0.11315 0.0071484 0.12064 0.07428 0.01617 -0.24131 -0.02152 0.24493 -0.15056 -0.078916 0.049499 0.27142 -0.11398 -0.043682 0.27085 0.11521 0.27083 0.15661 0.080919 0.18002 -0.0034041 -0.078804 -0.04726 0.1542 -0.12459 -0.15094 0.22584 -0.086627 -0.064507 0.10704 -0.026924 0.071274 0.0040924 -0.059323 -0.096419 -0.044182 -0.040505 0.030005 -0.092843 0.1195 0.099038 0.067528 0.0026116 0.12692 0.034704 0.21397 0.49939 0.13232 -0.11284 0.0055668 0.10881 -0.051758 -0.03548 0.029926 0.020913 -0.039194 0.074084 0.11163 -0.010678 -0.12846 -0.036722 0.19185 0.075103 0.024961 -0.0058331 -0.14047 0.12238 0.16118 0.022842 -0.15536 -0.013288 -0.018579 0.031737 -0.03385 0.049053 0.19997 0.15301 0.10386 -0.06577 0.25763 0.31702 0.13491 0.11205 0.21748 0.22559 -0.092486 -0.013071 0.10027 0.010379 -0.025741 -0.089972 0.10229 0.067489 0.20592 0.062566 0.071521 0.064012 0.025066 0.022912 0.078171 -0.04806 -0.0568 -0.18264 -0.087566 -0.0030185 0.15862 0.30301 0.12189 -0.18467 0.12099 -0.14766 -0.18896 0.014088 -0.13578 0.025047 -0.3507 -0.031959 0.017465 -0.13527 0.051329 0.29311 0.087475 0.17267 0.03996 -0.078471 -0.010561 0.0087636 0.25629 0.060341 0.00088253 0.020056 -0.027345 0.066748 -0.24317 -0.27662 0.075931 -0.022953 0.15333 0.038742 0.085129 -0.027899 -0.10506 -0.11282 0.042246 0.04576 -0.14461 -0.20301 -0.061071 0.059813 0.14147 0.13083 -0.19054 -0.029046 0.039097 0.0030593 0.042355 -0.11579 0.16599 -0.067217 -0.017082 -0.11199 0.073205 -0.040698 -0.36168 -0.13108 -0.046636 -0.10077 -0.25452 -0.23162 -0.036708 0.0080556 -0.33451 -0.2639 -0.023642 -0.052805 -0.11568 -0.26246 -0.27795 -0.099542 -0.05329 0.1549 -0.027295 -0.049299 0.13743 0.25284 -0.24908 -0.036918 -0.028696 -0.1878 0.0022057 -0.081529 -0.14133 -0.10561 -0.092361 -0.12237 -0.042344 -0.20399 -0.11546 -0.32592 -0.13511 -0.1905 0.15099 0.069305 -0.26145 -0.064749 -0.2632 -0.17365 -0.03688 0.20974 0.096051 0.04977 0.058873 -0.14446 0.14098 -0.082482 -0.11573 -0.21292 -0.16614 -0.14237 -0.095987 -0.15347 -0.12736 -0.17495 -0.20951 -0.19708 -0.034191 -0.00098785 -0.13874 -0.10472 -0.14991 -0.066569 -0.31984 -0.084688 0.21732 0.057654 0.02759 -0.10137 -0.049862 0.20054 0.022432 -0.20018 -0.13349 -0.1239 0.02467 -0.15761 -0.14412 -0.10301 -0.1134 -0.05229 0.025892 -0.071531 -0.052581 -0.23767 -0.056453 -0.020414 -0.0771 -0.25944 -0.23116 -0.04732 -0.2098 -0.028198 -0.33655 -0.25315 -0.11576 -0.027891 -0.1701 0.055719 0.22897 0.045317 -0.23204 -0.32195 0.051477 -0.16255 -0.065787 -0.37163 0.085167 -0.083098 -0.14426 -0.23621 0.28365 -0.14572 -0.2976 -0.024315 0.10311 -0.1372 -0.14802 -0.19701 0.19398 0.022767 -0.046233 0.027951 -0.11399 -0.095975 -0.21312 -0.15584 -0.080185 0.087739 0.10161 0.044522 -0.19957 -0.038367 0.20344 0.12039 -0.054458 0.059876 -0.17023 -0.03245 -0.12443 0.033755 -0.010533 -0.049639 -0.15107 0.09164 0.16649 -0.0041329 -0.36322 -0.22888 0.046317 -0.1626 -0.00061107 -0.11636 -0.38866 -0.30322 -0.014593 -0.26948 -0.043583 -0.047888 -0.26422 -0.19971 -0.1152 0.023176 0.085281 0.06301 0.25248 0.054315 -0.046226 0.19514 0.052552 -0.23577 -0.16289 0.076563 0.082045 0.17727 0.28905 0.24245 -0.30662 -0.016883 -0.21209 0.091899 0.18696 0.10054 -0.13396 -0.17863 -0.14246 -0.26551 0.02768 -0.37589 -0.46887 -0.31089 -0.12666 -0.038514 -0.0068326 -0.029836 0.15019 0.18702 0.094028 -0.052871 0.16051 -0.15837 -0.050334 0.040294 0.16446 0.096686 0.37352 0.22959 -0.098266 0.0051824 -0.11393 -0.16886 0.010398 -0.18938 0.01999 0.095206 -0.28495 -0.063797 -0.1351 -0.14229 -0.40691 -0.09815 -0.11944 -0.11332 -0.1798 -0.059708 -0.18784 -0.14744 0.0023822 -0.1129 -0.074313 -0.19259 -0.033678 0.073867 -0.061967 0.16639 0.14609 -0.057579 -0.0097056 0.083492 0.14666 -0.059154 0.22798 -0.041833 0.2245 -0.1475 -0.15416 0.13213 0.04575 0.010452 -0.32352 0.092688 -0.08675 -0.12227 -0.19816 -0.13667 -0.18689 -0.16366 -0.049341 -0.19638 -0.052349 -0.10614 -0.080889 0.048316 0.081562 0.085345 0.066955 -0.093284 0.05389 0.14658 0.063772 -0.042154 0.11288 0.043066 -0.054427 -0.16388 -0.11461 0.069831 0.023841 -0.1501 -0.20732 -0.039877 0.1707 -0.23022 -0.12848 -0.062392 -0.19783 0.018593 -0.076853 -0.14851 -0.13712 -0.13591 -0.16082 -0.030225 0.10948 0.034726 0.10231 -0.033679 0.31669 -0.082223 0.11705 -0.18268 -0.055939 0.089078 0.12097 -0.13518 -0.17802 0.1998 0.045248 -0.12413 -0.27067 0.0075087 0.082534 0.081219 -0.1535 -0.41508 -0.14044 -0.058593 -0.13135 -0.16809 0.17215 0.18116 0.22708 0.067395 0.13906 -0.072681 0.011685 -0.1236 0.075588 -0.065863 0.0020061 0.035095 -0.12346 -0.056082 -0.0042045 -0.082893 0.038915 0.30256 0.023095 -0.046018 0.13341 0.18117 -0.070954 0.057101 -0.028699 -0.0094576 -0.040226 0.17223 -0.11877 0.081994 -0.16782 0.011115 0.069566 -0.10424 -0.12939 -0.027152 0.0083454 -0.14236 0.14896 0.20359 -0.0054038 -0.00037782 0.0466 0.23943 -0.084471 -0.044234 0.014456 0.020522 -0.027951 -0.019069 0.085311 -0.15342 -0.14311 0.075664 -0.12948 -0.0074089 -0.18341 -0.069214 -0.15973 -0.085378 0.001686 0.11105 0.17373 0.08053 -0.028802 0.057059 -0.0035606 -0.13277 0.059792 0.2584 0.020259 0.15739 0.21924 0.19875 -0.039727 -0.10152 -0.16939 0.13028 0.27604 0.15316 0.12909 0.15412 0.0061225 0.04704 -0.037545 -0.067783 0.061766 0.003323 -0.11491 0.015624 -0.029877 -0.0060071 0.15005 -0.047064 -0.14022 -0.0049967 -0.023981 -0.23143
0.41456 0.13581 0.12478 -0.16461 -0.20578 0.067433 -0.063358 0.096756 0.28014 0.0011853 -0.075076 -0.16853 -0.040282 -0.055212 -0.18806 -0.087846 -0.093054 -0.29137 -0.62288 -0.33592 -0.19568 -0.27898 -0.46087 -0.15486 -0.1214 0.271 0.33041 0.257 0.23137 0.33182 -0.15017 0.038155 0.069904 0.098951 -0.46055 0.024035 -0.0060623 0.032352 -0.10304 -0.02583 0.023557 0.18527 0.2418 0.33429 0.35762 0.31233 0.016287 -0.12485 0.05086 -0.096951 -0.069091 -0.017872 -0.020114 0.23717 0.04693 -0.056872 0.2666 0.054406 0.15175 0.69827 0.36033 0.0090647 0.22699 -0.036439 -0.299 -0.018976 -0.05276 0.20304 -0.099244 -0.22549 -0.10984 -0.027987 0.038791 0.3206 -0.11527 -0.24722 0.088028 0.12488 0.062804 -0.31737 -0.16104 -0.090414 0.018525 -0.1639 -0.16584 0.14826 0.094779 0.094202 -0.0045789 0.28805 -0.00043291 -0.081976 -0.18879 0.064828 -0.125 -0.077049 0.12142 0.02458 0.010467 0.013725 -0.096434 -0.10544 0.014276 -0.05739 -0.079207 -0.3224 0.041379 0.25121 0.17201 0.11652 -0.22607 -0.12309 -0.22812 -0.0051344 0.0020381 -0.081379 0.34474 0.22822 0.20078 0.26659 -0.20595 -0.26532 -0.085599 0.066535 -0.042547 0.093761 0.0027182 -0.21793 -0.028574 -0.028502 0.24463 0.24152 -0.13524 -0.1174 -0.27715 -0.084293 -0.0621 -0.023137 -0.032421 -0.366 -0.018713 0.20734 0.51337 0.16082 -0.067419 -0.051216 0.19915 -0.10994 0.1034 -0.10125 -0.66942 -0.052474 -0.10162 -0.20395 -0.17685 -0.14481 -0.19741 0.15806 -0.01524 0.057985 0.13868 0.27299 -0.16097 -0.19615 0.3027 0.17447 0.20524 0.084889 -0.12631 -0.0084291 0.016217 0.32932 0.1338 0.27111 -0.068118 -0.034593 -0.12573 -0.15469 -0.028193 -0.068431 -0.28921 0.24297 -0.058235 -0.061812 0.045697 0.15174 0.15878 0.011381 -0.13617 -0.044278 -0.12781 0.10937 0.1236 0.27317 0.029577 0.096714 -0.098963 -0.15443 -0.16559 -0.027445 -0.11738 -0.0038454 0.069401 -0.069442 -0.16118 0.080515 0.11308 -0.17646 -0.22114 -0.36882 -0.38947 -0.078133 0.0093937 -0.039047 0.05552 0.28435 0.069973 0.04976 -0.021029 0.015322 0.11716 0.22193 0.11904 -0.0044081 0.011197 0.17221 -0.06605 -0.075379 0.16584 0.16857 0.15413 -0.0051653 -0.20148 -0.06865 0.3376 0.17419 -0.095758 0.3255 0.15289 -0.21466 -0.30621 -0.14543 0.053332 0.077969 0.077672 -0.1474 0.012361 0.14218 -0.13632 -0.017314 0.35434 0.14517 0.069648 -0.13446 -0.10094 -0.020097 -0.088657 0.023888 0.15329 0.024353 0.27354 0.3601 0.081536 0.33689 -0.059137 0.030484 0.12915 -0.18054 -0.097041 -0.59057 -0.36007 -0.022203 0.074147 0.046108 -0.12544 -0.24257 -0.103 -0.18762 0.068296 -0.12621 0.33248 0.050525 -0.36897 -0.099291 0.026784 -0.062624 -0.11875 -0.10034 -0.011436 0.21041 0.43535 0.35427 0.33842 0.12523 0.24894 0.21747 -0.1405 0.11863 -0.0061755 -0.46516 -0.015605 -0.074511 0.067684 0.097124 -0.13559 -0.1197 -0.22203 -0.10704 0.19723 -0.0080801 -0.029662 -0.48878 -0.32756 0.11676 -0.0046025 -0.092611 0.041458 0.054208 0.13378 -0.1848 0.30468 0.25652 0.10833 0.2304 0.080888 0.2962 -0.089836 0.13536 -0.16203 -0.13 -0.16605 0.035126 0.13853 0.086029 0.026415 -0.12562 -0.21334 -0.22634 0.13517 -0.00043373 -0.29792 -0.2261 0.12415 0.053667 -0.18343 -0.20806 -0.37658 0.026104 0.26419 0.017407 0.050892 0.14812 0.028944 0.045281 0.15239 -0.19148 0.101 0.50854 0.15185 -0.10615 0.14042 0.074218 0.064331 0.28328 -0.063807 -0.17713 -0.18297 -0.022661 0.0085289 0.097743 0.020263 0.072571 0.035446 0.017958 -0.1253 -0.23043 -0.040098 0.082561 0.51884 0.26684 0.38055 0.038183 0.23243 0.3876 0.17483 -0.07292 0.011353 0.36876 0.020126 -0.033451 0.10787 -0.017984 0.10176 0.3414 -0.040352 -0.24831 -0.11671 0.45887 -0.019555 0.1369 0.042153 -0.14758 0.27274 0.0084313 -0.1997 -0.20975 -0.018479 0.015466 0.15685 0.28322 0.031491 -0.12163 0.050648 0.061426 -0.049306 -0.080824 -0.0099341 0.24099 -0.017501 -0.14267 -0.035499 -0.02369 0.050466 0.3608 -0.062224 -0.011241 0.055655 0.10267 0.12927 -0.08864 0.043491 -0.28681 -0.13737 -0.00017528 -0.47258 -0.14726 -0.32235 0.027852 -0.30865 -0.12081 0.031782 -0.24185 0.20339 -0.20103 -0.05658 0.027238 0.21006 -0.12585 0.14866 0.076738 -0.062246 -0.025459 0.087668 0.061761 -0.30616 0.12477 -0.16271 0.0047264 0.038446 -0.3357 -0.16462 -0.14085 0.075136 -0.067438 -0.48741 0.044914 0.060984 0.019078 -0.044522 -0.042239 -0.012045 -0.27762 0.049105 0.33525 -0.065017 0.016123 0.29331 0.17425 0.14914 0.058846 0.013262 -0.17393 -0.026596 -0.0097612 -0.022805 0.17889 -0.11339 0.044973 -0.22671 -0.12682 -0.21032 -0.059668 0.074919 -0.040305 -0.019236 -0.048708 -0.075682 0.39639 0.05561 -0.2573 -0.24399 -0.35225 -0.00016785 0.47421 0.068091 -0.032087 0.08884 0.084278 0.11201 0.18889 -0.026193 -0.36801 -0.32147 -0.015002 0.038286 -0.097645 0.18769 0.13195 0.27314 -0.054794 -0.089961 -0.29876 -0.1833 -0.21677 0.042431 0.23914 0.14761 0.16854 0.20116 -0.028011 0.10263 -0.21065 -0.089898 0.17817 -0.037529 0.016284 0.22763 0.097081 0.23925 0.15763 0.069981 -0.39081 -0.14278 0.0060776 -0.10176 -0.041393 0.21403 0.12407 -0.080198 0.15291 0.061358 -0.12314 -0.15011 -0.15908 0.1191 -0.21373 0.032429 -0.37931 -0.030442 -0.021796 0.22053 -0.091869 -0.012932 -0.098574 -0.14014 0.013522 0.01592 -0.12696 0.073302 0.10727 0.019804 -0.45695 -0.3074 -0.061529 -0.090042 0.063719 0.082428 -0.15262 -0.13478 0.084212 0.056394 -0.23986 0.17452 -0.066542 0.072666 -0.12038 -0.21686 0.083623 0.11561 -0.030481 -0.017505 -0.14051 0.087168 0.19695 0.051271 -0.14081 0.24033 -0.13952 0.3074 0.22799 -0.057519 -0.25353 -0.036535 -0.16922 -0.27672 -0.28894 -0.18815 -0.019632 -0.097984 -0.044348 0.10005 -0.16129 0.030205 0.26068 0.51805 0.098293 -0.31742 -0.035076 0.082712 -0.071392 0.021062 -0.015468 0.32376 -0.043177 -0.14901 -0.072488 0.12968 0.19093 0.31365 0.068435 -0.16807 -0.20641 -0.23285 -0.1147 -0.15913 -0.28678 -0.18611 -0.13413 -0.1343 -0.1023 -0.30003 -0.2712 -0.23472 0.04083 0.056849 -0.043607 0.050503 -0.32716 0.13404 -0.2385 -0.19434 -0.17128 0.16204 0.064337 -0.0018364 0.070621 0.069178 0.045185 0.34873 0.11624 0.037665 -0.044227 -0.007152 -0.041682 0.002185 -0.31241 0.052186 -0.20927 -0.097729 -0.37491 -0.41446 -0.13164 0.11119 0.39109 -0.11903 -0.43951 0.10583 0.071342 0.057963 -0.33689 -0.31345 -0.1938 0.25049 0.035012 0.12783 -0.026688 -0.05265 0.10072 -0.083341 0.1087 0.18859 -0.16669 0.12368 0.099053 0.027171 0.047181 0.18445 0.10824 -0.21981 -0.26055 -0.28266 0.042381 -0.10624 -0.034624 -0.21532 -0.30678 0.067267 0.18696 -0.066054 -0.13363 0.056746 -0.0042213 0.087613 0.22033 -0.021903 0.055917 -0.17979 0.2955 0.19779 0.060022 0.19009 0.023836 0.13072 -0.40779 -0.07846 0.18661 -0.016031 -0.19836 0.15944 -0.077901 0.033334 0.049428 -0.010043 0.046602 -0.41647 0.095831 0.14515 -0.0052618 -0.055975 -0.26991 -0.11907 -0.049588 -0.033477 -0.051592 0.061579 0.024073 0.12931 0.11816 0.23194 0.19578 0.29993 0.36654 0.41154 -0.015487 -0.012576 0.40797 0.17465 0.018974 0.088687 -0.11233 -0.19181 0.054934 0.16655 -0.51414 -0.073444 0.070087 0.14765 -0.16401 0.028016 0.035357 0.15448 0.15571 0.045332 0.037275 0.23216 -0.063073 0.014636 0.19678 0.43599 0.015452 0.35174 -0.033025 0.15454 0.17474 -0.079447 -0.10504 -0.016355 0.19854 -0.022117 -0.21609 0.075089 -0.22462 -0.020787 -0.2557 -0.10027 -0.16405 -0.12524 -0.11239 0.27183 0.10097 -0.054688 0.051649 -0.044881 -0.14821 0.097291 -0.20359 0.21312 -0.11414 -0.0075608 -0.019188 0.056393 0.12359 0.16777 0.16973 0.016498 0.011596 0.048872 0.061817 -0.13628 -0.040226 -0.025225 -0.20807 -0.047535 0.2202 0.40595 -0.016504 -0.12276 -0.056147 -0.037963 -0.18038 0.027272 0.031634 -0.065358 0.0084892 -0.048429 0.055323 0.1261 0.37797 0.10891 0.20285 0.24212 -0.74 0.077624 0.03491 0.11664 -0.12545 0.03072 0.14623 0.14644 0.31009 0.055535 0.12704 -0.062208 -0.091388 -0.0050237 0.22091 0.087369 0.0063395 -0.2386 -0.42602 0.037378 0.063345 0.12513 0.10122 -0.22533 -0.23492 0.00023666 0.0081592 0.082737 0.17379 0.058974 -0.57322 -0.41554 -0.11423 0.046319 0.055357 -0.11153 0.010892 0.029732 0.06671 -0.16021 -0.17471 -0.30139 -0.16392 -0.19861 -0.046731 -0.39197 -0.57497 -0.43362 -0.35129 -0.214 0.12228 0.20503 0.14352 -0.018853 0.20381 0.19831 0.0948 0.14944 0.19418 0.26517
-0.42428 0.19287 0.10269 0.2884 0.045899 -0.012544 0.067162 0.26593 0.046507 0.15659 0.28932 0.096296 0.12754 0.030127 0.24477 0.0015133 -0.016977 0.020332 -0.059617 -0.14432 0.23535 0.36574 0.41612 0.15465 0.18303 0.19897 0.10619 0.026494 -0.06717 0.22077 0.29931 0.29256 0.13119 0.12923 0.12803 0.27909 0.11421 0.056011 0.25355 -0.020495 0.092449 0.15172 -0.1074 0.042128 -0.028296 -0.1916 -0.34238 -0.026003 0.22149 0.11864 0.27868 -0.035002 0.25084 0.1751 0.089967 0.097242 0.42058 0.22627 0.16884 0.21343 0.3384 0.15867 0.034199 0.24117 0.11352 0.11848 0.1706 -0.042148 0.007231 0.061899 0.045414 0.14831 0.016608 -0.081741 0.21509 0.0046064 0.044423 0.24831 -0.024159 -0.10054 0.036151 0.16947 -0.060378 0.17973 -0.027009 0.11183 0.41646 0.39166 0.18264 0.30049 0.2707 0.18249 0.19296 0.079524 0.20459 0.31217 0.25745 0.024005 0.16531 0.034503 -0.080731 0.059194 0.13823 -0.11182 0.044613 -0.037796 0.024554 0.011282 0.059747 0.051108 0.086436 -0.023154 0.001214 0.010439 0.074019 -0.091241 0.11866 -0.078103 0.012067 -0.035448 0.24462 0.13853 -0.061252 -0.033623 0.087538 0.12154 0.17792 0.21577 0.29319 0.26227 0.30189 0.11729 0.1087 0.084396 0.013204 0.094907 0.053959 -0.03246 -0.24423 0.1254 0.078074 0.16708 -0.016141 -0.030836 -0.022118 -0.10511 0.16398 -0.05966 -0.18137 0.16117 0.026612 0.028022 0.1099 -0.085274 0.092263 0.18624 0.019933 0.12605 0.17089 0.072871 0.10817 0.11993 0.25815 0.24553 0.17139 0.04951 0.077079 -0.037565 0.26351 0.13867 -0.02653 0.01936 0.00299 -0.15381 -0.2218 0.061964 -0.038841 0.0010769 0.029016 0.44933 0.061421 -0.068912 0.17399 -0.04366 -0.016976 -0.062698 -0.20799 0.021804 0.099765 0.064827 0.17424 -0.07583 0.27873 0.19562 -0.041009 0.1129 0.10221 0.097185 0.22537 0.17166 -0.13884 0.47436 0.16152 0.18726 0.12127 0.27719 -0.0028332 0.028317 0.21047 0.4641 0.016746 -0.14857 -0.082618 0.20535 0.008242 0.030523 -0.2618 -0.049207 -0.046702 0.16884 -0.083395 0.10798 0.2678 0.18739 0.1291 0.21884 0.050882 0.15671 -0.046012 -0.12377 -0.015871 0.18883 -0.119 0.11815 0.012743 -0.003693 0.15053 0.13936 0.45726 0.21487 0.33803 -0.16088 -0.23338 -0.090448 -0.32435 -0.49357 -0.15782 -0.059972 -0.22649 0.065588 0.14839 -0.0025729 0.021909 0.059843 0.037754 -0.035638 0.17276 0.11379 -0.01909 0.027405 -0.061979 -0.045241 0.0056467 0.022899 -0.071888 0.056826 -0.098192 0.11488 -0.087672 -0.33761 0.028693 -0.2588 -0.35383 -0.14725 -0.11198 -0.15701 -0.22377 -0.026161 -0.40318 -0.18387 0.053452 -0.11549 -0.039971 -0.053881 0.22483 0.13083 -0.12797 -0.21226 -0.27728 -0.076705 -0.17665 -0.0053638 -0.063663 -0.23019 -0.037407 -0.12539 -0.063157 -0.093727 0.071433 -0.054781 0.094427 -0.16031 -0.0037444 -0.052309 0.063095 -0.15151 -0.28991 0.12769 -0.014822 -0.080897 -0.26592 -0.25054 -0.15488 -0.1275 -0.13934 -0.10186 -0.23201 -0.15209 -0.099599 0.039097 -0.053796 0.13315 -0.2831 -0.17944 0.025214 0.12607 -0.038719 0.082552 0.049059 0.2231 0.1798 0.078285 -0.089683 -0.053049 0.10373 -0.33035 0.091011 0.2346 0.063669 -0.046367 -0.068628 -0.09647 -0.11098 -0.17344 -0.14895 -0.017647 -0.041121 0.26958 -0.13811 0.22063 -0.090353 -0.055448 -0.35679 -0.023908 0.17402 0.21681 0.17719 0.25006 0.049344 -0.086777 0.23144 0.11389 -0.0036726 -0.18518 -0.13825 0.002545 -0.0036522 -0.076542 -0.19952 -0.096649 -0.31582 -0.076415 -0.12499 -0.15107 -0.12094 -0.21466 -0.05488 0.36555 -0.17068 -0.075852 -0.036451 -0.22208 -0.24123 0.11972 -0.028866 -0.017307 0.023086 0.14616 0.071286 0.13989 0.24882 -0.016771 0.029438 0.0053872 0.10836 0.38309 0.12401 -0.052033 -0.0019699 -0.18011 -0.22179 -0.085794 -0.20608 -0.10954 -0.052838 0.14093 0.12178 0.082099 -0.14821 -0.26989 -0.27803 -0.033285 0.0032156 -0.065427 0.040978 0.096105 -0.13214 0.095364 0.025421 0.26187 0.1432 0.027917 0.096963 0.16185 0.3783 0.2113 0.10822 0.1419 0.023122 -0.2227 -0.25278 -0.050065 -0.28309 -0.050241 0.27256 0.12728 -0.070081 -0.16791 -0.045408 -0.16638 -0.19995 0.072801 0.081773 0.28367 -0.074582 -0.053253 -0.04023 0.11523 0.004824 0.079014 0.020711 0.06132 0.17103 0.19253 0.25216 -0.066427 -0.14702 -0.20424 -0.18252 -0.31009 -0.24669 -0.053121 -0.17594 0.032042 -0.083846 0.011496 -0.2431 -0.10555 -0.2452 -0.096782 -0.11978 0.044892 0.15093 0.060758 -0.14552 -0.19363 -0.20931 0.022586 0.032073 -0.1343 0.074283 0.24327 0.12662 -0.059968 0.016237 -0.11595 -0.091558 -0.070155 -0.27172 -0.24905 -0.097828 -0.084981 -0.13326 0.065373 -0.00044222 0.16572 0.059757 0.092053 0.12222 0.11462 -0.20337 -0.013816 -0.076029 -0.1508 -0.014039 -0.0086571 -0.10067 0.11702 0.13743 0.011703 0.23876 0.086047 0.097489 0.18023 -0.015286 -0.10652 -0.10208 -0.10052 -0.19583 0.13444 0.060065 -0.0042198 -0.2138 0.13216 0.219 0.3124 0.046815 0.26364 0.31894 -0.0057815 -0.31146 0.067276 -0.20342 0.06605 -0.15588 -0.09969 -0.12772 0.16603 0.060585 0.32219 0.30375 -0.10322 -0.029197 0.23168 0.029073 0.071433 0.032332 0.03723 -0.091242 -0.052357 0.097229 0.072485 -0.26271 0.040455 -0.0056584 0.1101 0.097947 -0.16462 0.1722 -0.12257 -0.095338 -0.0047606 -0.046959 0.063345 -0.07583 -0.10295 -0.12552 0.087351 0.064411 0.045953 0.21847 -0.044992 4.5905e-05 0.11147 0.019165 -0.031635 0.069882 0.082587 -0.1849 0.001057 0.018101 -0.13223 -0.014253 0.17409 -0.066647 -0.23024 0.33951 -0.04908 0.067716 0.068765 -0.1346 -0.28686 -0.035646 0.132 0.060219 -0.18362 -0.11869 -0.010051 0.074753 0.043618 0.054767 0.27492 -0.11899 -0.12335 0.071173 -0.18306 -0.061731 -0.096084 0.1481 -0.045819 -0.2426 -0.047605 -0.073383 -0.3862 -0.25653 0.043756 -0.16912 -0.066677 0.061562 0.080702 -0.18646 0.013928 0.099284 0.1499 -0.14534 -0.0078212 -0.13185 0.055995 -0.052841 -0.12705 -0.016905 0.15806 -0.053131 -0.05284 0.16219 -0.22798 -0.17955 -0.27744 0.21334 -0.16734 -0.28605 -0.14346 -0.066813 -0.092578 0.07965 0.097486 -0.10419 -0.21005 -0.095913 -0.15885 -0.064627 0.14923 -0.060189 0.25426 0.19032 0.20287 0.15139 0.090228 0.07855 0.029222 -0.14405 -0.059891 -0.035219 0.079807 0.13554 -0.19183 -0.12646 -0.014285 -0.062838 -0.12111 -0.34698 0.010462 -0.02227 0.073546 0.20431 0.35782 -0.15017 -0.15155 0.15872 -0.035936 0.059403 0.16063 0.06213 0.27017 -0.14416 0.076696 -0.066412 -0.023491 -0.0061806 -0.084634 -0.19633 0.057004 -0.070772 0.020009 0.16123 -0.048854 0.012312 0.18799 0.31406 -0.077464 -0.17491 -0.015749 -0.19346 -0.040136 0.029194 0.080388 0.062974 -0.17141 -0.18642 -0.20306 -0.2703 0.034925 -0.0201 0.19517 0.024486 0.072769 -0.17963 -0.10049 -0.20964 -0.089909 0.10513 0.27475 -0.050473 0.28113 0.17247 0.032419 -0.23494 -0.2068 -0.012466 0.026939 0.02948 -0.1956 0.069869 0.16274 0.12841 0.12861 -0.039242 0.12808 0.16518 0.21308 -0.2532 0.16794 -0.033199 -0.099241 -0.17608 -0.14171 -0.20905 0.04051 -0.032599 -0.017308 0.16005 0.088158 -0.25386 -0.11825 -0.021244 -0.10084 -0.25092 -0.13599 0.13263 0.053052 0.025613 0.16047 0.27954 0.1702 -0.0732 0.026173 -0.139 -0.10809 0.053695 0.45937 0.09884 0.29395 -0.083902 -0.07601 -0.18895 -0.12195 -0.083833 0.047257 0.02539 -0.1253 0.19528 0.18093 0.051525 0.026141 -0.24145 -0.022931 -0.13655 0.056199 0.13822 0.13846 0.035416 -0.052109 -0.053557 0.1776 -0.19087 -0.14426 -0.1131 -0.026476 -0.32776 0.071686 -0.054838 0.023063 -0.15016 0.07249 -0.12245 0.13651 0.10806 0.12933 -0.23205 -0.17258 0.12307 -0.14497 -0.39171 0.11391 0.056717 0.046167 0.00054097 0.19235 -0.10436 -0.15451 0.11892 0.34117 0.19459 -0.20499 0.014931 0.039564 0.16279 -0.048403 -0.1704 -0.022237 0.22415 0.014512 0.011495 0.3184 0.046743 0.058388 -0.13409 0.053466 -0.011485 -0.050723 -0.19697 -0.022246 -0.2208 0.065966 0.071045 -0.017282 -0.020387 -0.042622 0.01217 0.20409 -0.025067 0.10192 0.068059 -0.10497 -0.062173 -0.45844 -0.13677 -0.090034 -0.033421 0.1255 -0.14464 -0.096866 -0.14884 0.079441 0.12561 -0.11006 -0.14147 -0.03196 -0.13816 -0.06278 -0.063557 -0.058342 0.048857 0.1023 -0.22208 -0.025525 -0.047318 0.1763 -0.11815 -0.40334 -0.031398 -0.14471 -0.056957 -0.052073 -0.071611 -0.12218 0.017713 -0.14886 -0.062742 -0.068162 0.26647 0.13884 0.075084 0.18463 0.13171 0.15841 0.037809 0.028405 -0.054505 0.063429 -0.077275
-0.080071 -0.016556 -0.15243 -0.12343 -0.089205 0.060048 -0.06 -0.06366 -0.14319 -0.15196 -0.013769 -0.035471 -0.12192 0.0066621 -0.027523 0.0096272 0.012619 0.033452 0.012502 0.080554 -0.051331 0.028462 0.092497 0.15694 0.0050075 0.10488 0.080817 -0.044423 0.029477 -0.10237 -0.072591 -0.028396 -0.034226 -0.054476 0.021305 0.059713 0.024416 -0.12977 -0.041143 -0.049798 -0.061707 -0.10087 -0.047209 -0.11407 -0.10101 -0.075303 -0.067357 -0.066367 0.097348 0.0012492 0.15702 0.26951 0.09697 0.091866 -0.020988 0.072649 0.0058614 -0.085211 -0.13661 -0.040802 -0.024208 0.0033973 0.054415 -0.064089 0.095622 0.071727 -0.11851 -0.089091 0.0024099 -0.19632 -0.15415 -0.10715 0.039838 0.026579 0.024262 0.036278 -0.063437 0.092749 0.093226 0.082138 0.28595 0.21649 0.067915 0.0068992 -0.010037 0.046341 -0.12623 -0.14232 -0.13168 0.010764 -0.17562 0.012085 0.10449 0.0023429 -0.052324 -0.15293 -0.11195 -0.13746 -0.19124 -0.23518 -0.12085 -0.0011859 -0.019725 0.055692 -0.040386 -0.021628 0.091014 -0.041283 0.011972 0.19133 -0.0048649 -0.0096005 -0.0068482 -0.041953 0.02643 -0.11404 0.001276 0.024268 -0.059606 0.004653 -0.14689 0.085052 0.00059084 0.095915 -0.016621 -0.039434 0.12747 -0.093119 -0.0066123 -0.095856 -0.060529 0.047467 0.066815 -0.057623 0.040268 0.042688 0.21236 0.1137 0.16305 0.15162 0.047286 0.097642 0.0341 0.022542 0.14256 -0.085592 -0.024046 0.00028891 -0.04394 -0.093086 -0.076127 -0.00078075 0.079943 -0.092286 0.10655 -0.087838 -0.0081434 0.059174 -0.045611 -0.11438 -0.0059758 -0.09185 -0.028809 -0.036799 -0.1023 0.094229 0.22178 0.068247 -0.024392 -0.03395 -0.025059 0.026955 0.09112 0.058981 -0.0095999 0.02891 -0.20514 -0.092003 -0.1542 -0.10907 -0.028074 0.015323 -0.050741 -0.0597 -0.023162 -0.073717 -0.036454 -0.094298 0.043763 0.078393 -0.02351 -0.016689 0.035345 -0.035527 0.017719 -0.12648 0.18496 -0.025606 0.055616 0.079488 0.0023293 0.13995 0.011849 0.082074 -0.0050538 -0.028569 -0.078927 -0.086869 -0.019823 0.039964 -0.11711 -0.093868 0.16034 -0.024841 0.060425 -0.061077 -0.071674 -0.072265 0.033342 0.072613 0.030184 0.018021 -0.067383 -0.084638 0.053814 -0.014389 0.022843 0.00076807 0.10526 0.11691 0.12626 0.016205 0.070515 -0.04658 -0.068013 -0.05577 -0.12062 0.064829 -0.15431 0.082318 -0.10933 0.033953 0.023943 -0.031793 0.051092 0.06095 0.023506 -0.017694 0.13405 0.099503 0.021267 -0.015627 0.038191 0.1645 0.1278 0.016882 0.11905 0.15187 0.22053 0.057123 0.15243 0.042451 -0.036773 0.064927 0.050974 -0.13439 -0.031529 -0.08683 -0.10498 0.029889 -0.024442 0.078765 0.16157 0.071841 0.13003 -0.04915 0.092271 0.025891 0.051117 0.05607 0.050515 0.056213 0.0014286 0.20755 0.079702 0.07284 0.010324 0.14066 0.13165 0.15092 -0.0071651 -0.058997 0.0047737 -0.0293 0.036395 0.0067419 -0.088986 -0.21545 -0.18564 -0.16224 -0.11739 0.080051 0.11105 0.080462 0.096268 0.13143 0.10927 0.044791 -0.06466 -0.037281 0.044745 0.048112 0.16189 0.19335 -0.041397 0.060503 0.080873 0.063007 0.083505 0.12653 -0.0026932 0.047804 0.072386 -0.086296 -0.12401 -0.03157 0.01794 0.01983 -0.093929 -0.049015 -0.04121 0.10032 0.067141 0.023492 0.092301 0.022869 0.043371 0.06994 0.14989 -0.067883 0.094062 -0.063835 0.17042 -0.0075476 -0.084251 0.068023 0.10233 0.020135 0.07123 0.1126 0.11382 0.044012 0.10894 -0.060661 0.017098 -0.079264 -0.066178 -0.11607 0.010357 0.12702 0.009112 0.013615 0.02825 0.060139 0.014624 0.16038 0.027333 0.066077 -0.047398 0.097573 0.046413 -0.031554 0.080682 0.13015 0.016586 -0.043028 0.054762 -0.0226 0.11079 -0.011562 -0.00094623 0.0024697 0.028753 -0.1301 -0.097819 0.083243 -0.0069019 -0.091985 0.034713 0.028381 -0.052813 -0.06845 0.050914 0.010831 0.14487 0.058259 0.064614 0.18852 0.099326 0.01889 0.11374 -0.00077868 0.060168 -0.0042275 -0.059808 0.017318 0.016542 0.030394 -0.014515 0.037953 -0.0012757 -0.041687 -0.02262 -0.064545 -0.085563 0.042316 -0.066386 0.063868 -0.027467 -0.025286 -0.042924 0.067836 0.064428 0.078968 0.17444 -0.030411 -0.029427 0.019357 -0.12228 -0.028179 0.019534 -0.13122 -0.0013327 -0.10097 0.10327 0.11524 0.00010914 0.07149 0.02643 0.099111 0.09993 0.077956 -0.016269 -0.0066394 -0.12658 -0.13819 -0.0033077 -0.047649 0.10059 -0.027003 0.0028956 0.077764 0.11434 -0.033193 0.081341 -0.03751 -0.09185 -0.13387 -0.14147 0.085951 0.033062 0.029225 0.056313 0.06605 0.080196 0.029054 0.02433 -0.13401 0.0099748 0.086701 -0.01433 0.090075 -0.094743 0.069077 0.024347 -0.10722 -0.075703 0.031702 0.115 -0.0014902 -0.033768 0.0087319 0.13559 0.049881 0.12897 -0.046949 -0.17686 0.034513 -0.066404 0.0072222 -0.039632 -0.068283 -0.051224 -0.03379 -0.07192 -0.028956 0.030725 0.044499 0.21526 0.1597 0.047339 0.10881 0.15526 0.096988 -0.043867 -0.036586 -0.020174 0.055144 0.13095 -0.0043777 0.069116 -0.038506 0.13396 0.0025497 -0.018492 0.040571 -0.042218 0.019584 -0.041018 -0.13503 -0.063854 -0.059937 0.079216 -0.051243 -0.01424 0.037295 0.082644 0.066372 0.13513 0.12378 0.098842 0.087414 0.12284 0.054598 -0.083421 0.0062658 0.064101 0.082043 -0.00015481 0.065556 -0.022053 0.01472 0.094717 0.060697 -0.061394 -0.028737 -0.063556 -0.029802 0.0096818 0.049981 -0.029106 -0.0027188 -0.10203 0.067926 0.020039 0.050617 0.059039 0.2538 0.049811 0.18647 0.13213 0.22095 0.064627 0.080328 -0.049589 0.09479 -0.0036908 0.0082361 0.13198 -0.019338 -0.032907 0.084428 0.031969 -0.14545 -0.082903 -0.19906 0.03873 -0.10913 -0.089156 0.070017 -0.0014548 0.015068 -0.016661 0.019163 0.15017 0.12793 0.023793 0.057559 0.15292 0.070941 0.096698 0.070491 0.03392 -0.026969 -0.0027576 -0.089609 0.025913 -0.047901 0.014546 0.06671 0.070468 0.094653 0.063491 -0.17534 -0.10157 -0.13215 -0.011961 0.087058 -0.025956 0.10428 -0.018266 -0.009813 0.018523 -0.048979 0.060342 0.019864 -0.004783 0.14889 0.12886 0.1492 0.086774 0.1818 -0.049742 -0.057672 0.015329 0.051191 0.1064 -0.03961 0.031975 0.010576 0.041975 -0.065848 -0.17767 -0.068438 -0.018479 0.030205 -0.043874 0.0034084 0.076892 -0.042918 0.11427 -0.10629 0.05188 0.10835 0.046049 -0.11185 0.021101 0.13128 0.078939 -0.057638 -0.054591 -0.080265 -0.011719 -0.020281 -0.029704 0.070183 -0.049399 0.049639 0.13346 0.1329 0.038174 -0.12761 -0.18291 -0.09239 -0.047387 -0.16446 -0.035562 -0.0060391 -0.10388 0.061322 0.017955 0.14156 0.001776 0.045097 0.12279 0.029341 -0.051723 0.072462 -0.038793 0.035657 0.030831 -0.017984 0.067517 0.15864 -0.055128 0.14464 0.086839 -0.021985 -0.0046645 0.028916 -0.026989 -0.070209 -0.0010841 -0.16144 -0.098859 0.037242 -0.029688 0.0059002 -0.11254 -0.016538 -4.8611e-05 0.0099731 0.18949 0.089805 0.011323 0.10406 0.12949 0.14384 0.0055084 0.067462 0.057786 0.01393 0.02042 0.012965 0.074643 0.081306 -0.029978 -0.035188 0.12054 0.12339 0.12338 -0.21123 -0.0066634 -0.16107 -0.1199 -0.036998 -0.0098207 -0.13406 -0.048877 -0.095668 0.067132 0.13687 0.0073026 0.14109 -0.039468 -0.0085469 -0.039428 -0.099445 -0.07336 0.014169 0.068613 0.07326 0.16695 -0.062956 -0.0309 0.12313 0.060515 -0.0071323 0.1018 0.11539 0.097721 -0.11843 -0.07211 -0.15711 -0.12496 -0.045672 -0.15763 -0.18827 -0.18414 -0.040137 -0.064744 -0.19 -0.15578 -0.091149 -0.074959 0.03801 -0.0041371 -0.006819 0.075373 0.055535 0.1194 0.15389 0.093188 0.013322 -0.00085816 0.02696 0.15128 0.1347 0.08834 -0.00074351 -0.003108 -0.052591 -0.098841 -0.017339 -0.20631 -0.16096 -0.079122 -0.025309 -0.056082 -0.067948 -0.18892 0.066116 -0.1263 -0.038847 -0.01263 -0.0903 0.10838 0.13231 -0.0073369 0.0099585 0.1056 0.13887 0.033912 0.14632 0.12923 0.00035735 0.073133 0.10918 0.0023563 -0.041 0.022685 -0.057181 -0.036805 -0.16735 -0.15129 -0.082045 -0.20928 0.00091001 -0.015692 -0.06271 -0.14212 0.0027603 -0.031897 -0.09014 -0.05572 0.051886 0.065503 -0.0091525 0.12387 0.18745 0.10883 0.11567 0.076969 0.21443 0.17763 0.18968 0.18356 0.088987 0.15202 -0.02715 0.12672 -0.16414 -0.060834 -0.09174 -0.11246 -0.19454 -0.07237 -0.045845 -0.032906 -0.12473 -0.15836 -0.021269 -0.14877 0.073917 -0.064242 0.13886 0.26655 0.18633 0.1998 0.046184 0.21293 0.18938 0.0623 0.15246 0.12381 0.18459 0.11414 0.12205 0.089847 0.050736 0.07832 -0.052003 -0.10191 -0.11646 -0.033851 -0.059252 -0.055787 -0.058129 -0.033206 -0.12185 -0.013077 -0.13112 0.068075 0.16767 0.12675 0.23761 0.079637 0.10293 0.070527 0.15759 0.11013 0.077762 0.23199 0.099082 0.090722 0.2078 0.17787 0.21383 0.19699 0.17901 -0.010291
0.029508 0.005402 0.1062 -0.11209 -0.083793 -0.13439 -0.056429 0.22458 0.34113 0.16128 0.12262 0.086213 0.35226 0.073194 0.019617 -0.14468 -0.14012 -0.018548 -0.22118 0.052531 -0.043821 -0.20232 -0.080224 -0.020774 -0.010844 0.02296 0.11087 0.039417 0.027312 0.19908 0.28985 0.10151 -0.019209 0.02592 -0.24457 0.046862 0.059363 0.094933 -0.00044041 -0.0041415 0.065307 0.078904 0.18576 0.18562 0.1615 0.17567 -0.011078 -0.00010185 -0.058338 -0.2445 -0.28349 0.14312 0.092433 0.24812 0.027488 -0.0145 0.14162 0.20891 0.03646 0.34437 0.20514 0.084556 -0.0087229 -0.05083 0.073797 0.042873 0.10754 -0.001754 -0.01669 -0.1462 0.040414 -0.03875 0.22502 0.26372 0.30063 0.17026 0.14841 0.039948 0.29513 0.078971 0.040212 -0.091816 0.24115 0.25771 -0.12712 -0.049649 0.25288 0.02801 0.04824 0.19501 0.041811 0.030994 0.12368 0.10645 0.3356 -0.041129 0.22084 0.19247 0.059373 0.15627 0.27571 0.080311 0.14345 -0.033194 -0.017083 -0.10297 0.20282 0.14432 0.16099 0.16474 0.10512 -0.051778 0.14121 0.024661 0.013946 0.098989 0.321 -0.22285 -0.21589 -0.029212 -0.15546 0.09772 0.23583 0.19326 0.35231 0.016767 0.021441 -0.13347 -0.21441 0.087599 0.38869 -0.062865 -0.18559 -0.10506 0.075799 0.07115 0.18557 0.094307 0.22131 0.19436 0.15378 0.12583 0.31586 0.28854 0.11476 0.16082 0.17 -0.05617 -0.074299 0.013186 -0.11014 -0.020353 0.3341 0.1065 0.17481 -0.020369 0.10878 0.1643 -0.034209 0.15531 0.083409 -0.11241 -0.13874 -0.03698 0.053596 0.033221 0.035303 0.072133 0.18385 -0.080077 0.23975 0.12789 -0.11052 0.47477 0.23356 0.10883 0.17617 0.2026 0.3577 0.28443 0.17598 0.21439 0.18268 0.21432 0.17445 -0.16794 -0.017233 0.0073412 0.020506 0.28455 0.079074 -0.046708 -0.067361 -0.029266 0.0013653 0.040986 0.24866 0.26004 0.21283 0.048812 -0.24149 0.046568 -0.16759 0.20447 0.15071 0.40208 0.42632 0.19676 0.32126 0.28043 0.24764 0.12989 0.18666 0.1874 0.21265 -0.041735 0.061619 0.25708 -0.0052249 0.34319 0.2193 -0.17107 0.051542 0.08729 0.08324 0.042863 0.18667 0.16525 -0.19035 -0.053706 -0.021093 -0.050669 -0.00073817 0.09376 0.17669 0.26738 0.32174 0.047926 0.49556 0.31581 0.2411 0.10146 -0.0025152 0.16836 0.2485 0.052491 0.035552 0.26939 0.21043 0.14182 0.2149 0.11009 -0.08993 0.049615 0.16567 -0.016691 -0.099217 -0.13296 0.091186 -0.16675 -0.044558 0.00035263 0.080617 0.15412 0.16587 0.10049 0.090431 0.09718 0.33164 0.017582 0.15995 -0.034457 0.19544 0.27891 0.050052 -0.024039 0.3021 0.28912 0.10697 0.22751 0.1449 -0.18048 -0.2931 -0.03484 0.2144 0.19597 -0.099863 -0.1698 -0.13109 -0.084326 0.075132 0.073514 0.18166 0.19484 0.23171 0.28897 -0.04224 0.2375 0.038391 -0.086756 0.14004 0.016536 0.10527 0.19679 -0.0013629 0.026404 -0.055181 0.049215 0.019561 0.18884 0.036732 -0.028941 -0.10193 0.14312 0.31918 0.030564 -0.23226 -0.20978 -0.13566 -0.14366 -0.059513 0.097956 0.22591 0.27156 0.17067 0.13145 0.16567 0.021716 -0.013767 0.12352 0.23581 0.19243 0.21523 0.11616 0.12873 -0.031741 0.04851 -0.14646 -0.058612 -0.098328 -0.11013 -0.035176 0.19446 0.16557 0.19496 -0.011238 0.056003 -0.058283 -0.014787 -0.01229 0.16371 0.20309 0.078706 0.24046 0.013218 0.2193 0.25493 0.14286 0.024641 0.058322 0.15458 0.024176 0.082888 0.074232 0.1368 -0.022658 -0.23548 -0.044903 -0.019437 -0.13638 -0.23637 -0.14808 -0.068255 0.17651 0.019802 -0.13426 -0.11983 -0.12109 -0.098832 -0.16135 -0.064517 0.13945 0.085195 0.20504 0.018314 0.15331 0.13053 -0.0088874 0.20494 0.27748 -0.068695 -0.051916 0.01215 0.07604 0.17935 0.10258 -0.1788 0.10641 -0.16668 -0.23507 -0.0045642 0.040705 -0.01081 0.039348 -0.080974 -0.11414 0.15637 -0.096634 0.012093 0.084183 0.0046275 -0.11402 0.21111 0.16203 0.11772 0.13032 0.36969 0.024015 0.13019 0.25827 0.12838 -0.055417 0.13595 0.091759 0.14861 0.1859 0.041105 0.058533 -0.19153 -0.26685 -0.028875 0.27987 0.23041 0.073097 -0.10143 0.035586 -0.013499 0.027239 0.10347 0.091934 0.1566 -0.095078 0.18763 -0.041658 -0.062641 0.29239 0.16627 0.0449 0.066681 0.097443 0.048357 0.046014 0.057037 0.01248 0.055488 0.083385 -0.23606 -0.20681 -0.13059 -0.28059 -0.099518 -0.12608 -0.25628 -0.046826 -0.20219 -0.027155 -0.24254 -0.10337 0.048474 0.10451 0.13407 0.0062042 0.13159 0.11788 0.23846 0.26477 0.24521 0.18575 -0.051758 0.084182 -0.015013 0.020327 0.00095236 0.15094 0.042003 0.058349 -0.095953 -0.030029 0.014004 0.16489 0.13556 -0.14973 -0.12483 0.11181 0.17193 0.049384 0.043035 0.018261 -0.13625 -0.13186 -0.11615 0.17255 0.10303 0.07865 0.20272 0.26841 0.3844 0.1385 0.079449 -0.010409 -0.13953 -0.024147 0.11124 0.11033 0.070979 -0.035617 0.2193 -0.016538 -0.10811 0.0038593 -0.057916 -0.087405 -0.033923 -0.067177 0.082549 0.17822 -0.42139 -0.031947 0.022786 0.033897 0.14917 -0.0088524 0.11904 0.12754 0.19086 0.26615 0.38191 0.20679 0.13347 -0.059317 -0.15837 -0.10131 -0.024842 0.020022 0.0053107 0.14076 0.16326 0.036051 -0.027052 -0.069217 0.17459 0.040016 0.16216 0.0080245 0.12775 0.078597 -0.13193 -0.11242 0.19194 -0.035608 0.1069 -0.097617 0.10685 -0.005697 0.051015 0.03012 -0.042736 0.22028 -0.085327 0.039527 -0.23157 -0.1956 -0.016793 -0.17108 -0.11506 -0.044473 -0.14695 0.044058 0.31771 -0.068005 -0.12661 0.18148 0.13564 0.20315 0.049346 -0.19412 0.056301 -0.0037123 0.099025 0.12746 0.013653 -0.025707 0.062678 0.1613 -0.011921 0.097869 0.086379 0.056446 0.021732 -0.14123 -0.28334 -0.23946 -0.046045 -0.13387 -0.32307 -0.2769 -0.055691 -0.16425 0.054756 -0.019447 -0.097943 -0.090344 -0.040837 0.12447 0.07175 0.26745 0.12652 -0.072757 0.21141 0.026407 -0.1958 0.06034 0.077748 0.12529 0.024516 -0.21791 0.034131 -0.080096 0.17829 -0.045131 -0.29255 -0.022615 -0.22982 0.088057 -0.0057043 0.043907 0.025916 -0.24746 0.076808 -0.22156 -0.05047 -0.032072 -0.29891 -0.023871 0.06405 0.17873 -0.031595 -0.18318 0.039068 -0.23489 -0.32473 -0.038545 0.02667 -0.0047753 -0.0051301 -0.088538 -0.15645 0.11864 0.28928 -0.093321 -0.22077 -0.23296 -0.021736 0.15244 0.14901 0.15407 -0.15527 -0.023218 0.019249 -0.091776 0.12142 -0.19315 -0.37121 -0.018548 -0.139 0.026647 0.081656 0.099164 -0.030711 -0.12384 -0.19035 -0.16913 -0.15086 -0.29381 -0.2422 -0.23815 -0.10104 0.049951 0.0084041 -0.1099 -0.49214 -0.26759 -0.12274 -0.18654 -0.12648 0.012531 -0.12851 -0.09322 0.045143 -0.08267 -0.19148 -0.2573 -0.39651 -0.13882 -0.37056 -0.029139 0.082855 -0.071377 -0.1026 -0.20876 -0.23158 -0.20845 -0.12197 -0.16181 -0.12556 -0.1452 -0.20092 0.087289 -0.22626 -0.20204 -0.32933 0.079897 -0.44662 -0.063945 -0.0641 -0.089678 -0.20189 -0.24804 0.0288 -0.26419 -0.35337 -0.44504 -0.30471 -0.02816 -0.30426 -0.061114 -0.16108 0.099793 -0.24013 -0.21947 -0.091909 -0.20685 -0.16836 -0.1032 -0.11889 -0.0018355 -0.061029 -0.026264 -0.060316 -0.027605 -0.16799 -0.14165 -0.24716 -0.046612 -0.082648 -0.14711 -0.1358 -0.091182 -0.14313 -0.015604 -0.13259 -0.02581 -0.34077 -0.12239 -0.14205 -0.091984 -0.26773 -0.12845 -0.23151 -0.11968 -0.42413 -0.1668 -0.073454 -0.060902 -0.073485 -0.069537 0.022217 -0.069252 -0.085658 -0.15398 -0.27755 -0.30922 -0.14039 -0.045418 -0.16464 0.044972 -0.2548 -0.44209 -0.14909 -0.090831 -0.19946 -0.38244 -0.20329 -0.10114 -0.37674 -0.3269 -0.13544 -0.10414 -0.11477 0.092014 0.026258 -0.033038 -0.23183 -0.22079 -0.25246 -0.23806 -0.27565 -0.1043 -0.24636 -0.11931 -0.11059 -0.14455 -0.2043 -0.27218 -0.091438 0.040412 -0.24499 -0.19522 -0.0041027 -0.21039 0.02984 -0.098369 -0.021189 -0.15679 0.068121 -0.065411 -0.195 0.15817 0.034257 0.18542 0.1217 -0.052828 -0.036824 -0.073052 -0.08187 -0.25151 -0.44617 -0.41859 -0.27107 -0.13861 -0.14192 -0.46782 -0.32865 -0.20385 0.13581 -0.28211 -0.23536 -0.2442 0.0023286 -0.2544 -0.13382 -0.24326 -0.27027 -0.28048 -0.33062 -0.19425 -0.13086 -0.031248 -0.043918 -0.094883 0.063451 0.061091 -0.0083922 -0.095868 0.029564 -0.39999 -0.40495 -0.19931 -0.11058 -0.064672 -0.27102 0.040095 -0.25644 -0.29281 -0.24394 -0.075585 -0.15896 0.033734 -0.12255 -0.12425 -0.33689 -0.59704 -0.59397 -0.28476 -0.27793 -0.10363 -0.14515 -0.20447 -0.22779 -0.29547 -0.024425 -0.01129 -0.036813 -0.10918 -0.13179 -0.02785 -0.097121 -0.070912 -0.14499 -0.16046 -0.078581
-0.080324 0.10661 0.34622 0.24416 0.17667 0.079411 0.26785 0.33349 0.2521 0.58378 0.12458 0.088739 0.32448 0.086447 0.34616 0.3405 -0.25724 -0.16046 0.048153 0.37262 0.42909 0.085503 -0.23981 -0.38224 -0.38717 -0.10581 -0.25618 -0.43708 3.4846e-05 -0.1196 0.22878 0.013982 0.20133 -0.16621 0.056872 0.45612 0.11469 0.0076923 0.013552 -0.042883 -0.48284 0.11034 0.15725 0.0076843 0.14561 -0.054194 -0.19329 -0.11287 -0.16903 -0.22421 0.047674 -0.10462 -0.3456 -0.010698 -0.15167 0.17706 -0.17349 -0.16247 0.18899 -0.027068 -0.11027 -0.068914 -0.22492 0.0073692 0.21299 0.28978 -0.13054 -0.20474 0.12515 -0.047213 -0.44773 -0.066259 -0.24007 -0.25008 0.14588 0.06362 -0.17905 -0.084768 0.075631 0.1248 0.0018815 -0.28752 -0.34289 0.080362 -0.19778 0.031886 -0.025772 0.082652 0.099837 -0.18786 -0.39232 -0.015455 0.15841 0.0057918 0.36462 0.11607 -0.27625 -0.22684 0.045084 0.35343 -0.27346 -0.062647 -0.22742 -0.11791 0.068175 -0.22985 0.0036068 -0.29857 0.073699 -0.17991 -0.34013 -0.20264 -0.035841 -0.023715 -0.19021 -0.20598 -0.30566 0.22596 -0.080652 -0.11403 -0.12506 0.04879 0.16537 -0.094841 -0.024134 -0.0060771 -0.058309 -0.085975 0.078975 0.11401 -0.066572 0.084259 -0.27892 -0.15247 -0.182 -0.19232 -0.1719 0.11186 0.027732 -0.13966 -0.15811 -0.0071814 0.21986 0.043776 -0.045943 -0.10977 0.12211 -0.43789 -0.06828 0.0097563 -0.073976 0.15122 -0.040352 -0.1926 0.25337 -0.05086 -0.043809 -0.23709 0.19006 -0.098479 0.032927 0.29893 -0.079617 0.13814 -0.31266 -0.10548 -0.24641 0.08126 -0.037608 -0.096845 -0.020712 -0.26952 0.14641 0.11426 -0.061531 0.12756 -0.0055906 0.21199 -0.016861 -0.052285 -0.0030213 0.096594 -0.16416 -0.19003 0.051212 -0.26801 0.032045 0.0054514 -0.051467 -0.1985 -0.13521 -0.069678 -0.14485 0.22795 -0.32349 -0.020921 -0.15226 -0.00068158 0.13165 -0.27482 -0.39497 -0.098424 0.29477 0.31604 0.20584 0.22876 0.46709 0.28501 0.14321 0.18291 -0.17901 0.31531 -0.078532 -0.1116 0.080723 0.059254 0.19142 -0.13882 -0.15987 0.0058749 -0.013023 -0.3499 0.006021 -0.0076592 0.15718 0.10257 -0.089917 0.10713 0.22289 0.14486 0.10205 -0.14415 0.18763 0.16704 -0.057405 0.16605 0.56313 0.27616 0.76357 0.44845 -0.0066756 0.03733 0.036558 4.4322e-05 0.23678 0.13738 0.16038 0.079656 0.0081603 0.090426 0.12277 -0.20278 -0.21709 -0.10197 -0.019166 -0.10583 -0.098386 0.015982 0.24384 0.12506 0.17073 0.25822 0.12359 0.091656 -0.1283 0.14991 0.18387 0.32655 -0.10213 -0.22022 0.021414 -0.089666 0.10552 -0.086057 0.21154 -0.078908 0.076404 0.23187 0.21679 0.17051 -0.12944 -0.028008 -0.10854 -0.12796 0.15684 -0.25492 0.088293 0.086354 0.061498 -0.27018 0.42426 -0.17578 -0.12479 0.04705 0.16569 0.32233 0.3211 0.21154 -0.082081 -0.090891 0.48513 -0.30368 -0.11943 -0.069122 0.052742 -0.32052 -0.21231 -0.21772 -0.13384 -0.24951 -0.091849 -0.11422 -0.23798 -0.1487 0.10112 -0.061486 0.23315 0.1832 -0.13916 -0.070264 0.28719 -0.085346 -0.15886 -0.010848 0.17117 -0.27941 0.068228 0.011302 -0.0067784 0.072268 0.45093 -0.20537 0.13215 -0.036858 0.037144 -0.23841 0.056007 0.14183 -0.18895 0.19502 0.066673 -0.055994 0.12162 -0.10553 -0.017875 -0.089678 0.12288 0.46083 -0.15294 0.42882 -0.058814 -0.014504 0.032274 0.21748 0.10411 0.096162 0.26137 0.23851 0.25719 0.31084 0.42989 -0.05263 0.1473 0.11894 0.14346 -0.23989 -0.015466 -0.12273 -0.071022 -0.13465 -0.12375 0.024412 0.087319 0.097444 -0.17812 -0.058873 0.042617 0.25588 -0.029591 0.050708 -0.015525 0.1323 0.32071 0.21397 -0.052738 0.097085 0.04542 -0.026782 0.40573 0.40688 0.18191 -0.1455 -0.16987 -0.26937 -0.22026 -0.13937 -0.083074 -0.084125 0.12994 -0.10054 0.030144 -0.32114 -0.34117 -0.12403 0.031027 0.0703 0.32074 0.10522 0.096947 -0.31284 0.13995 0.40828 0.055163 0.020827 0.039844 0.18977 0.44205 -0.0641 0.11045 0.18719 -0.05005 -0.18349 -0.24375 -0.080247 -0.1299 -0.059779 0.0027746 0.098763 0.2583 -0.035466 0.040533 -0.14316 0.078705 -0.10129 0.046059 -0.075262 0.15434 -0.012855 0.25022 -0.087493 -0.0079482 0.27771 0.082073 0.30591 -0.1913 -0.068993 0.2728 -0.26909 0.095309 -0.11058 -0.051207 -0.06002 -0.19189 0.11857 0.0082471 0.059777 0.02719 -0.14524 -0.19294 0.021232 -0.23493 -0.1761 0.030559 -0.12022 -0.14526 0.055381 0.12738 0.14701 0.13219 -0.16927 -0.10342 0.12879 0.087144 0.13128 -0.31106 -0.095789 0.24441 -0.30007 -0.19857 -0.16566 0.26939 -0.23577 -0.043601 0.011375 0.25384 -0.2847 0.087315 0.11646 -0.020765 0.26916 0.23762 -0.15522 -0.23163 0.28875 -0.074029 -0.29619 0.083699 0.21994 0.05394 0.18176 0.18341 0.20208 -0.16788 -0.011788 -0.056149 0.10861 0.073954 0.029933 -0.041301 0.1009 0.23812 -0.095846 -0.06668 -0.16537 0.18201 0.0062697 -0.033352 -0.027215 0.086978 0.24234 0.16389 0.075612 0.23685 0.074365 -0.046579 -0.15897 0.11318 0.34675 -0.050074 0.12485 0.043833 -0.35569 -0.27425 -0.094336 -0.43574 -0.21839 0.010863 0.024649 0.30318 0.2364 -0.13077 0.0050905 -0.025314 -0.10505 0.26149 -0.10363 -0.22825 0.091357 0.23599 0.017228 0.014251 0.10528 0.20213 0.15915 -0.040834 0.042872 0.22007 0.08029 -0.18131 -0.051497 -0.026456 -0.27188 -0.028748 -0.10003 0.036869 -0.037985 0.028478 0.015176 0.2279 0.18809 -0.10025 0.045643 -0.053816 -0.010384 0.06981 0.012569 0.27879 0.25985 0.052399 -0.13128 0.14278 0.034151 0.17394 0.27513 0.095813 -0.13248 0.032273 -0.13005 -0.29117 -0.48719 -0.39654 -0.30286 -0.08265 0.067411 -0.099104 -0.1361 0.086667 0.078006 0.079211 0.12602 -0.07563 -0.07491 0.08856 -0.021062 0.043861 0.054688 0.059756 -0.1666 -0.21306 -0.0019125 -0.12092 0.22676 -0.03976 -0.10816 -0.024034 -0.075952 0.153 -0.28816 -0.16956 -0.032178 -0.3602 -0.13404 0.087142 -0.23786 -0.076304 -0.30035 0.050309 -0.23745 0.057995 0.091156 -0.0081278 0.27136 0.042089 -0.21962 -0.22556 -0.095284 0.075612 0.071587 -0.011838 -0.0073898 -0.16143 0.10202 -0.23006 0.041297 -0.045607 0.02677 0.18552 -0.14069 -0.12089 0.031939 -0.37292 -0.14386 0.0060354 -0.15523 -0.2301 -0.20771 -0.23867 0.31821 0.26735 0.010717 -0.0057592 0.19755 0.001084 -0.05433 0.096417 0.21035 -0.012315 0.13142 0.083453 -0.095065 0.008433 -0.063822 -0.0040354 -0.37637 -0.21822 0.23121 -0.084631 -0.20338 -0.21988 -0.031435 -0.08591 -0.13853 -0.28024 -0.083689 0.064823 0.019365 -0.115 -0.20769 -0.23393 0.096456 0.25859 0.036137 0.2585 -0.19971 0.019974 0.18519 0.00053706 0.063956 -0.078228 0.055232 -0.14176 -0.31663 -0.0069397 0.021554 -0.031508 -0.10315 -0.10651 0.018037 -0.1703 0.0050226 0.04828 -0.35368 -0.25904 -0.3485 -0.01538 -0.0027664 -0.2496 -0.14136 -0.084784 0.008155 0.25197 0.067401 0.14511 0.27788 -0.15897 -0.022312 -0.16759 0.10767 -0.11701 0.093041 -0.15984 -0.16492 0.21185 0.099771 0.52158 -0.076694 -0.11698 -0.018982 -0.04301 0.15583 0.20183 0.16724 0.087423 0.00051971 -0.055745 -0.18689 0.01407 -0.15261 -0.11282 -0.044404 0.013206 0.12684 0.072073 -0.024209 0.0081709 0.021791 0.04202 0.34239 0.1634 -0.29544 -0.043234 0.064738 -0.13016 0.26374 0.25968 -0.13302 -0.0079154 0.21198 0.15175 0.0364 0.16117 0.20093 0.17339 0.10727 0.22124 0.070919 0.05091 -0.21137 -0.20173 -0.18746 -0.23247 -0.4065 -0.20901 -0.1673 0.14274 0.19787 0.23677 0.28396 0.093814 -0.31381 -0.26596 -0.010222 0.14974 0.1229 -0.12102 0.26273 0.073331 0.15999 0.00034045 0.19341 -0.12842 -0.071628 -0.14195 0.13634 0.0065755 0.17295 -0.10808 -0.18095 -0.2412 -0.36905 -0.46476 -0.42632 -0.041854 -0.080574 0.090904 0.17432 0.20975 0.012413 -0.15558 0.20198 0.0039985 0.11434 0.16821 0.15132 -0.0013145 -0.030699 -0.20658 0.073752 0.00021502 0.027066 0.15455 0.16911 -0.089605 -0.059665 0.19118 0.0014476 -0.29969 0.18213 -0.17176 -0.32611 -0.63968 -0.29443 0.15869 0.25791 -0.21493 0.11391 0.11133 0.032185 -0.13382 0.21478 0.24504 0.51428 0.20692 0.26705 -0.061178 0.03068 -6.42e-06 -0.073358 0.12605 0.072082 0.0044337 0.093917 -0.14424 -0.054879 0.20188 0.21637 0.14174 0.09957 0.10373 -0.16876 -0.33391 -0.17156 0.0070307 0.087675 0.40942 0.019321 -0.15806 0.012781 0.1023 -0.18823 -0.053338 0.21076 0.15173 0.0094798 0.11976 0.25779 -0.024129 -0.26552 -0.13539 -0.15935 -0.22175 -0.074885 -0.12311 -0.022702 0.061882 -0.031524 -0.027702 -0.14147 -0.32286 -0.31467 -0.50462
-0.0011336 -0.073789 0.066935 -0.013572 0.072398 0.10532 -0.014522 0.007612 -0.03919 0.0016651 -0.064862 0.051852 0.0056261 0.036448 0.051113 0.044739 0.00075191 -0.014286 0.054586 0.1031 -0.062755 0.089551 0.03946 -0.013977 0.12349 0.09065 0.088702 0.10903 -0.038978 0.046593 0.011054 -0.074418 8.4144e-05 0.0038815 0.11833 -0.0030816 0.087658 -0.067477 0.041495 0.05424 -0.047287 0.068318 -0.030762 0.064837 0.086127 0.055088 -0.068965 0.035698 0.1064 -0.078352 -0.010687 0.0035382 0.0011081 -0.068505 0.076978 0.081144 -0.036234 0.047884 0.08236 0.12778 0.01708 -0.041206 0.10508 0.071966 -0.049361 0.044401 0.112 -0.034112 0.044544 0.068019 0.01248 -0.078012 -0.047587 0.071019 0.074154 -0.069151 -0.069659 0.076217 -0.063344 0.022341 0.0035968 0.11242 0.06218 0.085164 -0.03334 0.030055 0.10957 0.054037 0.10574 -0.047209 0.023515 0.077752 -0.0047074 -0.017354 0.063454 0.1075 0.087774 0.11244 -0.078143 0.050741 0.02357 -0.082554 0.019048 -0.056242 0.02233 0.0037061 -0.0057243 0.10754 -0.011309 0.047816 0.10886 0.12438 0.023616 -0.016019 0.1091 0.071484 0.13457 0.13167 -0.065783 -0.043944 -0.0026961 0.035069 0.021897 0.037102 -0.029067 0.034559 -0.0085546 0.028645 0.08782 -0.028391 0.10328 -0.043454 -0.071566 -0.020352 -0.026882 0.081236 -0.0056609 0.056309 -0.0010045 0.028291 -0.03092 0.057078 0.015687 0.022453 0.004911 0.046159 0.048322 0.041465 0.027287 0.082222 -0.043772 -0.059338 0.13497 -0.024173 -0.022718 0.052139 -0.043563 -0.072735 -0.038178 -0.070885 -0.00030584 -0.0065165 -0.065167 0.097438 0.055269 -0.019833 -0.060767 0.093828 -0.017477 -0.059898 -0.070173 -0.043323 0.016932 0.097952 0.086817 0.075254 0.10713 -0.008157 0.070744 0.018371 0.071941 0.030219 -0.034011 0.072445 0.019265 0.092568 0.067134 0.010694 0.095473 0.037766 0.052079 0.060348 0.045973 0.051436 0.05205 -0.074984 0.11039 -0.014718 -0.058589 0.030571 0.067434 0.096454 0.088147 0.059514 -0.041727 0.068028 0.017655 0.006886 -0.041643 -0.018863 0.10137 0.039849 0.096368 -0.017078 -0.0021983 0.11846 0.068692 0.1058 0.043533 -0.071346 -0.020113 0.075702 -0.088017 0.089452 0.058856 -0.026316 -0.038797 0.04315 0.027445 0.10327 -0.060367 0.050428 -0.038957 0.10194 -0.053346 0.02965 0.041797 0.034577 0.09883 0.046642 -0.038009 -0.017707 0.044483 -0.038154 0.0059912 0.089621 0.048765 -0.023734 0.070978 -0.079799 -0.023092 -0.023898 -0.019742 0.0091599 -0.011287 -0.017384 -0.026164 -0.030138 -0.031926 0.0080713 -0.029523 0.064273 -0.03219 -0.024312 -0.01799 0.034574 -0.082214 -0.047957 0.070452 0.062587 0.058367 -0.053094 0.024969 0.038218 0.11084 0.092544 -0.012124 0.094811 0.012372 0.079792 0.042434 -0.062646 -0.027337 -0.035422 0.10517 0.085915 0.083312 0.05042 0.08091 -0.064938 -0.0066056 0.0022256 -0.013579 -0.0054871 0.010286 0.11197 -0.029789 -0.038031 -0.034341 -0.012982 0.094644 0.076483 -0.058772 0.015176 0.051065 -0.029094 0.08136 0.06894 0.076665 -0.087081 0.082361 0.068835 0.018157 -0.033624 -0.0090652 0.052963 0.058135 0.038937 0.0017216 0.054326 0.032738 -0.061013 0.045235 0.10416 0.052421 -0.029981 0.066228 -0.022032 -0.077704 0.001848 0.034261 0.072313 -0.0013433 -0.0317 0.10119 0.026374 0.030076 0.063329 -0.021749 0.068413 0.050443 0.072344 -0.040551 -0.064812 -0.085343 -0.086023 -0.038301 -0.099497 0.10525 0.037597 0.086469 0.034345 0.0033245 0.058755 -0.051979 0.017683 -0.10016 0.0097022 0.04591 0.021311 -0.027109 -0.032665 -0.059521 0.093686 0.090403 -0.023298 -0.042793 0.0022363 -0.038643 -0.07325 -0.10096 -0.083624 0.075531 -0.071583 0.064201 -0.034067 0.050767 -0.071055 -0.017593 0.040496 0.043145 -0.043911 0.0076265 0.011315 -0.08236 0.018939 0.095922 0.045365 0.0035738 -0.069436 -0.030091 0.061915 0.099344 0.039443 0.038087 0.037316 -0.025654 -0.089852 0.055905 -0.060116 0.042607 0.027115 -0.06627 -0.083715 -0.0075081 0.0007784 0.082348 0.0050158 0.024409 0.045648 0.085005 0.014201 0.026601 -0.051068 -0.052933 0.025823 0.021673 -0.07812 -0.0051586 -0.032477 -0.044813 0.030998 0.11217 0.058279 -0.054933 -0.05053 -0.020886 0.029913 0.10086 -0.053711 0.047883 -0.01866 0.071698 0.056264 -0.069558 -0.084808 -0.045289 0.011727 0.084449 -0.0032035 -0.072528 -0.081687 -0.066807 -0.033485 -0.00096087 0.0057138 0.099444 0.090668 -0.020727 0.039094 0.086082 0.041586 -0.04782 0.075825 0.049826 0.0061988 0.10082 0.089704 -0.080883 0.06851 0.05418 0.017952 0.033132 -0.026157 0.045495 0.017903 -0.0099554 -0.081709 -0.024094 -0.018444 0.049254 -0.033607 0.046655 -0.024482 0.053865 -0.08443 0.028871 -0.0807 0.0051352 0.076688 0.11274 0.058249 0.11625 0.00073873 0.082079 0.08387 -0.076244 0.095671 -0.028811 -0.050927 0.065086 -0.05042 -0.090579 -0.077131 0.097527 -0.013591 0.056812 0.020171 0.046576 -0.035673 -0.012286 -0.019665 -0.049025 -0.090481 0.088968 -0.012646 -0.023742 0.10586 0.059151 0.032497 0.03646 0.073188 0.03805 0.024564 0.090389 0.04007 -0.041634 0.072594 0.0962 0.108 0.031218 -0.0024894 0.055497 0.1002 -0.057327 -0.071768 0.049348 0.087227 -0.028548 0.046163 -0.014838 -0.065374 0.067263 0.096904 0.11141 0.08186 -0.003023 0.085279 0.11032 0.043462 -0.0076863 -0.042585 -0.006718 0.056496 0.098582 0.10177 -0.051921 0.08048 0.087112 0.11175 0.009735 0.063168 0.0028795 0.037927 0.040135 0.068452 0.032722 0.091609 -0.016789 0.020901 -0.0016577 -0.0088256 -0.073557 -0.042975 0.027999 0.012267 0.025288 0.021165 0.09282 -0.02924 0.094555 -0.065617 0.10485 0.096036 0.093655 0.063582 0.070238 0.067238 0.0062295 -0.072293 -0.042312 -0.037878 0.042593 0.032899 -0.061439 -0.0018166 0.039864 0.0024523 0.077362 0.067736 0.058326 0.069848 0.0071069 -0.067792 -0.022456 -0.042804 0.033352 -0.039523 0.089475 0.02753 0.091922 0.03738 -0.048958 -0.059821 -0.027906 0.035794 0.0087756 0.1055 0.019916 0.078776 0.065358 0.072858 0.038259 0.061694 -0.071087 -0.013236 -0.018609 -0.017092 -0.018667 0.10881 0.071552 0.044618 0.019143 0.015426 0.082733 0.051882 0.070375 -0.015723 -0.033036 0.076615 0.066724 -0.066275 -0.029354 0.0014879 0.027984 0.058054 0.10683 0.01808 -0.090287 0.073641 0.00062119 -0.040949 0.038254 0.078921 -0.083394 5.7804e-05 -0.086226 -0.011723 0.10046 -0.073462 -0.0037758 0.098697 -0.083275 0.082647 0.051133 -0.078835 0.038074 -0.052995 0.08135 0.0069539 -0.012034 -0.055307 0.048507 0.13141 0.099456 0.03335 0.024575 0.057225 0.082373 -0.0092245 0.05162 0.064169 0.071286 0.033902 -0.060545 0.021625 0.10757 0.045933 -0.025089 0.043837 -0.076891 -0.084514 0.05817 -0.068808 -0.050005 -0.075096 -0.041864 -0.016288 -0.061741 -0.074967 0.048914 -0.031252 0.045982 0.06159 0.039482 -0.04657 -0.016979 -0.023964 0.056839 0.0039035 0.075656 -0.030132 -0.093953 -0.022036 0.08665 -0.038976 -0.0054929 -0.0021318 -0.046751 0.02766 0.06165 0.07992 0.08854 0.020412 0.098419 -0.083776 0.076638 0.11587 -0.032825 -0.010763 -0.077341 -0.049904 -0.010622 0.12697 -0.0064106 -0.027524 -0.068529 0.0594 0.026101 0.0092165 0.023499 0.053609 0.09256 -0.043603 -0.016023 0.083759 0.036704 -0.063169 0.048802 -0.023257 0.0051529 -0.018012 -0.020675 0.07139 -0.049675 0.092254 0.066478 -0.035979 0.083044 0.085688 0.064902 0.08079 0.07741 0.068998 -0.047427 0.093635 0.036065 -0.027047 0.066589 0.098329 -0.062284 0.063364 0.077216 0.10502 0.083696 0.032906 0.0041238 -0.078225 -0.027941 -0.076704 -0.06691 -0.041316 0.065154 0.07133 0.083913 -0.04292 0.012671 -0.043534 0.088524 -0.05346 0.10099 -0.0065104 0.028347 0.017524 0.0024552 0.0060721 -0.041709 0.11957 0.024712 0.055651 0.066232 0.039543 -0.050611 -0.067568 -0.060536 0.0036503 0.085465 -0.039282 0.079129 0.048009 0.028119 -0.046939 -0.075296 0.032985 0.045131 0.055263 0.10981 0.013865 0.089138 -0.062962 0.081111 -0.040996 -0.013935 -0.056116 0.045209 0.12152 0.05706 -0.0281 -0.050414 0.01904 0.079408 0.052633 -0.031942 -0.058568 -0.025554 -0.057749 0.049134 -0.025007 0.11197 0.018673 -0.079589 0.093974 -0.019892 0.081122 -0.061235 0.040542 0.011456 0.040497 0.049822 -0.046698 0.050743 -0.043153 0.08497 0.03522 0.059971 0.046432 0.064251 0.035351 0.01588 -0.068582 -0.054048 -0.040686 -0.037856 0.098475 0.094466 -0.056763 -0.062775 -0.085619 0.047302 0.11243 -0.040181 -0.032793 -0.00093661 0.0058958 0.063853 -0.011874 -0.058956 0.046351 -0.031221 0.0088869 -0.030849 0.012529 0.011043 -0.039209 -0.021331 0.071602 0.11451 0.10241 0.04629 0.11196 0.062636 -0.029817 -0.058994 -0.048051 -0.028889 0.085001 -0.049311 -0.017564 0.049688 -0.05407 -0.022604 0.015123 -0.048399 0.098296 -0.061426 0.072802 -0.029975 0.057468 0.061276 0.017157 0.080404
0.15304 0.01279 0.0025827 0.049078 -0.016705 -0.063905 -0.051408 0.0073199 0.074813 -0.013294 0.021806 0.00017392 -0.024684 0.007659 0.043486 0.090301 0.046099 0.10954 0.073322 0.074902 0.014447 -0.0084079 0.040525 0.082592 0.047021 0.086881 0.0068302 0.11141 -0.026175 -0.060219 -0.055106 -0.050623 -0.052638 -0.061853 0.090069 -0.0013866 0.055135 -0.036875 0.07278 -0.0066335 -0.03009 -0.0071594 0.089939 -0.018778 -0.06723 -0.016479 0.10161 -0.011029 0.06466 0.0105 0.03692 0.057249 -0.059697 0.072274 0.13231 -0.016645 0.0052754 0.064601 -0.0089204 0.094068 0.01406 -0.017136 -0.050063 -0.031726 -0.067125 -0.0031873 0.089053 0.06678 0.087498 0.10708 0.039729 0.0050827 -0.01557 0.092218 -0.061474 -0.058206 -0.014049 0.018357 0.046579 -0.03778 0.12565 0.097268 0.12796 -0.014104 0.062286 -0.044464 0.088179 0.12031 -0.013183 -0.018951 0.081957 -0.087395 -0.077401 -0.00055055 -0.074019 -0.034387 0.080291 0.065474 0.055547 0.11496 -0.046712 -0.04989 0.031981 -0.04445 0.10917 -0.051924 0.07234 0.098188 -0.065757 0.018216 0.0074226 -0.063019 0.010114 0.083468 -0.059017 0.1271 0.12142 0.10404 0.056133 0.087906 0.040005 0.017204 0.089525 0.031281 0.10602 0.012761 0.08521 -0.065571 -0.066363 -0.068665 0.090326 0.10792 -0.028852 0.10001 0.025432 0.032071 0.028305 0.0542 0.084782 0.075785 0.045929 -0.031107 0.071392 -0.044159 -0.029655 -0.021417 0.083761 0.067043 0.010332 -0.06934 0.053223 0.084397 -0.040599 -0.04114 0.070129 -0.014545 0.069431 0.0061817 0.038854 -0.039793 -0.0024323 0.097923 0.089683 -0.073063 0.02975 0.012038 -0.045452 -0.024461 0.0065048 0.011798 0.062796 -0.034947 0.12702 -0.0020587 0.10663 0.016409 -0.047454 -0.026549 0.039948 -0.011221 0.05441 -0.048579 0.078375 0.0039092 -0.025627 0.069474 0.090184 0.013516 -0.047322 0.00055732 0.0091368 0.097696 0.077904 -0.072773 -0.012675 -0.0253 -0.045219 -0.052718 -0.031012 0.0083232 0.0689 0.085246 0.13108 0.012324 -0.053552 0.030458 0.0337 0.087888 -0.01918 -0.019962 0.016295 -0.043173 0.031751 0.028012 0.04985 -0.060197 0.015279 0.11301 -0.073614 -0.049186 -0.065217 -0.047453 0.11605 0.072669 0.058888 0.074437 0.10984 -0.058427 0.055339 0.014568 0.02585 -0.056178 -0.013853 -0.055908 0.093403 0.026052 0.039826 -0.01947 -0.024814 -0.032104 0.019647 -0.058105 0.10149 -0.011858 -0.026081 -0.009879 0.066097 0.11021 -0.07294 0.12171 -0.021822 0.082004 -0.034491 -0.042139 0.087043 -0.028153 0.081153 0.072835 -0.040146 -0.037707 0.087278 0.032498 0.056172 0.099688 0.014673 0.007639 0.11018 0.075908 0.10432 0.09581 0.0048535 0.081374 0.074002 0.081823 -0.069641 0.033754 0.037318 0.0031381 -0.0042653 0.084857 -0.015745 -0.05001 -0.005903 -0.044501 0.0028597 -0.0086617 0.096307 0.090723 -0.036409 0.015904 0.056731 -0.025846 0.023029 0.059008 -0.040573 0.066582 0.12723 -0.054903 -0.038037 -0.021666 -0.08443 0.088481 0.045457 0.099975 -0.0013939 0.098475 -0.055671 0.0513 -0.018645 -0.076192 -0.04434 0.00056856 0.049084 0.11464 0.10613 0.082353 -0.054852 0.090189 -0.0099479 0.019919 0.041657 0.13374 0.01989 -0.062155 0.053604 0.022581 -0.0017781 -0.011254 -0.035215 0.072779 -0.030758 -0.05597 0.065755 0.036325 0.053991 0.056663 0.011994 -0.047328 -0.045654 0.10394 0.10239 0.019185 -0.03758 -0.024602 0.043768 -0.016518 0.064044 0.01978 0.0053878 0.11685 -0.036434 -0.049815 -0.0093814 0.076229 0.094027 -0.0027501 0.069093 0.10898 -0.0081474 0.0047136 0.071911 0.04898 0.10685 0.043127 -0.058839 0.060222 0.038095 -0.02181 -0.025313 -0.022568 0.0050993 0.076445 0.053305 -0.02774 0.052735 0.014724 0.10692 0.04687 0.070577 0.054917 -0.012337 -0.055528 0.0097422 0.02034 0.066235 0.002518 -0.069567 0.037147 0.047213 0.037958 -0.023238 0.087147 -0.067859 -0.060062 -0.082948 -0.036809 -0.011096 -0.046304 -0.02491 0.027691 0.087838 0.10196 -0.041537 -0.058805 -0.061315 0.062693 0.12296 0.096132 -0.039261 0.11321 0.032971 -0.015274 -0.039061 -0.044466 -0.066848 0.065008 0.089554 0.011289 0.00043221 -0.041229 -0.019266 -0.02996 -0.053744 0.0040482 -0.058653 0.031337 -0.051333 0.093687 -0.016367 0.051731 -0.043378 0.032414 -0.029637 0.11383 -0.0040776 0.019344 0.10179 -0.049788 -0.055707 0.076167 -0.062411 -0.016273 0.048063 0.059975 -0.061084 0.053026 0.099949 -0.00056153 -0.035057 -0.012284 -0.0075698 0.091488 0.11001 0.10211 0.077903 0.010971 0.075304 0.039931 0.065567 0.043383 -0.043253 -0.040797 0.038884 0.090447 0.017491 0.11608 0.10586 -0.017034 -0.041999 -0.064342 -0.02913 0.0050635 0.029628 -0.062684 0.067567 0.084771 0.055667 0.095626 -0.055821 0.011081 -0.013476 -0.043133 -0.06613 0.043545 0.048301 0.10645 -0.028901 -0.0021803 0.059034 0.00094892 0.05822 0.013196 0.035722 -0.052632 -0.0038155 -0.040178 0.091933 0.11684 -0.054426 0.019815 0.1192 0.053099 0.075262 -0.084435 0.017794 0.0032778 0.048787 0.068906 -0.053446 -0.017589 -0.070919 0.10208 0.034408 0.0032095 0.064584 -0.01414 0.029025 0.01358 -0.052656 0.0926 0.047623 -0.061368 0.081649 0.019659 -0.0022789 -0.078247 -0.069185 0.047993 0.018409 -0.036138 0.091156 -0.042403 0.015406 0.11494 -0.00081864 -0.050532 0.076718 0.051414 0.011499 0.031701 -0.059955 -0.072339 0.02627 -0.066712 0.11235 0.0065059 0.042883 -0.059385 0.12018 0.06403 0.073266 0.10498 0.015047 -0.02241 0.040573 -0.05381 0.035754 0.1182 0.091125 -0.047647 0.051069 0.077116 0.014442 0.079458 0.06007 -0.01772 -0.032498 -0.058407 0.088323 -0.061048 0.031514 0.11172 0.065462 -0.012856 0.022691 0.036475 -0.04465 0.12098 -0.023633 -0.065653 0.095168 -0.037914 -0.066999 0.084952 0.07458 -0.041238 -0.0044589 0.020314 0.081136 0.055137 0.0066105 -0.065333 -0.0096318 -0.022619 -0.018137 -0.07945 -0.065486 0.044634 -0.017383 -0.079159 -0.072014 0.092608 -0.062989 -0.0033429 0.078503 -0.044953 0.031972 0.061537 -0.039535 -0.02865 0.11629 0.09606 0.044779 0.11017 0.056749 0.03026 0.099803 0.057605 0.04618 0.014542 0.083858 0.11044 0.11318 0.023143 -0.030769 0.062898 -0.069315 -0.02236 0.012427 0.05217 0.068359 0.066422 0.019673 -0.0022232 0.098743 0.069775 -0.01999 -0.07585 0.049404 0.079243 -0.07183 0.015 0.080779 -0.050456 0.014889 0.028063 -0.035021 0.10609 -0.0099193 0.10794 -0.023154 -0.0080795 -0.074087 0.093334 0.00384 0.064669 -0.037395 0.058292 -0.014969 -0.054893 -0.087846 0.033007 -0.0061657 0.10963 0.015471 0.12805 0.12424 -0.012595 0.08838 -0.047364 0.083518 0.029918 0.020719 -0.0035519 0.10894 -0.067873 0.030041 0.027518 0.0047542 -0.01451 0.070782 0.01469 -0.061226 0.06325 0.034571 0.054 -0.061873 0.037871 0.040345 -0.07617 0.09906 0.0095828 0.12483 -0.029772 -0.06226 -0.0046184 0.067726 -0.05003 -0.0008489 -0.055015 0.00402 -0.050677 -0.038299 0.089537 0.053538 0.081974 0.070849 -0.052261 -0.010938 0.031134 -0.073681 0.096369 -0.076187 0.11756 0.048483 0.0088782 0.078153 -0.066711 0.094105 -0.06512 -0.0083381 0.09648 0.025016 0.078831 0.12231 0.01866 0.082662 0.063589 0.090673 0.09114 0.0061656 -0.0096966 -0.052708 -0.049305 0.048102 -0.05981 -0.082964 0.060536 -0.013633 -0.07964 0.023105 -0.036016 0.080019 -0.036638 0.078867 0.11282 -0.0026958 9.373e-05 -0.077153 -0.063676 0.10591 -0.045904 0.11005 0.03924 -0.015095 0.11225 0.12497 0.00027287 0.0022258 0.095619 0.073638 -0.044317 -0.029657 0.11593 0.045549 -0.020981 0.059631 -0.019349 -0.023116 0.023857 0.052 0.10369 -0.035769 0.04568 0.028138 0.069293 0.076141 0.058821 -0.047755 0.068695 -0.047685 -0.018439 0.12159 0.0049466 0.042375 0.081941 -0.038334 0.060131 -0.043313 -0.030708 0.028078 -0.045132 0.058879 0.042723 -0.040059 0.00024467 -0.085327 0.035959 0.10657 -0.020835 -0.012555 0.11138 0.082804 0.077842 0.069239 0.068047 0.076941 0.0957 0.039127 -0.018624 0.01286 0.058131 0.038977 -0.0044182 0.089205 0.01487 0.12723 -0.049512 0.092377 0.072062 0.12938 -0.031786 0.060576 0.00074443 -0.03484 0.052462 0.10826 0.062579 0.052967 0.098353 0.050295 -0.05015 -0.0071665 0.068459 -0.043653 0.092905 -0.010654 -0.00046727 -0.076437 0.030953 0.003139 0.11046 0.084252 0.11498 -0.015677 -0.049704 -0.049565 -0.02017 -0.011737 -0.027453 -0.024089 -0.043291 0.089999 -0.066857 0.11151 0.021988 -0.032978 -0.039491 0.029045 0.05891 0.11014 0.0059984 -0.053928 -0.035425 -0.010177 -0.043847 0.10988 -0.068935 0.025161 -0.0081728 -0.027102 -0.0077799 -0.017132 0.12853 0.0016757 -0.066932 -0.046322 0.044646 0.10067 -0.0033959 0.12157 0.043386 0.056753 0.10919 0.014678 0.061193 -0.0054877 0.069324 0.002775 0.069968 0.053309 -0.02394 0.066601 -0.062573 0.062092 -0.04356 -0.043465 -0.022212 -0.078356 -0.058162 0.087997
0.70887 9.1034e-05 -0.09867 -0.036612 0.12814 -0.0043932 0.014591 -0.0047855 0.043756 -0.13921 -0.31588 0.071374 -0.07481 -0.069005 0.027458 -0.043241 0.14605 0.11713 0.090917 -0.044061 0.093037 -0.12712 -0.16098 0.018563 0.00030331 -0.14641 -0.4898 -0.081673 0.051005 0.10533 -0.020998 -0.20454 -0.17698 -0.18308 -0.086196 -0.086399 -0.21022 -0.10878 -0.18855 -0.10636 -0.089298 -0.060884 -0.13361 0.078902 -0.1946 -0.27744 -0.12812 -0.044606 0.21764 0.01581 -0.087141 0.025937 0.1481 -0.040228 -0.088394 0.14215 -0.0023884 -0.032139 -0.016471 0.063042 0.063134 -0.060743 -0.079981 0.017185 -0.17399 -0.094496 -0.16417 0.00059307 0.025072 -0.033535 -0.1977 0.024258 -0.42666 -0.25167 -0.24661 -0.4816 -0.38268 -0.27827 -0.39496 -0.28426 -0.16099 -0.13697 -0.46101 -0.21068 -0.050854 -0.16393 -0.02923 0.048 -0.064652 0.073604 0.096579 -0.033306 -0.15631 -0.049097 -0.11378 0.0015165 -0.0011491 -0.23355 0.12894 0.077564 0.00048652 -0.034668 -0.27224 -0.31437 0.030672 -0.14554 -0.18826 -0.080806 -0.12688 -0.033945 0.0012442 0.25485 0.045985 -0.080589 -0.13859 0.0038334 -0.16701 -0.013527 0.024186 0.042906 -0.00033264 -0.077148 -0.084757 -0.1959 -0.0020132 0.049681 0.094406 -0.055614 -0.18453 -0.13184 -0.10813 -0.07734 -0.074257 -0.12063 -0.029941 -0.0036753 0.084593 -0.017312 -0.032006 -0.27125 -0.10446 -0.15575 0.052197 -0.0045303 -0.0046628 -0.16898 -0.10967 -0.28232 -0.11849 -0.036747 -0.099444 -0.12596 -0.16862 0.0007453 0.13433 -0.029734 -0.041954 0.083845 -0.036268 -0.037386 -0.015624 0.14213 -0.090363 -0.10158 -0.34969 -0.042933 -0.042754 0.096213 0.081972 -0.23306 -0.31013 -0.38609 -0.13076 0.014037 -0.28181 0.036107 -0.0074542 -0.15629 -0.010501 -0.16467 -0.26643 -0.025305 -0.22787 0.053483 -0.13266 -0.07298 0.063074 0.17405 -0.13247 -0.11935 -0.37005 -0.43403 -0.21215 -0.03096 -0.28296 -0.044478 -0.054205 -0.22846 -0.13171 -0.34007 -0.17262 -0.12473 -0.15482 -0.44699 -0.48253 -0.16984 -0.20782 -0.17452 0.022332 0.06036 -0.37341 0.0071074 0.10484 -0.13761 -0.015453 -0.18451 0.13552 0.1309 -0.04542 -0.18424 -0.08322 0.092071 -0.13873 0.008922 -0.1369 -0.046979 0.0045296 -0.31053 0.0024412 -0.073491 -0.32646 -0.16949 -0.26958 -0.15145 -0.060484 -0.26289 -0.28632 0.047856 0.11849 -0.060196 -0.14285 -0.23696 -0.07632 -0.14032 -0.00070875 0.042987 -0.0071355 -0.061092 -0.21041 -0.24915 0.045053 -0.13795 -0.024659 -0.21108 -0.14398 0.29126 -0.24927 -0.20457 -0.037606 0.17641 -0.25743 -0.30192 -0.054054 0.05968 -0.18683 -0.10073 -0.058162 0.11465 -0.022314 -0.019287 -0.1181 -0.168 -0.16428 -0.026091 0.14566 0.073687 0.010599 -0.30509 -0.15591 -0.10612 -0.091303 -0.21923 -0.058098 0.057979 -0.14048 -0.24802 -0.33109 0.041508 0.020345 0.030355 0.04257 -0.10769 0.12648 -0.16982 -0.31875 0.07483 -0.16482 0.15442 -0.13147 0.13698 -0.18166 -0.043492 -0.086538 -0.28156 -0.0032947 -0.011616 -0.20377 0.075129 -0.25607 0.1058 0.074821 -0.090652 -0.2702 -0.15735 0.0015698 -0.093643 -0.25508 0.10931 -0.11501 -0.0023273 -0.19158 0.067007 0.075174 -0.20939 -0.022484 0.15335 -0.057361 -0.21267 -0.11317 0.038597 -0.29073 -0.020475 -0.34668 -0.16901 -0.077025 -0.17656 -0.22349 0.034329 0.0015285 0.089535 0.16236 0.091009 -0.21825 -0.12255 0.019889 -0.27906 -0.25626 0.068184 -0.17464 -0.12447 -0.09736 0.016787 -0.081326 -0.054172 -0.26185 0.16161 -0.19143 -0.31262 -0.18456 -0.073844 -0.15446 -0.081892 -0.012156 -0.19562 0.052374 -0.10037 -0.18202 0.089153 -0.049213 -0.02434 0.22391 -0.0093436 -0.021478 -0.30154 -0.39062 -0.45289 0.0081274 -0.035006 0.056679 0.18629 0.15455 0.12587 -0.10356 -0.076365 0.11049 -0.03234 -0.26647 -0.36951 -0.18518 -0.10887 0.025475 0.037474 -0.011529 -0.12418 -0.16603 -0.064935 -0.039294 0.093841 -0.060844 0.076991 0.12878 0.070149 -0.10116 -0.10109 -0.32185 -0.32976 -0.25191 0.014587 0.12374 0.15773 -0.022354 0.0044113 -0.17137 -0.082032 -0.027372 0.096932 -0.29245 -0.093889 0.088972 0.036387 -0.15201 0.011251 -0.14066 -0.0064012 -0.018139 -0.14367 -0.1739 0.14809 -0.27832 0.077304 -0.078341 0.08947 -0.11783 -0.21173 -0.41709 -0.21694 -0.037144 -0.27072 0.060136 0.11329 0.097432 0.019044 0.04627 -0.013091 0.12151 0.094139 -0.091892 0.17209 0.10052 0.17429 -0.16178 0.028961 -0.15362 0.0051498 0.070587 0.20205 0.29894 0.065213 -0.14199 -0.29659 -0.17455 0.27336 -0.036699 -0.14944 -0.15838 -0.12788 -0.068725 -0.090755 -0.084252 -0.080204 0.034834 -0.12132 0.074804 0.32484 0.14923 -0.12565 0.16387 0.10695 0.0072876 0.26941 0.021385 0.15079 0.081619 0.21256 0.25452 0.14226 0.043321 0.23131 -0.18568 -0.082718 -0.00097528 -0.019907 0.10504 -0.2637 0.093372 -0.082287 -0.02665 -0.086018 -0.12621 -0.0033645 -0.1339 0.087407 0.38939 0.1339 0.16449 0.068488 0.0075782 0.01998 -0.025775 -0.059216 -0.083221 0.093131 0.20541 0.057258 0.11539 0.21113 -0.0032259 -0.048274 0.24804 -0.041987 -0.14296 0.13998 -0.13722 0.18095 -0.20879 -0.29697 -0.26851 -0.22249 -0.046856 -0.016861 0.33348 0.50589 0.19123 0.1755 0.26514 0.00012558 -0.015049 -0.24908 -0.072365 -0.080541 -0.24525 -0.068939 0.41171 0.28098 0.10957 0.0071512 -0.0094599 -0.080724 0.30269 0.048544 0.17847 0.12778 0.04016 0.034478 0.10494 -0.11627 0.1499 0.13951 0.18882 -0.30763 0.2527 0.22019 -0.1048 -0.14368 0.039713 -0.069868 -0.21055 -0.058148 0.05474 -0.049699 -0.24304 0.2034 0.47312 0.15142 0.026632 -0.029531 0.13083 0.11546 0.1061 0.16737 0.01243 -0.098426 0.037502 0.23195 0.19685 0.0025683 0.18646 -0.096987 -0.12732 -0.096627 0.11015 0.17641 -0.14224 -0.024734 -0.096342 -0.031525 0.013807 -0.029484 -0.060303 0.034988 0.038785 0.01773 0.18748 0.1737 -0.095276 -0.025175 0.068633 -0.044241 0.13059 0.17358 0.019815 -0.071732 -0.029384 0.087496 0.084926 0.089139 0.17373 0.069491 -0.36825 -0.1076 -0.051029 0.073877 -0.15436 -0.13555 -0.014039 -0.088422 0.21964 0.14538 -0.085093 -0.037937 -0.1212 -0.11863 0.050542 -0.08719 0.12438 0.1244 0.11179 0.14555 0.044331 0.31972 0.29319 0.10881 0.15535 0.20784 0.17364 0.21248 0.37328 0.10783 0.032656 0.031544 -0.06221 -0.042835 0.021872 0.0063989 -0.1442 0.074603 0.035829 0.10115 -0.11741 -0.06706 -0.08931 0.15772 0.046396 0.16506 -0.0046271 0.12015 0.066063 0.025934 -0.017912 0.095314 0.20986 0.0092685 0.16832 0.0005771 0.18024 0.1361 0.28576 -0.0029508 0.055181 -0.014506 0.0036324 0.12972 0.029463 0.23032 0.19353 0.054823 0.051862 0.094714 -0.045695 0.015744 -0.019904 0.096248 -0.14234 0.36298 0.12985 -0.16442 -0.0078847 0.079482 -0.2872 0.17763 0.44058 0.18872 -0.069571 0.33572 0.19697 0.08301 0.39225 0.11111 0.23693 -0.012705 0.31612 0.073448 0.038428 0.25862 0.15745 0.09426 0.22931 0.067186 0.042968 0.11594 -0.0089797 -0.0050564 -0.15523 0.051922 0.21566 0.017189 -0.14973 0.2282 0.089327 0.050305 0.23996 0.090506 0.16335 0.0044599 0.2674 -0.077922 0.0098081 -0.028294 0.0054535 -0.0056494 0.13184 0.053799 0.23831 0.020407 -0.040374 0.14437 0.16565 0.15099 0.20497 0.2036 0.11382 -0.29173 -0.21776 -0.026785 0.17986 0.1527 -0.016892 0.1515 -0.035096 0.012043 0.28233 0.09595 0.1849 0.21429 0.25338 -0.02328 0.15987 -0.24488 -0.050113 0.29096 0.40995 0.061827 0.18125 -0.06062 -0.12819 0.17218 0.24958 0.19863 0.291 0.055891 0.1678 -0.16988 -0.10712 0.11549 0.30243 0.41992 0.03343 0.16377 0.13525 0.19853 0.3053 0.24918 0.30461 0.12272 0.094902 0.26704 -0.10615 0.20501 0.17714 0.042288 0.044239 -0.020515 0.062889 0.0094829 0.012706 0.10714 0.027094 0.12512 0.20999 0.078007 0.092066 -0.16175 -0.026014 -0.014711 0.073608 0.00051409 0.31057 -0.028403 0.26285 0.25747 0.08798 0.07028 0.037544 -0.011365 0.16524 0.10448 0.26996 0.097909 0.065885 0.12524 0.088455 0.1178 -0.090836 0.27583 0.056654 0.1663 0.29566 -0.081365 -0.013081 0.064009 -0.031007 -0.085849 0.16327 -0.013554 -0.010944 0.0057482 0.61258 0.14097 0.16781 0.20357 0.04875 0.037188 0.014947 0.008515 0.42781 0.27689 0.50609 0.097773 0.056719 0.087594 0.054158 -0.031681 -0.16273 0.011657 -0.021455 0.18925 0.16162 0.0075283 -0.30026 0.040712 0.051214 -0.32208 0.12992 0.13805 -0.017603 0.054664 -0.143 0.37742 -0.17221 -0.18965 0.1718 0.1133 0.1954 -0.0083515 -0.12835 -0.24841 -0.090939 0.021035 -0.0059314 0.050407 -0.22607 -0.20529 -0.16278 -0.12615 0.067823 0.1641 -0.039546 0.095899 0.043178 0.22542 0.28992
-0.29526 0.034129 0.10793 0.055986 0.087302 0.1545 0.021502 -0.19685 -0.017993 -0.19834 -0.18166 0.10989 -0.031817 0.049216 0.10635 -0.29309 0.0069851 0.18299 -0.0095574 0.0019537 0.032051 -0.11235 0.13361 -0.23545 -0.28698 -0.35286 -0.26342 -0.21606 0.1704 -0.031898 -0.13183 0.32124 0.17399 0.38306 0.4304 0.022418 0.1165 0.08928 0.18281 0.0062541 -0.031936 0.08327 0.32182 0.23523 0.18421 0.0091052 0.10386 0.28701 0.29677 -0.070085 -0.054277 0.53306 0.10195 -0.13581 -0.21618 0.0026035 0.26088 0.002082 0.13759 0.14061 0.11651 0.30755 0.049785 0.22186 0.10736 0.023254 0.0067257 0.10461 0.36523 -0.10336 0.1306 -0.10936 0.18704 0.025763 -0.18753 -0.039456 0.19013 0.26352 0.23013 -0.053343 0.18056 0.33207 -0.11667 -0.32087 -0.13709 0.038632 0.084213 -0.082431 0.17131 0.010867 0.25747 0.050396 0.093321 0.076786 -0.049051 0.078699 0.099937 -0.13383 -0.1673 0.07895 0.27392 -0.019023 -0.032332 -0.22527 0.092753 0.066876 0.11843 -0.011557 0.25374 0.074551 0.16119 0.27028 0.20448 -0.1826 -0.11832 -0.096024 0.15447 -0.20643 0.16514 0.041083 -0.18425 -0.061341 0.074874 0.081597 -0.034175 -0.11681 -0.098025 -0.21919 -0.10284 0.024173 0.063269 0.022449 -0.19673 -0.17068 -0.45066 0.42423 0.30627 -0.055776 0.015271 0.19953 -0.20769 -0.017471 0.11985 -0.15417 -0.29151 0.030124 0.095677 -0.3066 0.076713 0.28314 -0.083332 -0.16649 -0.017093 -0.034047 0.041153 -0.087119 0.059724 0.21941 0.02328 0.12922 0.27267 -0.12494 -0.26346 -0.03377 0.028034 0.34419 0.32667 -0.057615 0.14685 0.24952 0.038372 -0.035145 -0.11585 -0.3903 0.00091469 0.108 0.026416 0.032971 -0.044343 0.014345 -0.065034 -0.11423 -0.18022 0.0069943 0.0052472 -0.30347 -0.17199 0.37036 -0.175 0.35296 -0.19102 -0.1415 -0.12821 0.072456 0.12723 0.057535 0.33034 0.10447 0.10947 -0.17234 -0.21327 -0.33789 -0.16816 -0.26521 -0.20899 0.15533 -0.0062534 -0.39717 -0.25789 -0.16531 -0.12485 -0.11916 -0.098559 0.015438 0.16521 -0.031692 -0.052401 -0.35237 -0.095672 -0.034619 -0.16228 0.10524 -0.17033 -0.14772 0.17401 -0.15768 -0.036099 0.0068833 -0.064064 0.14181 -0.12193 -0.19491 0.09438 -0.23688 -0.076054 -0.0035806 -0.21581 0.0088488 -0.10969 -0.14802 0.26168 -0.19517 -0.24119 0.10198 -0.071476 0.039654 0.26139 0.25695 -0.065272 0.034745 -0.25976 0.011841 -0.3103 -0.11852 0.030322 -0.14123 -0.06504 -0.17822 -0.11989 -0.027518 -0.18152 -0.093394 -0.13013 0.14966 0.049645 -0.018231 0.22903 0.14709 -0.22137 -0.029241 0.045455 -0.20283 0.0744 0.30519 -0.027646 0.052568 0.24158 -0.0089655 0.061265 -0.20912 -0.0038978 -0.21347 -0.13456 0.023429 0.074465 0.3245 0.052276 0.17384 0.17255 0.27078 -0.037958 -0.26339 -0.074387 0.028885 0.13588 -0.0051489 -0.16009 -0.12547 -0.004725 -0.12323 0.13703 0.065339 0.1807 0.23175 -0.13667 -0.033649 -0.049949 -0.19435 -0.062817 -0.14631 0.042212 -0.18247 0.052032 0.013145 0.051313 0.37816 0.27695 0.040777 -0.1522 0.29711 0.15347 -0.11085 -0.36044 -0.25559 -0.18031 0.038392 -0.12171 0.003911 0.097872 0.13808 0.10312 0.038645 -0.13911 0.10451 -0.082423 -0.085529 -0.051182 -0.24258 -0.18018 -0.19879 0.098681 -0.063499 0.26765 0.0092218 0.22777 0.52207 0.31304 -0.23034 0.029504 0.07805 -0.33364 -0.15458 -0.42226 -0.28601 0.10689 0.13497 -0.26974 0.057077 0.27219 -0.027309 0.042212 0.16053 -0.070769 -0.19833 0.079338 -0.094089 -0.095526 -0.19277 -0.15301 0.033006 -0.1088 -0.017757 0.49849 -0.015633 -0.16302 0.12771 0.038663 -0.069537 0.137 0.099712 -0.45743 -0.28422 -0.22477 0.064782 -0.10804 -0.0071868 0.22157 0.1935 0.020076 -0.15851 0.018892 -0.018481 -0.13463 -0.1459 0.16163 -0.28297 -0.0025304 0.015573 0.028526 0.23957 0.022314 -0.012938 0.14689 0.33536 -0.012418 0.040833 -0.17474 -0.1158 -0.015775 -0.28895 -0.13981 -0.064537 -0.27464 -0.26749 -0.16547 0.040555 -0.011822 0.052525 -0.12457 -0.30442 -0.39925 0.02777 -0.21292 -0.065654 0.23448 0.13143 0.13917 -0.26663 0.021678 0.28817 0.11505 -0.27625 0.2599 0.29894 0.15861 -0.4796 -0.41867 0.044916 -0.096214 -0.065313 -0.28095 -0.089845 0.020276 -0.19173 -0.080878 -0.0074885 -0.060766 -0.11817 -0.29584 -0.096548 -0.23088 0.099628 -0.19872 -0.074907 -0.050514 0.029556 0.15275 -0.030805 -0.098537 0.4029 0.13212 -0.0045881 0.011331 0.33181 0.11953 -0.1485 -0.26367 0.076524 -0.10164 -0.14961 -0.14501 -0.17401 0.03323 0.10967 -0.061306 0.023491 0.22481 0.17735 -0.067654 -0.11421 -0.1806 -0.16963 -0.13515 0.099423 -0.13791 -0.2076 -0.12009 -0.017073 0.17227 0.31351 0.17836 0.17382 0.11622 0.17609 0.0015811 -0.14404 -0.075519 0.064185 -0.15412 0.055132 0.024831 -0.15658 0.030594 -0.12878 -0.0034579 0.23116 0.047626 0.25186 0.045982 -0.36435 0.097919 0.094835 0.18943 0.33725 0.3188 -0.20807 0.032485 0.0987 0.37585 0.47164 0.46588 0.2647 -0.050995 -0.19491 0.042277 -0.17078 0.066986 0.16831 -0.30529 0.051301 0.10266 0.091359 0.034944 -0.0085726 0.074311 0.061392 0.12927 -0.078753 -0.045641 -0.24895 0.16884 -0.0832 0.031103 0.021064 0.22608 -0.026784 0.27521 0.38255 0.14898 0.69493 0.081923 0.17459 -0.13877 0.066795 -0.13766 -0.38989 0.20569 -0.047066 -0.37616 -0.28588 0.003103 0.11236 0.2276 0.18988 -0.14227 -0.35739 -0.24024 -0.43114 -0.24712 -0.1968 -0.037164 0.14426 -0.0058608 -0.10652 -0.045416 0.034186 -0.11154 0.17506 0.60414 0.2919 0.16361 0.4393 0.31605 0.014886 -0.00073533 -0.16351 -0.23132 -0.2039 -0.36692 0.060927 0.29206 -0.04511 -0.1078 0.17492 -0.14724 -0.056969 -0.19199 -0.099196 -0.098137 0.0081832 -0.077109 0.021904 0.17626 -0.017119 0.076915 0.13888 0.12016 0.25262 0.3337 0.036354 0.41362 0.025923 0.036766 -0.084474 0.2645 -0.35971 -0.065507 -0.41712 -0.31012 -0.20903 0.024408 -0.29796 0.089366 0.047631 0.037453 0.10731 -0.11667 0.1012 -0.036755 0.11397 0.074868 -0.083433 0.39587 0.25072 0.22217 0.27478 -0.082849 -0.0029936 0.082516 -0.024244 0.16334 -0.002966 -0.052076 0.18904 -0.18583 -0.31112 0.11449 -0.11557 0.063356 0.15295 0.018977 -0.29827 -0.093331 -0.097057 0.044836 0.14179 -0.12032 0.15153 0.16442 0.26857 0.027762 -0.16771 -0.047533 0.29823 0.15814 0.39809 0.0066269 0.063705 -0.026798 0.01697 0.040174 0.088157 -0.013647 0.033209 0.24927 -0.42313 -0.27731 0.030733 0.005947 0.039839 0.16808 -0.0075309 0.0078875 -0.28501 0.039095 0.1266 0.371 0.12144 0.1218 0.069006 -0.021267 -0.023186 -0.063801 0.050419 -0.21251 -0.0097195 0.15625 0.19734 0.2098 0.21481 0.16184 -0.041379 -0.25585 0.028174 0.014486 -0.45641 -0.67404 -0.057825 -0.065278 0.02595 0.14788 -0.27245 -0.37279 -0.13891 0.16385 0.22253 -0.0048033 -0.036159 -0.10424 -0.26092 0.035307 -0.11502 0.025432 -0.09724 -0.4428 0.04034 0.2643 0.009155 -0.024821 -0.080996 -0.1178 -0.19067 -0.15811 -0.089486 -0.25883 -0.08572 -0.24407 0.094609 0.26097 0.27738 -0.21065 0.020429 -0.028316 -0.099662 0.02343 0.01343 -0.070102 0.024444 0.12563 -0.063229 0.0045485 -0.073553 0.24566 0.2191 -0.14263 -0.0081423 0.35916 0.035431 0.29537 0.27089 -0.11543 -0.36002 -0.17404 -0.078052 -0.075791 0.11016 -0.25721 0.028794 -0.081084 0.18905 0.0044995 0.09481 -0.084202 0.2272 -0.12771 0.12829 0.038365 -0.057934 0.13058 0.022626 0.31047 -0.29652 0.068786 0.30171 0.0044659 0.21299 0.24371 0.10008 -0.01231 -0.0024141 0.04362 -0.020662 -0.22844 -0.10123 -0.0916 -0.14818 -0.3983 -0.14211 -0.086554 -0.11215 0.099423 0.16534 0.12952 -0.16567 -0.057429 -0.1718 0.063412 -0.1296 0.087547 0.02727 0.064403 -0.10477 -0.23081 0.32523 0.21237 0.11434 0.2098 0.11017 0.11719 0.097495 -0.13272 -0.33922 -0.12145 -0.15543 -0.0027863 -0.12091 -0.13905 -0.21402 -0.08169 -0.23447 -0.011917 -0.039674 -0.29154 -0.20605 -0.2966 -0.024394 -0.0033541 -0.16039 -0.21906 -0.10703 0.14929 0.10468 -0.12786 0.09433 -0.036689 -0.023903 0.2752 0.16367 -0.18027 0.097915 -0.044954 0.021942 -0.12032 -0.16486 -0.36583 -0.14426 -0.20979 0.12709 -0.062906 -0.28027 -0.089915 0.043757 -0.33144 -0.41424 -0.41422 -0.017478 -0.28692 -0.17973 -0.3557 -0.3256 -0.22472 0.76136 0.28344 0.30588 -0.21189 -0.14103 0.17731 -0.0601 -0.06713 -0.16317 0.013422 0.056946 -0.1035 0.36517 -0.11803 -0.11482 0.22603 0.39065 0.23128 0.048861 0.065294 0.32411 0.2855 -0.1544 -0.1058 0.2173 -0.023496 -0.15619 -0.054681 0.020183 -0.18524
-0.37622 0.21031 0.37053 0.51745 0.33684 0.30439 0.26172 0.084292 0.26525 0.13965 -0.040572 -0.29378 0.066148 0.012647 0.0067105 -0.046207 -0.29794 -0.064133 -0.076199 -0.12212 0.072127 -0.001787 -0.016759 -0.069145 -0.17268 -0.030256 0.17554 0.28878 0.052358 0.18126 0.18073 0.43908 0.60708 0.63981 0.2502 0.29484 0.059737 0.16355 0.079471 -0.090663 -0.050997 0.10517 -0.020407 -0.18857 0.026084 -0.13797 -0.070412 0.0075616 -0.11671 0.014788 -0.18751 -0.14377 0.11949 -0.038768 -0.15904 -0.074127 0.17533 0.085077 0.15735 0.1233 0.067035 0.2637 0.52567 0.48216 0.22752 0.27493 0.20217 -0.041629 0.15407 0.17337 -0.094872 0.020348 0.099439 0.029443 -0.006253 0.1436 -0.0079945 0.03738 -0.082112 0.0064077 0.021462 -0.13067 -0.018409 0.18863 -0.062304 -0.093091 0.11825 0.056242 0.03179 0.0035715 0.24853 0.38457 0.52976 0.29312 0.317 0.14808 0.12632 -0.091574 0.17564 0.20287 0.20291 0.19944 0.1323 -0.018356 0.0013659 0.14012 0.16295 -0.029846 -0.088511 0.010995 0.021577 -0.012907 0.17329 0.040965 -0.15031 -0.069658 0.062415 -0.23355 -0.037282 -0.033463 0.33748 0.141 0.34195 0.41121 0.090051 0.061228 0.14812 0.12077 0.12965 0.11036 0.099578 -0.0096596 0.15482 0.088583 -0.15246 0.083734 0.030739 -0.31755 -0.15362 -0.033338 0.013993 -0.010585 -0.11775 -0.062739 -0.18282 -0.075189 0.043097 0.10362 -0.016815 0.078592 0.45399 0.061554 0.24407 0.2067 0.10916 0.26381 0.16275 0.40835 0.10707 0.10217 0.068273 0.10835 0.14586 0.16874 -0.02578 0.12273 0.27991 -0.18284 -0.13075 0.14859 0.19064 -0.071513 -0.035685 -0.08979 -0.18793 -0.071764 0.2324 0.27075 0.29939 0.21281 0.10977 0.15732 0.22571 0.38573 0.19439 0.04076 0.073342 0.021066 0.093931 0.047379 0.06016 -0.16474 -0.15369 0.012227 0.17449 0.060941 -0.037801 -0.17569 -0.06036 0.11078 0.10053 -0.0056095 -0.28536 -0.3087 -0.16989 0.17936 0.13873 0.041443 -0.055433 0.017401 -0.12229 0.27895 0.13956 0.2653 0.28787 0.014758 -0.057699 -0.01387 0.0077219 0.055454 0.016666 -0.083959 -0.1506 0.049852 -0.06902 -0.022653 0.032753 -0.24091 0.15709 -0.055066 0.17059 0.1801 -0.12135 -0.16523 -0.0074591 -0.17301 0.03126 -0.058167 -0.062494 -0.33669 -0.11167 -0.16708 -0.17824 0.083358 -0.037438 -0.00043976 0.043357 0.067622 -0.040446 -0.10572 0.097003 0.25829 -0.17024 0.16857 -0.19576 -0.27451 -0.211 -0.25796 0.092567 0.028294 -0.0232 0.0090602 -0.28412 0.038628 0.23528 -0.083212 0.11348 -0.11622 -0.037257 -0.0032942 -0.1293 -0.3546 -0.22892 -0.0076239 -0.031558 -0.061254 0.1302 0.094199 -0.1739 -0.0022362 0.095582 0.070661 0.10364 -0.1375 -0.0026454 -0.12436 -0.10835 0.0021654 0.15797 0.11225 0.053949 0.097943 -0.072725 -0.047038 -0.046103 0.064599 -0.061418 -0.1969 -0.18174 -0.031486 0.026671 -0.29927 -0.1095 0.0022311 0.04762 0.12169 0.094588 0.030281 -0.15757 -0.013951 0.1158 0.45514 0.088382 0.14934 0.12092 0.04106 -0.017257 -0.19511 0.083187 0.35468 0.12654 0.16607 0.013552 0.036202 -0.080987 0.15759 -0.19351 0.06931 -0.049132 -0.063641 0.023447 -0.22747 -0.10417 0.015989 0.0056914 0.059778 9.8839e-05 0.071549 0.0012465 0.17422 0.19431 0.31651 0.0077673 0.21279 0.16947 0.19677 -0.011276 -0.23162 0.040308 0.10863 -0.068169 -0.041948 0.033922 -0.19515 0.013642 0.20745 -0.13449 -0.24374 0.10772 -0.31869 -0.12091 -0.26126 -0.26036 -0.12616 -0.1057 -0.021175 -0.20447 -0.12906 -0.29661 0.08201 -0.19896 0.03787 -0.11979 0.22215 0.38779 0.25598 0.033658 -0.11749 -0.10705 0.14037 0.077556 -0.10266 -0.18695 -0.15674 0.021763 -0.13828 0.016364 -0.13523 -0.045695 -0.096715 -0.1291 -0.38064 -0.0096312 -0.058377 0.016059 -0.045276 -0.076055 0.041575 -0.15034 -0.12307 -0.31954 -0.03669 -0.00066405 0.34212 0.31889 0.2265 -0.054568 -0.037492 -0.019057 -0.13408 -0.030793 -0.082486 -0.10993 0.061515 0.084232 -0.069766 -0.096098 -0.01067 0.010326 -0.023861 0.0037073 -0.32096 -0.0023404 -0.0083533 0.22869 -0.014092 -0.073323 0.040576 -0.021742 0.024323 -0.14151 0.11677 0.11431 -0.04811 0.064076 0.29552 0.14679 0.39948 -0.019084 -0.033607 0.11942 -0.043598 0.20403 0.14452 0.0059776 -0.067407 -0.14666 0.073424 0.01652 -0.054181 -0.0067799 -0.29202 -0.020964 0.063834 -0.080151 -0.10493 -0.066418 -0.083583 -0.059369 -0.093904 -0.093343 0.042123 -0.020868 0.083118 0.20274 -0.2037 -0.025357 0.39233 -0.10048 -0.045968 -0.058344 0.00084529 0.28003 0.25305 0.11617 0.048828 0.05365 -0.0072442 0.14815 0.14497 -0.1895 -0.40002 -0.10975 0.012704 -0.33144 -0.18147 -0.11306 -0.11427 -0.072103 -0.25531 0.20508 0.047624 0.1063 0.003968 -0.017653 0.0011239 0.097731 0.18249 -0.16384 0.07626 -0.12296 -0.078983 -0.057741 0.029423 0.26864 0.24614 -0.027765 0.1242 0.12402 -0.22628 -0.2267 -0.16574 0.16784 -0.12367 -0.10158 -0.34746 -0.060232 0.074076 -0.018698 -0.0067779 0.043944 0.061694 -0.21674 -0.074338 0.12299 -0.08583 -0.087858 -0.084701 0.020302 0.23291 -0.09678 -0.08434 0.15516 0.15223 0.22088 0.38842 0.29942 0.12528 0.16318 -0.074841 0.024066 -0.087249 0.16013 0.021573 -0.266 -0.17734 0.072536 0.070292 -0.13825 -0.19605 0.026756 0.020683 -0.11514 0.058111 0.21152 0.13639 0.2573 -0.067246 0.31877 -0.057497 -0.093388 -0.10452 -0.052338 0.18693 0.028239 -0.013799 -0.10268 0.027754 0.16192 0.12469 -0.18724 -0.050235 0.083787 0.026671 0.10014 0.067251 -0.16116 -0.088043 0.12499 -0.046863 0.16531 0.10575 0.025099 0.050354 -0.25597 0.11189 -0.034309 -0.016918 0.070461 0.1414 0.10014 -0.0038421 -0.11817 0.21788 0.18481 0.13828 -0.16675 -0.021029 -0.10106 0.0049872 -0.050234 -0.23472 0.22636 0.23541 0.14287 -0.16452 -0.093698 0.015579 0.23146 -0.23165 0.086151 -0.10601 0.02663 -0.10616 -0.079209 0.23564 0.14603 -0.16783 -0.0079612 0.076801 0.024916 -0.061491 -0.030284 0.15323 0.12278 0.20501 -0.16302 -0.20307 -0.18618 -0.02463 0.052145 -0.028366 0.091538 0.082169 0.045014 -0.15292 0.00024089 0.2043 0.053309 0.17453 0.29087 0.068144 -0.023968 -0.073779 0.10608 0.035801 -0.023116 -0.15268 0.048562 0.022413 0.0063714 -0.15964 0.054674 -0.037063 -0.092178 0.24957 -0.032711 -0.18885 -0.089427 -0.051336 0.023195 -0.051485 -0.12124 -0.11464 -0.016836 -0.19987 0.0009691 -0.056935 0.28031 0.13983 0.20989 -0.21426 0.034762 0.10158 -0.077864 -0.063804 -0.051454 -0.073114 -0.020067 0.12848 0.074505 -0.14349 0.18302 0.10092 0.064094 0.011265 0.098962 -0.026479 -0.076415 0.089511 -0.086914 0.23678 -0.15809 -0.12119 -0.18353 -0.098007 0.027168 0.14424 0.50193 0.14647 -0.20127 -0.15516 -0.29469 -0.095476 0.0653 -0.13818 -0.053303 0.13649 -0.17198 0.14083 0.10156 0.078205 0.033271 0.25128 0.06677 0.072051 0.24151 0.025276 -0.19273 -0.069327 -0.11321 0.20136 0.051239 0.074914 -0.089389 -0.28934 0.031702 0.068227 0.13895 -0.039723 -0.24036 -0.18993 -0.11036 -0.17313 -0.25435 -0.10097 0.022643 0.092943 -0.2052 0.053599 -0.35638 -0.2055 0.24696 0.26538 0.15555 0.32825 0.10048 0.021967 -0.03393 0.061569 0.031285 0.017454 0.059284 -0.076355 0.15109 -0.14161 0.11494 0.028039 -0.20417 -0.2377 -0.27274 0.092403 0.11565 -0.23061 -0.0092083 0.34001 -0.022331 -0.10009 -0.19225 0.020353 -0.22673 -0.10105 0.044715 0.10727 0.093445 0.14693 -0.066094 -0.063573 0.14803 0.025796 0.2153 -0.0084616 -0.12975 -0.13106 -0.097951 0.1739 0.00056096 0.2363 0.055048 0.041854 0.0032529 -0.21626 -0.016621 0.13524 -0.10704 -0.16717 -0.033341 0.0074868 -0.11506 -0.086031 -0.23879 -0.086116 0.19582 -0.045067 -0.14199 -0.076547 -0.11129 -0.12293 -0.0069175 -0.01125 0.0653 -0.11991 -0.20135 -0.0038068 0.060382 -0.1699 -0.10913 0.057857 -0.096026 -0.10527 0.17974 0.19693 -0.099567 -0.1258 -0.11296 0.042808 0.11104 0.050528 -0.22206 -0.012474 0.0080728 0.12815 -0.21981 0.0024222 -0.17258 -0.2439 -0.21365 -0.2036 -0.19087 -0.031075 0.15935 0.27488 -0.05015 0.010351 -0.14859 0.075088 -0.25855 -0.3466 0.13389 0.17693 0.20092 -0.12548 -0.13558 -0.024651 -0.24677 -0.071963 -0.3282 -0.13689 -0.047839 0.0081737 0.19108 -0.077238 -0.1341 -0.10012 -0.41953 -0.16965 -0.1099 -0.21694 -0.0024655 -0.1285 -0.14943 0.4737 0.13427 0.14124 -0.14816 -0.10572 -0.15924 0.22732 -0.15571 -0.1615 -0.25693 -0.48119 -0.21002 -0.19846 -0.15521 -0.19444 -0.14328 -0.05615 0.021672 0.0089475 0.11955 0.0025133 0.12768 0.0019408 -0.054103 -0.11021 0.056072 -0.11584 -0.035947 0.16109 -0.11537
