-0.26708 -0.98561 0.42731 0.48006 -0.45682 -0.2328 0.33577 -1.8233 -0.099616 0.017444 1.8 -2.0208 -2.1391 -0.28313 -0.078944 -0.22177 -0.25002 -1.2666 -2.7786 0.34032 -0.06576 -0.070073 -0.058594 -0.079916 1.6073 -0.24065 0.020647 0.45172 -0.55292 -0.35798 -0.42976 -0.041971 -1.1479 0.01528 -2.5966 -0.041232 -0.1078 -0.47314 -0.80985 -0.089846 0.66122 -1.2251 -1.1938 -0.049518 -0.74943 -0.11434 0.89441 0.12686 0.59067 -0.063338 1.362
-0.42948 0.31685 -1.0691 0.48023 -2.0868 -0.14173 -1.7329 0.89106 -0.44256 -0.49771 1.3115 2.1444 1.5889 -0.085346 -0.58638 -0.70916 -1.0155 1.1515 1.2945 -0.41471 -0.40712 2.0541 -0.46104 -0.3372 -1.9187 -0.49375 -0.45387 -0.65951 -0.1819 -0.41483 -0.23299 -0.44485 1.113 -0.31647 -0.50441 -0.43377 -0.15126 1.0063 0.45642 -0.45739 -1.3714 -1.845 -3.1056 -0.35343 0.063724 -0.14493 -0.9486 0.88068 -0.42407 -0.4264 0.78546
-0.41827 -0.10336 0.50333 -1.4392 1.534 -0.50065 -1.8922 -1.564 -0.39271 -0.28843 1.1225 1.8185 -1.7876 -0.29367 -0.41868 -0.25991 0.68633 -1.4554 -1.3509 -0.20483 -0.32819 -1.1018 -0.3424 -0.38595 -0.24588 -0.39108 -0.29978 0.18053 -1.6743 -0.39886 -0.2638 -0.48116 -0.34673 -0.49119 2.1872 -0.39838 -1.0076 -0.090012 0.94363 -0.34432 0.10244 -1.4086 -2.024 -0.25253 1.2766 -1.3798 0.84127 1.8368 1.1269 -0.29628 0.90292
-0.36093 2.2122 -1.3869 0.71523 -0.18077 -0.6479 -1.9992 1.1762 -0.45439 -0.42834 2.2773 -0.37595 -2.4563 0.95881 -0.24588 -0.18946 -0.027503 -0.18424 0.10687 0.12508 -0.28523 -1.0356 -0.43234 -0.21276 -1.8971 -0.35804 -0.40908 0.03414 -0.59537 -0.30648 -1.4976 -0.28515 -0.088079 -0.38755 -1.3971 -0.42886 0.49892 1.0579 -1.7603 -0.32781 -0.17803 -0.029808 -1.5469 -0.2744 -1.1757 1.4009 1.8961 0.65139 0.6433 -0.49206 -2.2668
-0.60608 1.603 0.52535 -1.8378 0.094607 0.28312 -0.39593 0.5251 -0.60995 -0.42431 -2.0097 -0.54953 -1.553 0.93005 -0.39968 -1.0099 -0.70054 1.2235 0.62772 0.19253 -0.50392 -1.9664 -0.5429 -0.43084 -1.4071 -0.41052 -0.53443 0.49806 -2.776 -0.54777 -0.51135 -0.51796 -2.0697 -0.54564 -0.15825 -0.58739 0.20719 0.36713 0.51832 -0.55822 0.5066 -1.5995 0.94909 -0.55378 0.39791 1.2851 1.3959 2.1451 1.8661 -0.5631 -0.021226
-0.21865 -0.060882 -0.653 -0.068618 0.05001 -0.3053 -0.73318 -1.3911 -0.25492 -0.20107 -0.48775 0.16385 -0.33955 -0.14177 -0.15267 -0.65162 4.2969 1.8263 -0.92124 -0.27006 -0.087723 0.81379 -0.30163 -0.15591 -0.66422 -0.40657 -0.18507 -0.31043 0.67343 -0.37873 -0.90851 -0.27292 2.031 -0.3766 1.0916 -0.33201 -0.31885 -2.0291 -2.1002 -0.16468 -1.2048 1.6574 0.83092 -0.22196 -0.53138 -2.0138 -0.39409 1.3999 -1.0631 -0.32481 -0.85682
-0.61051 -0.44507 0.056387 3.4471 -1.3986 0.6789 1.4009 0.41292 -0.36138 -0.47068 -1.7265 -0.22226 -1.333 -1.1126 -0.28533 1.0117 -1.2805 1.0671 0.38718 0.1401 -0.29384 -0.74314 -0.29123 -0.35825 -3.1849 -0.2468 -0.30227 0.89926 -0.5764 -0.21293 0.11736 -0.35133 -1.2078 -0.31255 2.3439 -0.33785 0.50482 -1.7886 -0.33518 -0.38175 -0.34681 -0.33781 -0.034597 -0.41996 -0.32519 -1.1756 0.76963 -2.1925 2.2177 -0.27772 -1.3199
-0.26242 0.1097 -1.4235 0.90897 -1.483 0.25907 -1.2731 -1.7236 -0.14542 -0.1767 0.20284 1.3585 0.58121 -0.33836 -0.41405 0.81603 -0.69887 -0.0039598 -0.57101 -1.3031 -0.21286 0.31165 -0.25325 -0.28848 -2.2382 -0.20915 -0.22155 -2.119 1.6175 -0.085969 -0.51469 -0.24876 0.45976 -0.18462 -0.6622 -0.20082 -0.059148 0.70917 -0.22801 -0.3305 -0.83416 0.93804 1.9518 -0.24025 -1.3739 0.30013 -0.1232 -2.9039 0.32334 -0.42364 1.3723
-0.52091 -0.85446 -0.96276 -2.0324 -1.2295 -0.22528 -1.6728 -1.5567 -0.24699 -0.38101 -0.11781 -0.76595 -0.057344 0.53825 -0.063031 0.78026 0.017903 -0.19635 0.87984 0.18629 -0.28155 1.2802 -0.34305 -0.31276 -0.36847 -0.12743 -0.28681 1.2979 0.19411 -0.22302 -0.43928 -0.26446 0.80711 -0.25627 -2.0106 -0.18975 -0.11301 -3.0347 1.751 -0.33292 -1.7707 -0.022376 -0.1029 -0.36829 1.8341 -0.3114 1.5907 -0.53095 0.96323 -0.22504 -0.89881
-0.16738 -1.137 -0.08326 2.0622 0.37145 -0.29032 -1.1514 0.94808 -0.20287 -0.057818 1.3685 -0.71331 -1.6413 -2.407 -0.22697 -0.080849 0.062531 1.4954 1.1494 -0.24776 -0.24837 0.33426 -0.057872 -0.19832 2.1244 -0.24883 -0.1122 -1.7577 -0.25716 -0.22691 -0.82862 -0.042598 0.2599 -0.10288 -1.5922 -0.080898 -1.8937 -0.083601 -0.54936 -0.16316 -0.42422 0.87675 -1.0187 0.0048993 -1.8481 -2.0791 -0.1992 -1.0187 0.95124 -0.1996 -0.10483
-0.54261 -1.1754 -0.62791 -1.0164 -2.3718 -0.16196 -1.4224 1.0794 -0.28509 -0.20269 2.1642 -1.1786 -0.32438 -0.56976 -0.097182 -0.29621 0.22103 -0.85991 -1.67 -0.44413 -0.18411 -1.7873 -0.296 -0.1834 -1.0465 -0.19521 -0.37793 1.0952 1.7066 -0.44108 -0.74783 -0.31849 1.4135 -0.33666 -0.4499 -0.27491 -0.32565 0.83405 -2.386 -0.2405 -1.6036 0.96584 1.0959 -0.21451 1.6587 0.71632 -2.1969 0.68798 0.27528 -0.35668 0.49073
-0.31556 -0.68126 -1.3313 -0.83976 0.61142 -1.6801 -0.23638 0.23239 -0.27238 -0.20156 -0.61249 0.28021 0.64891 -0.073475 -0.18905 -0.68176 0.44704 0.77313 1.0336 -0.35817 -0.16599 -0.064877 -0.31923 -0.13587 0.18527 -0.048078 -0.18696 0.17027 0.71366 -0.094737 -0.24778 -0.2741 -0.37795 -0.093971 -2.2615 -0.2016 -0.1482 -2.7758 -1.206 -0.079584 -1.8342 -0.48542 -0.32328 -0.15355 0.5701 -0.88506 2.4223 0.062302 1.898 -0.35932 0.2589
-0.40286 0.97759 -0.038737 0.85557 0.19195 0.45754 0.28387 0.47313 -0.39472 -0.38214 -1.4424 -2.6349 0.60483 -0.4436 -0.25644 -0.38846 -0.46521 -1.4436 1.5876 -1.4087 -0.39822 1.0069 -0.25069 -0.29642 1.2821 -0.38718 -0.39551 0.19936 -1.86 -0.21334 -0.42763 -0.38355 0.30105 -0.38018 -1.0886 -0.27323 0.057662 1.1259 -1.1155 -0.34027 -1.0813 -1.4934 1.2781 -0.30233 2.5234 -0.67437 -1.6136 -2.0725 -0.73976 -0.29324 2.1063
-0.32584 -0.69796 -1.083 -0.11526 0.21749 0.35683 0.58183 -2.5117 -0.31781 -0.20059 -2.6922 2.5234 0.75809 -0.32224 -0.19263 0.49458 -0.94143 -0.75845 0.2924 -0.49047 -0.32242 -0.72513 -0.34875 -0.37136 0.1232 -0.2304 -0.2897 -0.10326 -1.2953 -0.34663 -0.65312 -0.32289 -1.8036 -0.17657 -1.3524 -0.17678 0.10234 0.23483 -1.1767 -0.32728 1.4205 -2.2179 1.3133 -0.32648 -0.061926 1.1691 -0.12902 -2.308 1.8535 -0.21585 1.6376
-0.44732 -1.5255 -0.80871 -1.985 0.27921 0.078016 0.73079 1.0494 -0.32837 -0.44097 -1.122 -2.1618 -1.5544 -2.2348 -0.40019 -0.15274 -0.86513 -1.2919 1.6122 -0.099787 -0.35276 2.6564 -0.26708 -0.28436 -0.2439 -0.32014 -0.2825 -0.37913 -1.2097 -0.28772 -0.34491 -0.36066 -0.94145 -0.32425 1.1347 -0.39621 -0.45081 -0.24781 -0.55775 -0.37712 1.0662 -1.2665 -1.3782 -0.3304 -0.37747 0.67247 -0.038562 2.0288 1.0786 -0.34044 1.6349
-0.40134 -0.27368 0.96884 -2.7078 -0.21421 -1.2685 1.654 1.6826 -0.35457 -0.23859 -1.222 2.9034 1.0471 -0.48696 -0.14552 -0.29792 -0.011591 -0.28402 0.55226 -0.58371 -0.35954 1.037 -0.30215 -0.31854 -0.92777 -0.31816 -0.3482 0.22113 -0.39362 -0.38695 -0.76766 -0.38643 -1.3081 -0.35704 1.2019 -0.39785 0.029823 -0.94986 -2.4787 -0.34689 2.5437 0.44599 0.66538 -0.41675 -1.8738 0.019994 -1.7169 -0.92465 -0.70246 -0.38257 -1.4566
-0.26205 0.11731 1.1678 1.7156 -1.6872 0.47471 1.2497 -1.9088 -0.25049 -0.24934 -0.80222 -1.1773 -0.3932 0.70161 -0.16095 -1.802 0.29864 -1.3033 -2.0676 0.62253 -0.1447 -1.1835 -0.24072 -0.28075 2.3523 -0.28599 -0.15508 -0.76146 -0.54369 -0.14973 -0.14335 -0.3111 0.22793 -0.13996 2.1635 -0.34633 0.081605 -1.5756 -0.16439 -0.37541 0.54629 0.73514 0.83006 -0.22277 -0.32863 -0.95992 -0.077681 0.26054 -2.3897 -0.17599 -1.8098
-0.4756 -1.2764 0.27273 -0.94348 1.0558 -1.0989 0.75398 -0.42966 -0.22614 -0.34854 -0.65779 0.84698 1.2666 -1.2107 -0.29142 0.90051 -0.25575 0.24413 -0.60323 -1.1865 -0.24382 -1.2482 -0.33391 -0.49613 2.4042 -0.36553 -0.2364 -0.079271 -0.45925 -0.38367 -0.52773 -0.26825 -0.17233 -0.20359 1.44 -0.41236 -0.37909 -0.61362 -0.34928 -0.30654 -1.4818 -1.2246 0.36256 -0.38906 1.3921 -0.20706 0.71692 1.8014 -2.7191 -0.21307 1.1352
-0.27913 1.6094 0.83756 -2.5123 0.035376 0.2601 -2.0006 -1.1766 -0.28159 -0.24496 -1.7131 -2.2004 0.90515 -0.46295 -0.1912 -0.49752 -0.75276 1.4704 -0.91191 0.34931 -0.10059 1.9275 -0.058929 -0.049061 -3.1528 -0.031607 -0.094326 0.53816 -1.4504 -0.039006 -0.80782 -0.22089 0.63193 -0.19031 -0.35042 -0.28713 0.33068 0.72031 1.046 -0.073667 -1.2546 -1.5045 -0.26468 -0.18931 -2.1863 0.076244 0.91746 -1.6731 0.73912 -0.1336 0.068497
-0.22676 0.3732 0.23826 -0.21002 -2.7052 -0.3223 -1.3809 1.6919 -0.43255 -0.26712 -1.0457 -0.96153 -1.5721 -1.1599 -0.043449 -1.5991 0.57181 1.5922 0.19711 0.011873 -0.2031 -0.58245 -0.12033 -0.18724 0.51958 -0.66339 -0.16907 0.29727 0.4525 -0.25042 -0.71678 -0.32969 -0.32661 -0.17697 0.74047 -0.25163 -0.042099 -2.3681 1.345 -0.28704 -1.7429 -1.4006 0.24993 -0.17553 1.071 2.0688 -2.422 0.39261 0.49628 -0.28762 1.2463
-0.53461 -0.77986 -2.1326 0.74428 1.6933 -0.14216 0.84127 -1.3054 -0.36654 -0.44995 0.81602 -1.7766 1.9864 0.34104 -0.20416 -0.69237 -0.79455 -0.90976 0.18939 0.39259 -0.37625 -1.4922 -0.30753 -0.45527 -2.4644 -0.43833 -0.46439 -0.28198 -1.3694 -0.37547 0.25024 -0.28905 -2.016 -0.3702 -2.0877 -0.27354 -1.0937 0.19064 1.8393 -0.37448 -0.028296 2.1965 -0.67232 -0.33984 -0.11772 1.6931 0.64097 -0.53361 0.71862 -0.41253 1.4609
-0.45301 -1.3682 -2.8703 -0.9562 0.53605 -0.586 1.748 0.3654 -0.44825 -0.42486 0.99777 -1.2398 0.61689 0.44899 -0.32273 -0.079559 -0.99752 0.85083 -0.32303 -0.65056 -0.42154 -0.8312 -0.42326 -0.31542 -0.36838 -0.26933 -0.30504 0.3899 1.2854 -0.26575 -0.18261 -0.3863 -1.1587 -0.35954 1.3269 -0.44028 -0.44537 -1.8792 0.96088 -0.46106 2.009 2.1542 -0.43067 -0.49865 1.066 1.2254 -1.0945 1.5059 -2.3883 -0.36794 -1.3009
-0.71172 1.04 -1.938 -2.4735 1.9809 0.58071 1.9849 2.0564 -0.41044 -0.55802 -0.66213 1.2823 0.20282 -0.82091 -0.37568 -0.50777 -1.0966 -2.04 -0.3618 0.28011 -0.41242 1.4781 -0.42322 -0.45391 0.43426 -0.33419 -0.53226 -1.318 0.92301 -0.46737 -1.1716 -0.50876 -1.3633 -0.34284 -1.845 -0.46152 -0.30564 0.11408 0.44275 -0.62902 -2.7164 2.2444 -0.11591 -0.39776 1.5529 -0.45593 -0.43071 1.6183 -1.1288 -0.47018 0.65644
-0.30955 -0.60037 -1.4125 0.49587 0.27095 -0.4352 -0.48424 -2.6948 -0.35957 -0.34651 -2.2859 -0.64638 0.69211 -1.4371 -0.20723 -0.39401 -1.0281 0.3807 -1.3849 -0.17764 -0.29132 0.0024093 -0.31677 -0.20114 2.9711 -0.20624 -0.35639 -0.019272 -0.020601 -0.39203 -0.49126 -0.26855 0.69267 -0.18206 -0.92618 -0.31729 -0.18113 2.1245 0.72909 -0.26733 -1.859 2.705 0.22095 -0.36712 1.1721 -1.3298 -1.0876 -1.7705 0.45672 -0.3446 -0.46066
-0.31533 0.077215 0.20538 1.4502 0.07966 -0.97468 2.4792 1.496 -0.39476 -0.29931 -1.2412 -0.61465 1.49 -0.27319 -0.37899 0.57188 -0.34383 1.5711 1.2725 -0.15882 -0.35155 -1.0047 -0.32859 -0.38515 0.24157 -0.32121 -0.32572 0.51018 1.4894 -0.33208 0.43568 -0.32103 -0.13342 -0.22757 -1.736 -0.22977 -0.95123 0.12709 1.9955 -0.38431 -0.4757 -1.5736 -0.72652 -0.42165 -2.936 0.2782 -2.0563 -1.5119 -2.5502 -0.35693 -1.794
-0.47425 -1.3981 1.6883 -0.91278 1.3382 -0.13317 -0.59049 1.6876 -0.43409 -0.26744 -2.2527 0.15389 0.0013335 1.6432 -0.34787 0.58048 -1.1423 1.2761 -1.336 -0.058127 -0.43142 -1.5685 -0.42265 -0.29825 -0.28937 -0.4699 -0.32061 0.1878 1.446 -0.37752 0.28931 -0.48428 0.19994 -0.44464 -1.4398 -0.3218 0.03511 0.86223 -1.9541 -0.29336 -1.1959 -2.5188 -1.4763 -0.36025 1.1306 -1.0321 0.34246 -1.6512 0.88781 -0.32199 0.013599
